%YAML:1.0
---
opencv_ml_svm:
   format: 3
   svmType: C_SVC
   kernel:
      type: RBF
      gamma: 5.3830000000000000e+00
   C: 2.6699999999999999e+00
   term_criteria: { epsilon:1.1920928955078125e-07, iterations:1000 }
   var_count: 64
   class_count: 2
   class_labels: !!opencv-matrix
      rows: 2
      cols: 1
      dt: i
      data: [ 0, 1 ]
   sv_total: 399
   support_vectors:
      - [ 1.04340172e+02, 4.69963417e+01, 0., 0., 2.70990200e+01, 0.,
          2.07169704e+01, 6.04092102e+02, 4.73502441e+02, 0., 0., 0., 4.,
          0., 0., 0., 7.68552197e+03, 7.59372803e+03, 3.51724072e+03,
          9.41251465e+03, 9.06055273e+03, 1.08366953e+04, 8.64533594e+03,
          7.38986484e+04, 1.45635062e+05, 1.66544043e+04, 1.09209932e+04,
          1.29136895e+04, 1.32919873e+04, 6.66669373e+02, 2.06901660e+03,
          4.02488867e+03, 6.35132129e+03, 1.25142480e+03, 6.93668213e+02,
          1.41532666e+03, 1.71202734e+03, 5.29678589e+02, 9.12585632e+02,
          5.63496582e+03, 5.26077441e+03, 1.30501477e+03, 1.35536072e+03,
          8.91632910e+03, 8.92085156e+03, 1.59885840e+03, 1.56092065e+03,
          4.85637891e+03, 5.51379312e+05, 3.39834906e+05, 2.63209875e+05,
          5.13880969e+05, 4.49589594e+05, 2.16116359e+05, 2.88488125e+05,
          5.43336188e+05, 4.73528500e+05, 3.60953781e+05, 2.91127344e+05,
          4.91312906e+05, 4.96700688e+05, 4.10482844e+05, 4.38228062e+05,
          4.76642688e+05 ]
      - [ 0., 0., 0., 0., 0., 0., 0., 0., 0., 0., 0., 0., 0., 0., 0., 0.,
          0., 0., 0., 0., 0., 0., 0., 0., 0., 0., 0., 0., 0., 0., 0., 0.,
          7.51575732e+03, 3.88239258e+03, 3.88823071e+03, 6.68208936e+03,
          6.64524268e+03, 5.09412305e+03, 3.45124609e+03, 6.52205469e+03,
          7.64238330e+03, 2.83647339e+03, 4.87067236e+03, 1.84461922e+05,
          1.79730594e+05, 6.14790137e+03, 4.27670752e+03, 5.40297754e+03,
          8.42845250e+05, 3.66754844e+05, 3.74303875e+05, 5.64669750e+05,
          6.55253125e+05, 4.92110469e+05, 4.77052531e+05, 8.07799188e+05,
          7.69589062e+05, 4.15467812e+05, 4.07688031e+05, 6.20883500e+05,
          5.87087188e+05, 3.47150375e+05, 4.04762312e+05, 9.53547750e+05 ]
      - [ 0., 0., 0., 0., 0., 7.61577320e+00, 2.82842708e+00, 0.,
          5.09901953e+00, 4.66804962e+01, 1.30420542e+01, 6.85285645e+01,
          1.21182465e+02, 0., 0., 0., 8.54140015e+02, 1.45533154e+03,
          1.88662451e+03, 2.20268408e+03, 9.05338928e+02, 6.11144409e+02,
          3.72307617e+03, 7.21569062e+04, 7.94651953e+04, 4.65150488e+03,
          3.02763159e+03, 1.06595752e+03, 2.25392920e+03, 4.85133514e+02,
          5.64724304e+02, 3.10050842e+02, 8., 0., 0., 0., 0., 0., 0., 0.,
          2.45225945e+01, 1.44669891e+02, 3.03323425e+02, 2.41613711e+04,
          3.34283945e+04, 4.33214966e+02, 1.44366089e+02, 1.33956232e+01,
          6.88102062e+05, 4.80752312e+05, 4.12454531e+05, 5.06502375e+05,
          5.46081062e+05, 3.59215219e+05, 4.23540031e+05, 6.68176625e+05,
          7.73252125e+05, 4.86251406e+05, 4.62132531e+05, 5.97026812e+05,
          6.42340312e+05, 4.54778531e+05, 4.65398625e+05, 7.55357688e+05 ]
      - [ 0., 0., 0., 0., 0., 0., 0., 0., 0., 0., 0., 0., 0., 0., 0., 0.,
          7.94977539e+02, 4.20342712e+02, 3.86453552e+02, 8.24567266e+04,
          1.81918535e+04, 2.55440460e+02, 3.61468536e+02, 7.92849512e+03,
          1.59681763e+03, 1.26938220e+03, 4.03306372e+03, 7.75965234e+04,
          2.49860508e+04, 1.79130798e+03, 9.86387146e+02, 4.20723086e+04,
          5.90636377e+03, 4.68100403e+02, 7.00092102e+02, 2.00697031e+04,
          2.53872168e+03, 1.55220871e+02, 1.73322189e+02, 3.37701953e+04,
          9.26014355e+03, 2.17677197e+03, 2.92431274e+02, 4.32943945e+04,
          5.66613525e+03, 1.44146057e+03, 1.93911694e+03, 3.70135703e+04,
          4.39220250e+05, 2.42942969e+05, 2.21003781e+05, 1.35822812e+06,
          5.34538688e+05, 2.21481328e+05, 2.78573875e+05, 1.09544038e+06,
          4.07635344e+05, 2.59723016e+05, 3.34697250e+05, 1.34481438e+06,
          5.73109500e+05, 357300., 334842., 1.05895562e+06 ]
      - [ 1.23520493e+02, 4.78907585e+01, 7.61577320e+00, 0.,
          6.21173935e+01, 2.30384045e+01, 2.16407299e+01, 4.84420593e+02,
          5.35593323e+02, 2.55958786e+01, 3.20540588e+02, 2.43952197e+03,
          3.44677637e+03, 3.06371384e+01, 4.53800697e+01, 6.17389374e+01,
          2.57006992e+04, 1.32697744e+04, 8.10133545e+03, 5.81385205e+03,
          8.74836133e+03, 2.47974194e+03, 3.77641504e+03, 5.21191602e+04,
          6.08283164e+04, 8.20879297e+03, 7.60851416e+03, 8.16853125e+03,
          1.64484316e+04, 4.74940088e+03, 6.10519238e+03, 1.00176943e+04,
          6.17573853e+02, 8.44683472e+02, 9.51238464e+02, 1.10438916e+03,
          1.60613977e+03, 9.03460022e+02, 1.03728943e+03, 6.60859741e+02,
          8.40724976e+02, 1.16909851e+03, 1.35235645e+03, 1.02120023e+05,
          1.20481875e+05, 8.50177917e+02, 8.97953918e+02, 4.39142365e+02,
          5.80947750e+05, 5.61846062e+05, 4.72715531e+05, 6.16049438e+05,
          6.65324250e+05, 5.07877250e+05, 5.73735688e+05, 5.36328375e+05,
          594231., 5.08538438e+05, 4.81966531e+05, 6.76363750e+05,
          7.40264875e+05, 5.28166188e+05, 5.23940906e+05, 5.46877688e+05 ]
      - [ 0., 0., 0., 0., 0., 0., 0., 0., 0., 0., 0., 0., 0., 0., 0., 0.,
          7.48985938e+03, 2.52647461e+03, 2.67730054e+03, 2.56050513e+03,
          2.69973608e+03, 8.81787476e+02, 3.37222778e+03, 6.27839609e+04,
          1.17559047e+05, 4.63269629e+03, 7.17500635e+03, 6.56981445e+03,
          6.63218848e+03, 3.02241455e+03, 5.12503418e+03, 1.26266875e+04,
          3.25225945e+01, 3.73574448e+01, 1.03030872e+01, 1.26491108e+01,
          2., 7.61577320e+00, 3.16597347e+01, 3.32350464e+01,
          8.79651947e+01, 1.68387848e+02, 1.10894608e+02, 3.45392975e+02,
          3.37268829e+02, 1.47782578e+02, 1.86035202e+02, 7.53484421e+01,
          6.42702312e+05, 3.93515219e+05, 3.14943906e+05, 3.54039688e+05,
          3.63504281e+05, 2.83700094e+05, 3.42403062e+05, 5.11546188e+05,
          5.54823375e+05, 4.35838844e+05, 4.22822938e+05, 4.79091875e+05,
          5.18721750e+05, 4.01934344e+05, 4.41062438e+05, 5.68931688e+05 ]
      - [ 8.60659546e+02, 8.92943970e+02, 6.90824463e+02, 5.67505737e+02,
          5.96960693e+02, 7.04599854e+02, 8.45682495e+02, 4.34295319e+02,
          7.10774902e+02, 8.10970459e+02, 6.34765137e+02, 1.29273889e+03,
          3.74705353e+02, 5.27697693e+02, 1.29381912e+02, 2.40041626e+02,
          4.13203320e+04, 2.90795371e+04, 2.26774277e+04, 4.15108164e+04,
          5.97542539e+04, 2.92967676e+04, 3.00152793e+04, 3.65854062e+04,
          5.06920586e+04, 3.67183438e+04, 3.02643340e+04, 3.41638867e+04,
          5.67555039e+04, 2.83776250e+04, 2.44656641e+04, 2.75216641e+04,
          2.77006660e+04, 1.73850527e+04, 2.14414199e+04, 2.14778535e+04,
          2.38213535e+04, 1.62272480e+04, 1.62202812e+04, 1.48165557e+04,
          3.26161348e+04, 1.96733359e+04, 2.51542578e+04, 2.66949766e+04,
          2.76795039e+04, 2.03464629e+04, 1.94311855e+04, 1.76726094e+04,
          7.66802688e+05, 5.76247625e+05, 5.59122562e+05, 6.49988875e+05,
          7.14271812e+05, 5.10212656e+05, 5.89782125e+05, 8.27081312e+05,
          8.79862250e+05, 5.63647625e+05, 4.86666719e+05, 5.70153562e+05,
          6.30312938e+05, 4.75864625e+05, 6.32502625e+05, 8.89356375e+05 ]
      - [ 0., 0., 0., 0., 0., 0., 0., 8.26129723e+00, 3.22612991e+01,
          1.31240578e+01, 0., 0., 0., 0., 0., 0., 0., 0., 0., 0., 0., 0.,
          1.07714119e+02, 1.12947418e+02, 3.16637817e+02, 1.02498009e+02,
          0., 0., 0., 0., 0., 0., 9.41936133e+03, 1.03806904e+04,
          1.12231816e+04, 1.71274961e+04, 2.28122676e+04, 1.80921621e+04,
          1.18889258e+04, 1.03205957e+04, 1.05367217e+04, 1.31216191e+04,
          2.03004688e+04, 9.49128203e+04, 1.03793602e+05, 2.40280898e+04,
          1.53151045e+04, 9.35067969e+03, 6.66223125e+05, 4.21514469e+05,
          3.71496219e+05, 4.83911625e+05, 4.91386281e+05, 4.02822750e+05,
          4.56553812e+05, 8.63145750e+05, 7.20733125e+05, 4.52171875e+05,
          4.25417656e+05, 5.26676562e+05, 5.14791281e+05, 5.34116688e+05,
          5.66455750e+05, 6.89629438e+05 ]
      - [ 0., 0., 0., 0., 0., 8.76584244e+01, 9.21497955e+01,
          3.44062042e+02, 1.08980591e+03, 1.33416702e+02, 0., 0., 0., 0.,
          0., 0., 0., 0., 8.60232544e+00, 0., 3.76317535e+02,
          4.25587061e+03, 1.61596016e+04, 6.84168984e+04, 6.78470625e+04,
          1.62676035e+04, 6.26560205e+03, 1.02213275e+03, 0., 0., 0., 0.,
          2.37658262e+04, 1.30770283e+04, 1.62512568e+04, 2.18913262e+04,
          2.43046348e+04, 1.45994424e+04, 1.53304072e+04, 1.48369043e+04,
          2.28686504e+04, 1.75044551e+04, 2.09327500e+04, 3.38609766e+04,
          3.23205684e+04, 2.25385508e+04, 1.72913770e+04, 1.65663770e+04,
          7.48774875e+05, 6.37029375e+05, 6.49481375e+05, 8.49045750e+05,
          8.67332938e+05, 6.61125500e+05, 6.29705250e+05, 6.88201625e+05,
          6.48730188e+05, 7.01092938e+05, 7.22900312e+05, 8.57842125e+05,
          9.40897250e+05, 7.74297125e+05, 6.93984812e+05, 7.18977750e+05 ]
      - [ 0., 0., 0., 0., 0., 0., 0., 0., 0., 0., 0., 0., 0., 0., 0., 0.,
          0., 0., 0., 0., 0., 0., 0., 0., 0., 0., 0., 0., 0., 0., 0., 0.,
          7.82963086e+03, 7.61311377e+03, 6.49789062e+03, 7.85111475e+03,
          8.04825879e+03, 7.60739014e+03, 9.49786230e+03, 8.56586230e+03,
          8.63181055e+03, 9.99343652e+03, 1.19109434e+04, 2.04534395e+04,
          2.53854668e+04, 1.61510879e+04, 9.10468848e+03, 7.22055420e+03,
          7.71640250e+05, 6.49122312e+05, 6.72498938e+05, 8.84035938e+05,
          1.01553556e+06, 7.27499688e+05, 6.78446562e+05, 7.51235562e+05,
          7.83564625e+05, 6.83006312e+05, 7.75736500e+05, 9.73507875e+05,
          1.09582875e+06, 8.21344750e+05, 6.50850562e+05, 6.64394250e+05 ]
      - [ 0., 0., 0., 0., 0., 0., 0., 0., 5.11622772e+01, 1.03584852e+01,
          0., 0., 0., 0., 0., 0., 0., 0., 0., 0., 1.50710678e+01,
          5.83095169e+00, 1.16025215e+02, 1.40605927e+02, 1.97655383e+03,
          1.27986801e+02, 0., 3.16227770e+00, 14., 0., 0., 0.,
          1.97324072e+03, 1.19251782e+03, 8.87443481e+02, 1.06213696e+03,
          1.84143225e+03, 6.39420166e+02, 8.89462097e+02, 7.51559961e+03,
          3.04892065e+03, 1.33862964e+03, 1.33223035e+03, 4.51493701e+03,
          5.04435596e+03, 8.54884583e+02, 1.21554187e+03, 6.59658020e+02,
          6.05058688e+05, 3.65981312e+05, 3.43485594e+05, 561996.,
          5.08453188e+05, 3.22890656e+05, 3.67116406e+05, 875845.,
          9.68549875e+05, 4.09026375e+05, 4.16747062e+05, 5.08972344e+05,
          4.88891156e+05, 3.68819562e+05, 4.21022906e+05, 7.53797312e+05 ]
      - [ 0., 0., 0., 0., 0., 0., 0., 0., 0., 0., 0., 0., 0., 0., 0., 0.,
          2.02557907e+02, 1.05069809e+02, 6.09373665e+01, 7.06143036e+01,
          7.87431885e+02, 1.48517212e+03, 3.02806860e+03, 8.71017578e+04,
          2.17316484e+05, 3.65429956e+03, 1.69299182e+03, 7.58320190e+02,
          2.04961777e+02, 5.88849411e+01, 8.09765244e+01, 8.00681305e+01,
          0., 0., 0., 0., 0., 0., 0., 0., 0., 0., 0., 0., 0., 0., 0., 0.,
          4.67642375e+05, 2.58804141e+05, 2.10110875e+05, 3.66576094e+05,
          3.00932281e+05, 2.10935266e+05, 2.60022922e+05, 4.13840812e+05,
          3.52945875e+05, 3.25257938e+05, 3.35624375e+05, 4.24037750e+05,
          4.44319500e+05, 3.41110875e+05, 3.44727188e+05, 524514. ]
      - [ 6., 1.41421356e+01, 7.39030991e+01, 0., 18., 1.72111015e+01,
          9.48560638e+01, 1.23617834e+03, 1.33506201e+03, 1.24801819e+03,
          1.06311951e+03, 7.09561951e+02, 2.85599902e+03, 4.47213602e+00,
          8.48528099e+00, 2.09104080e+01, 7.49300879e+03, 3.86947998e+03,
          2.75132886e+03, 2.35860840e+03, 2.19468384e+03, 1.93690393e+03,
          3.35902832e+03, 3.15641812e+05, 3.64587531e+05, 3.52966846e+03,
          2.26672070e+03, 2.14413037e+03, 1.79433508e+03, 2.88131055e+03,
          3.60574854e+03, 5.76393652e+03, 1.89904199e+03, 1.06476465e+03,
          1.71027710e+03, 3.37957861e+03, 4.08218896e+03, 2.22864355e+03,
          1.03332703e+03, 4.39868683e+02, 9.94111389e+02, 7.17930359e+02,
          2.43582178e+03, 1.34645344e+05, 1.61703094e+05, 3.45082397e+03,
          1.14866272e+03, 2.11077783e+03, 9.97536562e+05, 654971.,
          5.75464688e+05, 6.89549250e+05, 6.99438938e+05, 5.48709438e+05,
          5.99638500e+05, 6.15157188e+05, 7.32562750e+05, 5.81851562e+05,
          5.22016656e+05, 6.79357688e+05, 7.32860125e+05, 5.68989875e+05,
          5.53183625e+05, 9.59250500e+05 ]
      - [ 2., 5.83095169e+00, 0., 0., 0., 0., 0., 0., 1.01980391e+01,
          2.16167965e+01, 6.22983971e+01, 6.68720016e+01, 4.84795570e+01,
          4.25440941e+01, 1.41421356e+01, 8.24621105e+00, 4.29774316e+03,
          3.31442603e+03, 3.69261328e+03, 1.11487988e+04, 1.78016992e+04,
          1.04328936e+04, 1.52957021e+04, 6.44891641e+04, 7.07210391e+04,
          1.82188535e+04, 1.51217959e+04, 1.40223555e+04, 1.28617051e+04,
          3.42660229e+03, 3.32657568e+03, 2.38398901e+03, 1.11622772e+01,
          0., 0., 0., 0., 0., 0., 0., 4.65696487e+01, 3.01331177e+02,
          5.65891968e+02, 1.54328623e+04, 1.84944219e+04, 5.37179443e+02,
          3.03636810e+02, 6.87184296e+01, 1096908., 5.59913562e+05,
          5.15055375e+05, 8.24028375e+05, 9.48303438e+05, 7.10059125e+05,
          5.88880500e+05, 9.43806250e+05, 8.46280375e+05, 5.41279438e+05,
          6.49307250e+05, 1.05463612e+06, 9.81001062e+05, 6.20212188e+05,
          5.66946125e+05, 1.03440925e+06 ]
      - [ 0., 0., 0., 0., 0., 0., 0., 0., 0., 0., 0., 0., 0., 0., 0., 0.,
          0., 0., 0., 0., 0., 0., 0., 0., 0., 0., 0., 0., 0., 0., 0., 0.,
          1.20118729e+02, 4.60438232e+01, 2.58730698e+01, 3.16227770e+00,
          5.94868317e+01, 3.66442947e+01, 3.86308098e+01, 2.79596558e+01,
          1.10064331e+02, 5.30927124e+01, 2.47252922e+01, 3.22959938e+01,
          3.94868317e+01, 1.92353840e+01, 4.93494377e+01, 2.87222176e+01,
          6.23521812e+05, 5.21205875e+05, 3.88170500e+05, 4.10670688e+05,
          4.00520938e+05, 3.61777469e+05, 4.95563938e+05, 6.49930188e+05,
          6.73956312e+05, 5.54035375e+05, 4.94516531e+05, 5.30135938e+05,
          5.15068625e+05, 4.74128438e+05, 5.71695250e+05, 5.73493062e+05 ]
      - [ 1.82462120e+01, 0., 1.34467249e+01, 1.01980391e+01, 6., 0., 0.,
          0., 0., 4.44216957e+01, 1.20295265e+02, 4.37105225e+03,
          8.14170898e+03, 8.28034668e+01, 1.28449659e+01, 3.16227770e+00,
          2.13948633e+04, 2.13271777e+04, 3.02928047e+04, 4.33024688e+04,
          3.30864766e+04, 1.21614775e+04, 2.84252305e+04, 2.82928281e+04,
          3.44353906e+04, 3.58449414e+04, 2.60918867e+04, 2.73684688e+04,
          3.56867773e+04, 1.18076934e+04, 1.44452393e+04, 4.55729141e+04,
          1.86016571e+02, 2.02348862e+02, 1.06638428e+02, 2.78056000e+02,
          2.64885590e+02, 1.25893623e+02, 2.28904083e+02, 1.10703529e+02,
          2.18639465e+02, 5.25532104e+02, 1.77175806e+03, 1.76626062e+05,
          1.99798266e+05, 1.37353845e+03, 7.80987366e+02, 1.35472046e+02,
          5.84919625e+05, 4.50194656e+05, 4.25508750e+05, 6.90394188e+05,
          6.66223750e+05, 5.20086125e+05, 5.83961688e+05, 7.19116938e+05,
          5.96321750e+05, 4.43701281e+05, 4.38280906e+05, 7.02538562e+05,
          5.99785062e+05, 4.18369625e+05, 3.93156531e+05, 5.63933062e+05 ]
      - [ 0., 0., 0., 0., 0., 0., 0., 0., 0., 0., 0., 0., 0., 0., 0., 0.,
          0., 0., 0., 0., 0., 0., 0., 0., 0., 0., 0., 0., 0., 0., 0., 0.,
          0., 0., 0., 0., 0., 0., 0., 0., 0., 0., 0., 0., 0., 0., 0., 0.,
          4.20283406e+05, 2.82199438e+05, 2.57851594e+05, 5.55020375e+05,
          6.00104750e+05, 2.31295750e+05, 2.89536562e+05, 5.52545938e+05,
          6.44381438e+05, 3.04677688e+05, 3.33121938e+05, 4.57750344e+05,
          5.05879094e+05, 3.43617875e+05, 3.27580281e+05, 4.71918031e+05 ]
      - [ 0., 0., 0., 0., 0., 0., 0., 0., 0., 0., 0., 0., 0., 0., 0., 0.,
          0., 0., 0., 0., 0., 0., 0., 0., 0., 0., 0., 0., 0., 0., 0., 0.,
          6.63308838e+02, 7.03948608e+02, 3.51982544e+02, 2.02228745e+02,
          3.01463654e+02, 3.69111359e+02, 3.47722168e+02, 2.72963745e+02,
          1.25244922e+03, 1.69171204e+03, 2.59143213e+03, 9.81847109e+04,
          1.15562820e+05, 1.21924304e+03, 8.55971130e+02, 6.91864014e+02,
          6.30534062e+05, 4.21309031e+05, 4.29915594e+05, 7.11933375e+05,
          6.46767375e+05, 5.24179062e+05, 4.94973375e+05, 8.34073062e+05,
          8.95330375e+05, 4.55709062e+05, 4.27634094e+05, 7.53412562e+05,
          6.14376375e+05, 4.86076031e+05, 4.13209250e+05, 6.79302875e+05 ]
      - [ 4., 0., 0., 7.07106781e+00, 0., 8.94427204e+00, 5.65685415e+00,
          0., 4.21980400e+01, 2.00284843e+01, 0., 0., 4., 0.,
          8.94427204e+00, 0., 9.63339844e+01, 4.85422516e+01,
          1.47752237e+01, 1.89736671e+01, 2.17938232e+02, 5.64652328e+01,
          4.44426910e+02, 4.47781311e+02, 1.21149768e+03, 4.51203827e+02,
          5.68650398e+01, 6.90910873e+01, 1.79918213e+02, 1.89054127e+01,
          4.57138252e+01, 2.09104080e+01, 7.61917175e+02, 9.85046997e+02,
          1.42741321e+03, 6.56873438e+03, 9.61414355e+03, 1.65920728e+03,
          8.78213806e+02, 2.75844019e+03, 3.77077930e+03, 1.34508411e+03,
          3.93680225e+03, 1.34981594e+05, 1.60364266e+05, 2.70968115e+03,
          1.31700989e+03, 5.48378235e+02, 4.76412969e+05, 4.38468500e+05,
          4.31587250e+05, 6.17461875e+05, 7.47721750e+05, 4.77238375e+05,
          4.83809938e+05, 6.93301688e+05, 7.23447438e+05, 4.27910062e+05,
          3.73011469e+05, 614338., 7.57769875e+05, 4.11302094e+05,
          3.87942344e+05, 4.05949594e+05 ]
      - [ 0., 0., 0., 0., 0., 0., 0., 0., 0., 0., 0., 0., 0., 0., 0., 0.,
          7.74392761e+02, 2.83986877e+02, 8.43160019e+01, 1.01051582e+02,
          2.66052368e+02, 1.36293289e+02, 2.78958350e+03, 1.08707547e+05,
          2.21182531e+05, 2.80989893e+03, 7.73466797e+02, 1.82245865e+02,
          3.01710999e+02, 6.46287613e+01, 2.63386658e+02, 1.64940170e+02,
          0., 0., 0., 0., 0., 0., 0., 0., 0., 0., 0., 0., 0., 0., 0., 0.,
          6.77438750e+05, 3.98927594e+05, 3.16231594e+05, 3.78925875e+05,
          4.20994156e+05, 2.69394250e+05, 3.64751156e+05, 4.95375375e+05,
          4.62907781e+05, 4.07157750e+05, 3.19145875e+05, 4.43769469e+05,
          5.53549312e+05, 3.99589219e+05, 4.06025656e+05, 4.93166188e+05 ]
      - [ 4., 2.82842708e+00, 0., 0., 0., 0., 0., 0., 0., 1.41421354e+00,
          0., 3.95638199e+01, 1.51622772e+01, 8.60232544e+00,
          1.15432034e+01, 3.16227770e+00, 3.69685703e+04, 3.09094897e+03,
          6.23977881e+03, 2.90537676e+04, 3.32026211e+04, 7.33343652e+03,
          6.98037061e+03, 2.18061934e+04, 2.09137148e+04, 8.32486719e+03,
          1.27679766e+04, 4.52064883e+04, 2.72863770e+04, 4.57196680e+03,
          3.74511206e+03, 7.72714219e+04, 16., 1.41421354e+00, 0., 0.,
          2., 0., 1.41421354e+00, 0., 3.06491108e+01, 1.86142712e+01, 0.,
          6.32455540e+00, 3.14868336e+01, 0., 1.57858448e+01,
          1.58113880e+01, 4.68674125e+05, 2.41895547e+05, 2.41059469e+05,
          5.14840281e+05, 4.22150156e+05, 1.71690078e+05, 2.09397016e+05,
          3.76355500e+05, 3.70969469e+05, 2.87684094e+05, 3.15143438e+05,
          5.69453250e+05, 4.45499438e+05, 3.04629562e+05, 3.01946344e+05,
          4.03789188e+05 ]
      - [ 7.00521301e+02, 2.89400635e+02, 5.66380066e+02, 1.84099731e+02,
          682., 5.72557251e+02, 4.15563507e+01, 3.20661194e+02,
          4.15390167e+02, 7.76459427e+01, 5.41566528e+02, 3.80332855e+02,
          6.63983215e+02, 6.05615723e+02, 2.81968933e+02, 2.60016541e+02,
          2.81465723e+04, 1.88054043e+04, 1.96415703e+04, 2.47292578e+04,
          3.02641172e+04, 9.96415527e+03, 1.40729854e+04, 2.01847984e+05,
          2.78531562e+04, 1.69439512e+04, 1.72635547e+04, 2.42074043e+04,
          3.49249922e+04, 1.16348662e+04, 1.36895967e+04, 2.92198184e+04,
          3.45447383e+04, 1.10051250e+04, 6.68578174e+03, 8.54613574e+03,
          9.27707715e+03, 8.33377246e+03, 1.19792617e+04, 2.03005918e+04,
          2.70556035e+04, 1.14609648e+04, 1.08248008e+04, 1.19964287e+04,
          7.64134082e+03, 6.53601758e+03, 8.81686816e+03, 3.03626758e+04,
          1.03711688e+06, 6.68816125e+05, 7.39545750e+05, 1.09938962e+06,
          1.02574294e+06, 6.95635812e+05, 6.14435125e+05, 8.70228875e+05,
          8.55490562e+05, 6.69680250e+05, 6.81019938e+05, 9.40165500e+05,
          8.70827812e+05, 6.25283375e+05, 6.03920188e+05, 1.23353212e+06 ]
      - [ 0., 0., 0., 0., 0., 0., 0., 0., 0., 0., 0., 0., 0., 0., 0., 0.,
          0., 0., 0., 0., 0., 0., 0., 0., 0., 0., 0., 0., 0., 0., 0., 0.,
          3.16540723e+03, 1.70092261e+03, 2.33214941e+03, 1.73009375e+03,
          1.93071741e+03, 1.41641638e+03, 1.97079651e+03, 3.41295312e+03,
          4.83341602e+03, 6.31115430e+03, 7.58682666e+03, 1.00452906e+05,
          1.06957023e+05, 5.43394629e+03, 3.04964575e+03, 4.92575098e+03,
          1.03187625e+06, 7.00344062e+05, 4.65616281e+05, 4.32519906e+05,
          4.97006219e+05, 2.87886125e+05, 4.01303406e+05, 8.46820062e+05,
          1168943., 7.79844562e+05, 4.93411781e+05, 5.41292562e+05,
          5.48123938e+05, 2.73351625e+05, 3.80842469e+05, 6.87413312e+05 ]
      - [ 16., 0., 0., 3.16227770e+00, 1.21655254e+01, 0.,
          2.17892380e+01, 1.53323650e+01, 5.93745789e+02, 2.45845779e+02,
          7.10361694e+02, 2.71662158e+03, 1.11622772e+01, 4.47213602e+00,
          8.48528099e+00, 6.32455540e+00, 7.16293115e+03, 6.14867285e+03,
          7.23785547e+03, 1.06841680e+04, 1.00141982e+04, 5.76898535e+03,
          1.08370117e+04, 1.25873484e+05, 1.66849406e+05, 1.32595088e+04,
          1.02198281e+04, 1.33835654e+04, 8.00792529e+03, 5.87022363e+03,
          5.02074170e+03, 7.16425488e+03, 9.04758240e+02, 5.87333008e+02,
          4.65083710e+02, 6.25144592e+02, 1.99628577e+03, 4.13016785e+02,
          6.98830139e+02, 9.87894531e+02, 1.32696680e+03, 2.64187939e+03,
          7.62551221e+03, 1.19155391e+05, 1.32141750e+05, 8.27152539e+03,
          2.61518970e+03, 2.69746704e+03, 1.00214912e+06, 4.50462812e+05,
          4.54910719e+05, 7.00351812e+05, 765419., 4.54629562e+05,
          5.03365906e+05, 1.18104262e+06, 7.58423062e+05, 4.70001219e+05,
          5.03066375e+05, 8.13452188e+05, 6.85911500e+05, 4.93475750e+05,
          4.76656219e+05, 1.29755812e+06 ]
      - [ 0., 0., 0., 0., 0., 0., 0., 0., 0., 0., 0., 0., 0., 0., 0., 0.,
          3.40777466e+03, 2.74877075e+03, 2.23337915e+03, 1.01838477e+04,
          3.78782969e+04, 4.42034961e+03, 3.97295435e+03, 8.46437578e+04,
          9.10171406e+04, 4.96447998e+03, 2.83709424e+03, 8.22721875e+03,
          4.03138945e+04, 2.15512988e+03, 2.17230713e+03, 2.79773706e+03,
          1.12918027e+04, 1.07463104e+02, 5.85375252e+01, 1.22176628e+01,
          5.20825195e+01, 6.12683487e+01, 1.39012177e+02, 2.91547998e+03,
          1.15263174e+04, 3.27073535e+03, 1.18166602e+03, 1.01636798e+03,
          1.07006848e+03, 1.74693726e+03, 2.31126074e+03, 3.64492212e+03,
          1.16881862e+06, 4.15681344e+05, 3.98144344e+05, 5.85431875e+05,
          1.18174050e+06, 4.14561938e+05, 4.41729750e+05, 5.57528750e+05,
          1.08346050e+06, 3.81714750e+05, 3.72331531e+05, 5.45284125e+05,
          1.24862262e+06, 4.47871156e+05, 4.33243219e+05, 5.57163375e+05 ]
      - [ 0., 0., 0., 0., 0., 0., 0., 0., 0., 0., 0., 0., 0., 0., 0., 0.,
          2.01078711e+04, 1.16408535e+04, 1.16592061e+04, 2.60002812e+04,
          1.70144492e+04, 1.58041396e+04, 3.01888027e+04, 1.40556312e+05,
          1.82784781e+05, 2.65292617e+04, 1.37610283e+04, 3.37940820e+04,
          2.23312070e+04, 7.54568359e+03, 1.02015742e+04, 2.90043418e+04,
          6.86603672e+04, 2.94525195e+04, 1.75790137e+04, 1.20738008e+04,
          1.59889453e+04, 1.44619141e+04, 2.12058105e+04, 4.73006875e+04,
          7.68990938e+04, 5.11250586e+04, 4.19286445e+04, 8.24279531e+04,
          6.03902422e+04, 3.50181719e+04, 2.82651426e+04, 7.46094141e+04,
          1.21324012e+06, 7.25404812e+05, 5.92874062e+05, 7.45225750e+05,
          6.96607750e+05, 5.42082625e+05, 6.20382250e+05, 9.22583062e+05,
          9.80311312e+05, 7.47590375e+05, 6.61032625e+05, 851131.,
          7.05618625e+05, 4.93248281e+05, 5.58526062e+05, 1.15323062e+06 ]
      - [ 1.30384045e+01, 1.20879097e+01, 0., 9.48683357e+00,
          1.63245544e+01, 0., 2.82842708e+00, 3.12236572e+03,
          1.08016785e+03, 2.02336456e+02, 1.24374243e+03, 9.44437256e+02,
          3.44471130e+01, 8.60232544e+00, 1.44222050e+01, 0.,
          2.29533661e+02, 2.05833878e+02, 1.42543152e+02, 4.84739594e+02,
          1.06180212e+03, 1.57701746e+03, 2.54597437e+03, 2.37471906e+05,
          2.25937953e+05, 3.06113623e+03, 1.02523499e+03, 2.08489868e+02,
          2.36915268e+02, 1.45635406e+02, 2.13523285e+02, 1.83840240e+02,
          9.17507706e+01, 1.79047623e+02, 2.21202316e+02, 5.98172070e+03,
          2.55560020e+04, 8.96455765e+01, 6.31836395e+01, 1.45858526e+01,
          2.94017544e+01, 8.98719864e+01, 1.69436920e+02, 6.39966797e+04,
          3.64238875e+05, 1.38757477e+02, 8.06101685e+01, 2.55506248e+01,
          7.99485625e+05, 5.41920562e+05, 4.56107656e+05, 5.86176500e+05,
          5.40600375e+05, 4.16543906e+05, 5.39974562e+05, 8.09770688e+05,
          7.60480250e+05, 4.92479750e+05, 4.04197500e+05, 4.85192875e+05,
          5.04387344e+05, 4.14274094e+05, 5.35034562e+05, 7.29865812e+05 ]
      - [ 18., 0., 4.47213602e+00, 3.73968620e+01, 2.43635635e+01,
          5.83095169e+00, 5.53151169e+01, 2.75790869e+03, 1.87293140e+03,
          3.25753860e+01, 0., 0., 2., 0., 0., 0., 3.45410980e+02,
          3.32542603e+02, 1.56852585e+02, 2.77229889e+02, 1.19199060e+03,
          2.75055249e+03, 5.21613477e+03, 1.71340969e+05, 2.01203078e+05,
          3.55572363e+03, 2.31724927e+03, 9.58635315e+02, 5.04904358e+02,
          1.62227356e+02, 3.85010162e+02, 1.94087723e+02, 1.63957852e+04,
          9.01257617e+03, 1.00050273e+04, 1.70405059e+04, 2.41290859e+04,
          7.28093018e+03, 7.47668408e+03, 7.58939893e+03, 2.54133594e+04,
          2.47303223e+03, 2.41798999e+03, 1.32207139e+04, 1.52818828e+04,
          2.57912891e+03, 1.49979175e+03, 5.60702734e+03, 7.42854312e+05,
          6.33625500e+05, 4.75944625e+05, 5.75124438e+05, 6.83788062e+05,
          4.60221562e+05, 6.16412750e+05, 8.14963125e+05, 1.10736725e+06,
          5.92202188e+05, 4.40646906e+05, 5.62204375e+05, 6.38209562e+05,
          4.37147812e+05, 5.62201500e+05, 8.88247312e+05 ]
      - [ 6., 0., 0., 0., 7.07106781e+00, 0., 1.55563488e+01,
          1.21700878e+01, 3.62462120e+01, 2.70995522e+01, 0., 0., 4., 0.,
          5.88634968e+00, 0., 1.03342957e+02, 6.24548912e+01,
          1.61553745e+01, 3.11084480e+01, 2.56813324e+02, 9.81249237e+01,
          4.71739044e+02, 6.06034058e+02, 1.27843469e+03, 4.52447632e+02,
          4.40243034e+01, 1.10846420e+02, 2.18306030e+02, 3.95041313e+01,
          6.76447525e+01, 6.27312241e+01, 3.53879541e+03, 6.92465576e+02,
          1.98815125e+03, 2.97261895e+04, 1.52771859e+05, 3.14140845e+03,
          1.30724084e+03, 6.36072949e+03, 3.82447827e+03, 1.54645044e+03,
          4.23804248e+03, 3.06014980e+04, 6.59757344e+04, 5.17195410e+03,
          1.46625952e+03, 6.50258545e+02, 4.32648344e+05, 4.57743938e+05,
          4.04564906e+05, 9.04671062e+05, 1.85682388e+06, 5.48203625e+05,
          4.93328656e+05, 6.03273750e+05, 5.23494875e+05, 3.24919938e+05,
          3.86806812e+05, 1.01941950e+06, 1.74377038e+06, 5.49553562e+05,
          3.63245562e+05, 3.44397531e+05 ]
      - [ 0., 0., 0., 0., 0., 0., 0., 0., 0., 0., 0., 0., 0., 0., 0., 0.,
          4.00758850e+02, 4.44124237e+02, 5.31105713e+02, 6.33573779e+03,
          6.25585742e+03, 1.88678174e+03, 8.58910339e+02, 4.78913320e+04,
          1.49970797e+05, 2.72929858e+03, 6.69255273e+03, 6.77927930e+03,
          7.46319458e+02, 4.42417175e+02, 6.00054565e+02, 3.30285828e+02,
          0., 0., 0., 0., 0., 0., 0., 0., 0., 0., 0., 0., 0., 0., 0., 0.,
          6.23427188e+05, 3.98900312e+05, 3.16692281e+05, 3.86743625e+05,
          5.51443125e+05, 3.53790781e+05, 3.65694188e+05, 4.41473844e+05,
          6.62266938e+05, 4.40773312e+05, 3.33388344e+05, 3.94591750e+05,
          4.26359812e+05, 3.39584094e+05, 4.12398625e+05, 6.96628938e+05 ]
      - [ 5.16227770e+00, 0., 0., 6.32455540e+00, 8., 0., 2.33121567e+01,
          1.96945032e+03, 1.95257117e+03, 2.76234528e+02, 0.,
          1.14235744e+01, 1.03245554e+01, 0., 1.14878063e+01,
          5.09901953e+00, 1.82797485e+02, 1.56100189e+02, 1.17923279e+02,
          1.24467361e+02, 1.32938269e+03, 1.39536047e+03, 5.78483643e+03,
          1.88756656e+05, 2.50047469e+05, 3.86986450e+03, 7.05241272e+02,
          2.29309540e+02, 3.21233856e+02, 8.39618988e+01, 1.71135696e+02,
          1.46477798e+02, 2.32149922e+04, 1.77197246e+04, 1.48080459e+04,
          1.03583115e+04, 6.67618164e+03, 5.25117676e+03, 3.90690503e+03,
          1.09555713e+04, 1.96415273e+04, 1.57031211e+04, 2.69258438e+04,
          3.46048242e+04, 2.46996250e+04, 1.13153906e+04, 9.82387402e+03,
          8.31743164e+03, 5.19817250e+05, 385262., 3.58174281e+05,
          7.59067438e+05, 8.91683438e+05, 4.31758156e+05, 3.78436344e+05,
          4.83754719e+05, 3.93093969e+05, 3.47959219e+05, 327149.,
          5.39678625e+05, 7.08586562e+05, 5.35181750e+05, 4.94731875e+05,
          5.36284188e+05 ]
      - [ 0., 0., 0., 0., 0., 0., 0., 0., 0., 0., 0., 0., 0., 0., 0., 0.,
          1.05340078e+04, 2.13103174e+03, 8.46989258e+02, 1.42092480e+03,
          8.90151074e+03, 9.69947937e+02, 2.24256177e+03, 9.08374609e+04,
          3.01887031e+05, 4.35826611e+03, 6.15456201e+03, 4.52538818e+03,
          5.13242236e+03, 1.62504004e+03, 2.62076074e+03, 6.91727832e+03,
          0., 0., 0., 0., 0., 0., 0., 0., 0., 0., 0., 0., 0., 0., 0., 0.,
          5.87546188e+05, 4.59469188e+05, 3.83848750e+05, 4.17461781e+05,
          4.66539188e+05, 3.22025906e+05, 3.76551844e+05, 5.19480688e+05,
          4.94451625e+05, 3.84261719e+05, 4.16748094e+05, 4.96823562e+05,
          5.81810438e+05, 507638., 4.26288906e+05, 4.66331125e+05 ]
      - [ 0., 0., 0., 0., 0., 0., 0., 0., 0., 0., 0., 0., 0., 0., 0., 0.,
          7.72877539e+03, 1.76849941e+04, 1.12049082e+04, 2.33914609e+04,
          2.41753926e+04, 1.59006531e+03, 2.56992358e+03, 3.28829980e+03,
          4.73996875e+03, 5.96321484e+03, 2.38811992e+04, 2.63079551e+04,
          2.88719355e+04, 2.22758008e+03, 2.06401758e+03, 2.57503882e+03,
          3.64931885e+02, 2.35763107e+02, 5.36411682e+02, 2.45033325e+03,
          2.37613330e+03, 2.66755066e+02, 2.40407959e+02, 1.38450348e+02,
          4.81720215e+02, 7.15728455e+02, 1.03684902e+04, 7.51192031e+04,
          7.54222734e+04, 4.88554346e+03, 1.94393445e+03, 6.39577087e+02,
          5.21944250e+05, 4.52001375e+05, 3.62794062e+05, 4.41312562e+05,
          4.79587188e+05, 3.09009812e+05, 3.60333938e+05, 5.20879062e+05,
          6.17953125e+05, 5.08466438e+05, 4.98656781e+05, 529627.,
          4.86649781e+05, 2.79789719e+05, 3.35802906e+05, 5.05136875e+05 ]
      - [ 3.36495392e+02, 1.65921661e+02, 1.35420944e+02, 2.06960876e+02,
          1.89282852e+02, 5.42960754e+02, 4.65774719e+02, 1.20093640e+03,
          2.96730151e+03, 9.58281616e+02, 6.03349487e+02, 2.90458893e+02,
          1.42442978e+02, 2.83908630e+02, 2.68892822e+02, 2.70832092e+02,
          6.90538770e+03, 6.64657324e+03, 5.91947559e+03, 1.82953770e+04,
          1.44017725e+04, 7.55078125e+03, 1.24283516e+04, 1.17242023e+05,
          1.61855219e+05, 1.66323594e+04, 9.81706738e+03, 1.40973525e+04,
          1.24598076e+04, 4.06364551e+03, 8.21219824e+03, 5.40430566e+03,
          3.22815605e+04, 2.23010156e+04, 2.45366172e+04, 2.82281543e+04,
          3.14235723e+04, 2.17028926e+04, 1.84239023e+04, 1.62638760e+04,
          3.16152539e+04, 2.01369277e+04, 2.67220430e+04, 3.36396094e+04,
          2.84213418e+04, 2.16122070e+04, 1.99103027e+04, 2.08256211e+04,
          7.75287312e+05, 5.09295500e+05, 4.95523375e+05, 9.08148438e+05,
          8.73386062e+05, 4.99742031e+05, 4.41422625e+05, 6.26057750e+05,
          6.12251750e+05, 497650., 5.48521688e+05, 8.20541875e+05,
          7.80606875e+05, 5.11728188e+05, 4.71688594e+05, 7.36461812e+05 ]
      - [ 0., 0., 0., 0., 0., 0., 0., 0., 0., 0., 0., 0., 0., 0., 0., 0.,
          2.39235092e+02, 3.17874146e+02, 1.25979897e+02, 3.90785919e+02,
          2.58837866e+03, 8.47117188e+03, 1.24553711e+04, 1.03659445e+05,
          8.84880078e+04, 1.60101611e+04, 8.96082129e+03, 2.88247168e+03,
          7.52271667e+02, 1.69979095e+02, 2.99892181e+02, 1.34549271e+02,
          4.05128438e+04, 2.61779414e+04, 2.22312168e+04, 3.56884375e+04,
          3.26022793e+04, 2.36092246e+04, 2.49917754e+04, 4.17910781e+04,
          4.94546406e+04, 3.20488867e+04, 2.75137168e+04, 4.63851289e+04,
          5.25733125e+04, 2.74420430e+04, 2.49894004e+04, 4.09950898e+04,
          9.65332562e+05, 5.67834812e+05, 5.30548500e+05, 8.64286750e+05,
          7.71873312e+05, 6.16056500e+05, 690794., 1.11726875e+06,
          953884., 6.10287938e+05, 5.85083812e+05, 8.61492062e+05,
          8.28596438e+05, 6.27750625e+05, 6.38919250e+05, 1.09699675e+06 ]
      - [ 0., 0., 0., 0., 0., 0., 0., 0., 0., 0., 0., 0., 0., 0., 0., 0.,
          5.00962524e+02, 7.58691162e+02, 1.07960950e+03, 3.18478857e+03,
          1.08027861e+04, 1.77113220e+03, 2.11379590e+03, 2.60973301e+04,
          7.21534219e+04, 3.72478857e+03, 1.00277080e+04, 4.04095874e+03,
          1.08296448e+03, 5.50971252e+02, 4.20333252e+02, 3.99557159e+02,
          0., 0., 0., 0., 0., 0., 0., 0., 0., 0., 0., 0., 0., 0., 0., 0.,
          5.80509438e+05, 2.98051719e+05, 2.26908078e+05, 4.36730938e+05,
          6.09459250e+05, 2.25022797e+05, 3.13679625e+05, 5.58972312e+05,
          4.20304812e+05, 3.33990906e+05, 3.71447531e+05, 3.93900969e+05,
          4.42711875e+05, 3.20907781e+05, 3.34742094e+05, 5.39184312e+05 ]
      - [ 0., 0., 0., 0., 0., 0., 0., 0., 0., 0., 0., 0., 0., 0., 0., 0.,
          0., 0., 0., 0., 0., 0., 0., 0., 0., 0., 0., 0., 0., 0., 0., 0.,
          1.23420049e+04, 2.78965405e+03, 2.86031348e+03, 1.60514547e+05,
          2.91064004e+04, 3.67553564e+03, 3.88900806e+03, 2.21821875e+04,
          1.16543164e+04, 2.95149292e+03, 2.53458545e+03, 9.89917969e+04,
          2.01967930e+04, 2.06507056e+03, 1.94568884e+03, 2.12817578e+04,
          5.15461250e+05, 2.63764406e+05, 2.20148734e+05, 8.78740062e+05,
          4.00735625e+05, 2.61794719e+05, 3.47609250e+05, 8.70029812e+05,
          4.91398875e+05, 2.88372625e+05, 330775., 9.52919375e+05,
          4.93616562e+05, 3.70647875e+05, 3.41039844e+05, 8.00267312e+05 ]
      - [ 7.98636627e+01, 9.21004868e+01, 6.96420364e+01, 1.35158722e+02,
          4., 1.89442711e+01, 1.90732613e+01, 2.66474292e+03,
          1.21373145e+03, 1.24450798e+02, 1.17825867e+03, 1.08367944e+03,
          4.25842529e+03, 2.68631325e+01, 1.85588741e+01, 1.84946423e+01,
          2.36429785e+04, 8.69663770e+03, 6.62377295e+03, 5.01884521e+03,
          3.16492969e+03, 2.44644702e+03, 3.67712646e+03, 3.06854531e+05,
          3.57574750e+05, 3.51055176e+03, 3.47024634e+03, 3.87314404e+03,
          4.96014648e+03, 6.20184082e+03, 9.31806152e+03, 2.05395723e+04,
          2.83136932e+02, 5.65418884e+02, 1.91055237e+03, 1.53962422e+04,
          1.45995195e+04, 2.72429370e+03, 7.20892639e+02, 2.17414673e+02,
          2.00635330e+02, 3.81200867e+02, 3.47079468e+02, 1.77656984e+05,
          2.17916375e+05, 2.40888275e+02, 4.22697968e+02, 1.62278656e+02,
          7.48625500e+05, 499103., 4.72952281e+05, 6.17044625e+05,
          6.79946438e+05, 4.33254344e+05, 4.74245312e+05, 6.82226375e+05,
          7.43072312e+05, 5.00146812e+05, 4.81481375e+05, 5.87262688e+05,
          5.84168562e+05, 4.73633938e+05, 5.05242250e+05, 7.55452375e+05 ]
      - [ 0., 0., 0., 0., 0., 0., 5.88634968e+00, 2.08847752e+01,
          2.44593353e+01, 1.13137083e+01, 0., 3.16227770e+00, 0., 0., 0.,
          0., 0., 0., 0., 0., 1.19181129e+02, 6.18915138e+01,
          5.13374023e+02, 8.51823486e+02, 1.55622278e+03, 5.65426025e+02,
          5.11837540e+01, 6.08524399e+01, 70., 0., 0., 0.,
          4.85798889e+02, 3.74683868e+02, 6.46297684e+01, 4.57296066e+01,
          1.00237114e+02, 1.98381485e+02, 6.69232849e+02, 8.40553101e+02,
          3.51310303e+03, 3.04798193e+03, 4.67500830e+03, 2.03949469e+05,
          2.46288922e+05, 4.05975732e+03, 2.20833032e+03, 1.74858398e+03,
          7.21923188e+05, 5.54816188e+05, 4.37351312e+05, 7.52438875e+05,
          5.92054750e+05, 4.01725125e+05, 4.65742500e+05, 962108.,
          9.47342938e+05, 5.04249719e+05, 4.13238875e+05, 6.78371438e+05,
          6.62279062e+05, 3.56603969e+05, 3.50461125e+05, 6.05450188e+05 ]
      - [ 0., 0., 0., 0., 0., 0., 0., 0., 0., 0., 0., 0., 0., 0., 0., 0.,
          0., 0., 0., 0., 0., 0., 1.67097992e+02, 5.87274609e+04,
          6.65920078e+04, 3.59430908e+02, 0., 6.32455540e+00, 2., 0., 0.,
          0., 0., 0., 0., 0., 0., 0., 0., 0., 0., 0., 0., 0., 0., 0., 0.,
          0., 8.44175250e+05, 4.22170969e+05, 3.52074156e+05,
          5.32040688e+05, 604949., 3.83480344e+05, 4.59828156e+05,
          7.87560500e+05, 6.92535438e+05, 3.75599812e+05, 4.32482125e+05,
          6.41144438e+05, 6.70236938e+05, 4.50165281e+05, 5.05003875e+05,
          6.96009688e+05 ]
      - [ 0., 0., 0., 0., 0., 0., 0., 0., 0., 0., 0., 0., 0., 0., 0., 0.,
          1.37003101e+03, 2.44803192e+02, 4.87903481e+01, 5.00376984e+02,
          3.62702539e+03, 1.86906836e+03, 3.35863159e+03, 5.57036328e+04,
          7.23010234e+04, 4.62771777e+03, 1.88579260e+03, 1.10758777e+03,
          8.08539429e+02, 8.08461075e+01, 2.35904785e+02, 4.73917920e+03,
          5.81795158e+01, 3.44811020e+01, 0., 0., 4., 1.30384045e+01,
          3.13835678e+01, 2.94687290e+01, 5.26310081e+01, 5.03939743e+01,
          1.30384045e+01, 1.58693485e+01, 10., 1.28062487e+01,
          5.28658791e+01, 4.13417931e+01, 3.67579688e+05, 2.28281594e+05,
          196172., 4.27576219e+05, 4.12472438e+05, 1.86529844e+05,
          2.05664938e+05, 3.29302969e+05, 3.71154281e+05, 3.24716062e+05,
          2.27310250e+05, 3.05238938e+05, 3.48212562e+05, 2.57291875e+05,
          2.55170562e+05, 4.44953344e+05 ]
      - [ 0., 0., 0., 0., 0., 0., 0., 0., 0., 0., 0., 0., 0., 0., 0., 0.,
          5.25348906e+04, 3.66241187e+03, 3.75297461e+03, 7.92958740e+03,
          2.50910488e+04, 5.40213818e+03, 6.91108887e+03, 1.23283367e+05,
          1.56336469e+05, 8.20601270e+03, 3.97162915e+03, 1.03225947e+04,
          2.71125273e+04, 3.71718604e+03, 2.09793921e+03, 6.08649268e+03,
          1.09038545e+04, 1.43341736e+03, 7.13727844e+02, 4.72129346e+03,
          2.44938340e+04, 1.90231628e+03, 2.36798560e+03, 4.94651904e+03,
          2.00908730e+04, 1.78198711e+04, 1.86995898e+04, 1.85109492e+04,
          4.40620117e+04, 2.35602129e+04, 1.80599648e+04, 1.18587041e+04,
          5.56825625e+05, 3.69332406e+05, 3.17188406e+05, 3.92395562e+05,
          535711., 2.98505875e+05, 3.22099188e+05, 3.46002562e+05,
          3.88161250e+05, 3.02516906e+05, 3.15987656e+05, 3.97343969e+05,
          5.31478625e+05, 2.74092188e+05, 2.84991688e+05, 3.43011406e+05 ]
      - [ 0., 0., 0., 0., 0., 0., 0., 0., 0., 0., 0., 0., 0., 0., 0., 0.,
          1.10188428e+04, 2.54075073e+03, 2.22571704e+03, 3.73172241e+03,
          8.14477148e+03, 2.99356396e+03, 5.62495459e+03, 7.88221250e+04,
          1.65488391e+05, 7.48144385e+03, 2.80981470e+03, 2.95643652e+03,
          5.98050928e+03, 1.27631262e+03, 7.69363586e+02, 7.88757227e+03,
          1.74551651e+02, 5.60785561e+01, 3.54027328e+01, 3.87518044e+01,
          8.95595169e+01, 3.22894135e+01, 1.00171661e+02, 4.01011696e+01,
          2.26712250e+02, 2.92513306e+02, 2.04197495e+02, 3.71749359e+02,
          8.23559265e+02, 1.80847122e+02, 3.14706665e+02, 9.97114563e+01,
          8.45187375e+05, 7.74436938e+05, 6.58168938e+05, 6.50750875e+05,
          6.51644125e+05, 4.11715156e+05, 4.51715688e+05, 7.55860625e+05,
          7.99462125e+05, 691837., 718426., 7.04390312e+05, 676278.,
          5.11101469e+05, 5.12104250e+05, 7.26902625e+05 ]
      - [ 5.16227770e+00, 1.15432034e+01, 0., 6.32455540e+00,
          8.32455540e+00, 0., 4.90391426e+01, 2.03280869e+02,
          2.02702927e+02, 1.22202713e+02, 7.29326935e+01, 1.45858526e+01,
          2.02612972e+01, 4.47213602e+00, 1.43716307e+01, 6.32455540e+00,
          5.61506287e+02, 3.67810516e+02, 9.10797653e+01, 2.55875473e+02,
          5.54402710e+02, 1.93361572e+02, 1.15431543e+03, 9.48159922e+04,
          1.12727531e+05, 1.86232800e+03, 2.92088776e+02, 2.68060638e+02,
          4.86894928e+02, 1.23305367e+02, 3.77376526e+02, 2.49443146e+02,
          1.05020898e+03, 7.07380676e+02, 5.96941833e+02, 8.07284729e+02,
          1.33916040e+03, 7.52391541e+02, 8.46289612e+02, 5.51680420e+02,
          8.12702209e+02, 1.40755652e+03, 1.40290332e+03, 6.18275488e+03,
          8.58547559e+03, 2.15284692e+03, 1.29366675e+03, 6.97322815e+02,
          5.71484188e+05, 3.90677500e+05, 3.27521219e+05, 3.28586094e+05,
          3.47189906e+05, 3.81498062e+05, 5.66540500e+05, 6.37109875e+05,
          619173., 4.53563562e+05, 3.92877094e+05, 3.93714531e+05,
          4.37513344e+05, 4.37756906e+05, 6.31055438e+05, 8.26915688e+05 ]
      - [ 0., 0., 0., 0., 0., 0., 0., 0., 0., 0., 0., 0., 0., 0., 0., 0.,
          0., 0., 0., 0., 0., 0., 0., 0., 0., 0., 0., 0., 0., 0., 0., 0.,
          2.80264282e+02, 1.44931335e+02, 4.91934967e+01, 8.67407608e+01,
          3.98088562e+02, 6.39687195e+01, 1.55522507e+02, 1.57637604e+02,
          1.39808154e+03, 9.05149109e+02, 7.95298767e+02, 1.74262656e+05,
          2.34479125e+05, 1.77238358e+02, 3.22251648e+02, 1.31328201e+02,
          7.61203062e+05, 5.22882375e+05, 4.62885812e+05, 6.92826938e+05,
          8.02408500e+05, 4.53815750e+05, 4.21626562e+05, 7.02433500e+05,
          9.45358438e+05, 5.40762375e+05, 4.70389281e+05, 6.24483750e+05,
          7.03405438e+05, 4.01011594e+05, 3.31371812e+05, 4.79678656e+05 ]
      - [ 0., 0., 0., 0., 0., 0., 0., 0., 0., 0., 0., 0., 0., 0., 0., 0.,
          2.27557812e+03, 2.51441919e+03, 3.91002271e+03, 7.48600049e+03,
          2.56684219e+04, 5.27174121e+03, 6.52067480e+03, 7.13368672e+04,
          2.13778797e+05, 1.65368711e+04, 1.06321250e+04, 2.55263828e+04,
          1.45242852e+04, 7.87289062e+02, 1.20586743e+03, 2.16920239e+03,
          2.54271777e+03, 4.98116074e+01, 1.79188614e+01, 4.50763626e+01,
          4.08169785e+01, 2.65600452e+01, 2.15376144e+02, 1.83832727e+03,
          1.59867444e+03, 4.28321686e+02, 2.52345840e+02, 4.67038177e+02,
          3.68937439e+02, 2.03133911e+02, 5.98735168e+02, 9.80077698e+02,
          5.21917688e+05, 4.31040688e+05, 4.04816562e+05, 4.28147750e+05,
          4.75913438e+05, 3.17266469e+05, 3.63451125e+05, 4.94684938e+05,
          6.35687250e+05, 5.25874625e+05, 4.12020875e+05, 4.71832781e+05,
          5.25555688e+05, 3.97063625e+05, 4.99905281e+05, 6.86326438e+05 ]
      - [ 2.97327612e+03, 3.25982437e+01, 1.62180977e+01, 0.,
          2.34868317e+01, 1.16832390e+01, 1.44222050e+01, 1.36216202e+02,
          2.37215259e+03, 9.13872070e+01, 6.82624146e+02, 7.90719543e+02,
          1.00770142e+03, 3.43890717e+02, 1.63116501e+02, 6.96309509e+02,
          3.81955039e+04, 2.60143677e+03, 7.22670117e+03, 4.56333643e+03,
          9.41085234e+04, 3.55278833e+03, 1.38281274e+03, 1.49292344e+04,
          5.18038320e+04, 2.94632666e+03, 3.08561646e+03, 1.52623604e+04,
          9.46102109e+04, 2.15229419e+03, 2.28328516e+03, 8.89540723e+03,
          2.24173594e+04, 3.45230133e+02, 1.49127954e+03, 2.33784741e+03,
          3.37364297e+04, 1.57108838e+03, 6.57970459e+02, 3.03320215e+03,
          2.29999160e+04, 4.63676318e+03, 4.97338232e+03, 6.92920654e+03,
          4.50474609e+04, 5.68618701e+03, 3.71436841e+03, 3.84892749e+03,
          1.22514450e+06, 3.23973656e+05, 2.61856312e+05, 3.03156781e+05,
          9.38195125e+05, 2.42300609e+05, 3.40608531e+05, 5.03680844e+05,
          1.13150588e+06, 3.42034219e+05, 298608., 3.74246594e+05,
          1.04221794e+06, 3.49022562e+05, 3.73317562e+05, 4.57777938e+05 ]
      - [ 0., 0., 0., 0., 0., 0., 0., 0., 0., 0., 0., 0., 0., 0., 0., 0.,
          2.97272485e+03, 8.73145752e+02, 6.45989685e+02, 2.80204277e+04,
          2.57208027e+04, 5.64123145e+03, 4.03932788e+03, 2.85497227e+04,
          5.82107148e+04, 3.86129028e+03, 1.17576641e+04, 2.32383828e+04,
          2.54601074e+04, 6.54543457e+02, 1.71219397e+03, 3.15923950e+03,
          0., 0., 0., 0., 0., 0., 0., 0., 0., 0., 0., 0., 0., 0., 0., 0.,
          9.60754062e+05, 3.56480312e+05, 3.07779062e+05, 8.76959938e+05,
          9.52003750e+05, 3.37544594e+05, 3.84074969e+05, 8.19430812e+05,
          8.24542125e+05, 3.75863969e+05, 4.00085031e+05, 7.60021938e+05,
          9.26496375e+05, 4.54508062e+05, 4.29067656e+05, 7.36775125e+05 ]
      - [ 0., 0., 0., 0., 0., 0., 0., 0., 0., 0., 0., 0., 0., 0., 0., 0.,
          0., 0., 0., 0., 0., 0., 0., 0., 0., 0., 0., 0., 0., 0., 0., 0.,
          1.84059121e+04, 7.96970312e+03, 5.55052197e+03, 6.88244092e+03,
          1.29398252e+04, 1.74758457e+04, 1.15129912e+04, 1.75431836e+04,
          2.21463965e+04, 1.43575391e+04, 1.63700732e+04, 3.62698164e+04,
          4.26477734e+04, 2.19905332e+04, 1.32023340e+04, 1.79220195e+04,
          9.33968562e+05, 6.59515125e+05, 5.71823812e+05, 6.76373250e+05,
          6.14554438e+05, 4.41046781e+05, 5.23621938e+05, 9.42091500e+05,
          9.50990438e+05, 6.70784438e+05, 6.50885125e+05, 7.39924438e+05,
          5.71163625e+05, 4.38002656e+05, 4.31393688e+05, 7.21982125e+05 ]
      - [ 0., 0., 0., 0., 0., 0., 0., 0., 0., 0., 0., 0., 0., 0., 0., 0.,
          1.22460059e+04, 1.04130059e+04, 9.07011621e+03, 1.56837158e+04,
          2.22004609e+04, 4.40209473e+03, 9.68454102e+03, 2.87988301e+04,
          6.19392109e+04, 1.58526660e+04, 9.48677441e+03, 1.25965166e+04,
          1.86596504e+04, 4.90303369e+03, 4.50630176e+03, 6.87528613e+03,
          0., 0., 0., 0., 0., 0., 0., 0., 0., 0., 0., 0., 0., 0., 0., 0.,
          7.74458125e+05, 7.29282812e+05, 611864., 6.17560438e+05,
          5.69138625e+05, 4.52949906e+05, 5.54245438e+05, 7.20356312e+05,
          8.33510438e+05, 6.73128438e+05, 6.11907188e+05, 7.35236938e+05,
          7.28475125e+05, 4.48592469e+05, 5.20641281e+05, 6.91747250e+05 ]
      - [ 3.18873291e+03, 2.35682583e+01, 4.47213602e+00, 7.07106781e+00,
          4.57481308e+01, 7.21110249e+00, 2.76036510e+01, 2.60471118e+03,
          1.59301355e+03, 4.62975281e+02, 5.38401367e+02, 2.84033386e+02,
          2.95528076e+02, 5.47854309e+02, 5.39454773e+02, 1.05147632e+03,
          9.22379766e+04, 2.66003125e+03, 3.77065869e+03, 3.68759141e+04,
          5.20224922e+04, 7.07912048e+02, 5.04258057e+02, 6.97265576e+03,
          1.89429238e+04, 1.48181287e+03, 8.70309875e+02, 2.89511250e+04,
          6.03736016e+04, 3.30415527e+03, 2.85918652e+03, 2.19617012e+04,
          1.10345781e+04, 2.36701157e+02, 7.42183533e+01, 7.65910110e+01,
          2.22809219e+02, 1.39598297e+02, 2.67419189e+02, 9.04523633e+03,
          7.73540137e+03, 2.55216772e+03, 1.96276111e+03, 1.39145532e+03,
          8.83023438e+02, 1.85724219e+03, 2.77768140e+03, 5.59207715e+03,
          7.19717312e+05, 3.58166594e+05, 3.14651750e+05, 6.96763500e+05,
          8.50997188e+05, 2.99073875e+05, 3.54778219e+05, 6.44770125e+05,
          6.12756812e+05, 2.83092969e+05, 3.00287156e+05, 711624.,
          9.41667812e+05, 3.40050406e+05, 3.11728969e+05, 4.98709531e+05 ]
      - [ 0., 0., 0., 0., 0., 0., 0., 0., 0., 0., 0., 0., 0., 0., 0., 0.,
          0., 0., 0., 0., 0., 0., 0., 0., 0., 0., 0., 0., 0., 0., 0., 0.,
          0., 0., 0., 0., 0., 0., 0., 0., 0., 0., 0., 0., 0., 0., 0., 0.,
          5.17729156e+05, 2.63533406e+05, 1.98929312e+05, 3.11210875e+05,
          2.46239578e+05, 1.99086484e+05, 2.25706484e+05, 5.89622062e+05,
          6.09244375e+05, 3.50739375e+05, 3.18925625e+05, 3.69076969e+05,
          3.99659844e+05, 3.00447219e+05, 3.43090688e+05, 5.29680312e+05 ]
      - [ 5.16934326e+02, 6.69119507e+02, 9.40871826e+02, 4.49274719e+02,
          3.56691284e+02, 1.58808060e+02, 1.01720197e+03, 1.88672290e+03,
          4.45572754e+03, 9.40699036e+02, 0., 1.36340479e+03,
          1.16402612e+03, 1.72881726e+03, 1.24551880e+03, 7.93706543e+02,
          2.52955410e+04, 1.94484766e+04, 1.30133643e+04, 1.59901699e+04,
          1.95462324e+04, 1.65093105e+04, 2.66279258e+04, 5.68829766e+04,
          5.43738711e+04, 2.09302832e+04, 1.50947969e+04, 1.43836553e+04,
          1.91860625e+04, 1.69952168e+04, 1.75906211e+04, 1.80207871e+04,
          3.75649531e+04, 1.98404043e+04, 2.93575098e+04, 2.72407266e+04,
          3.51754844e+04, 2.52136914e+04, 2.31674121e+04, 2.17374980e+04,
          3.64451758e+04, 2.10583379e+04, 2.24066328e+04, 3.64989531e+04,
          3.18170273e+04, 2.58245723e+04, 2.48956641e+04, 2.27674688e+04,
          851709., 6.56727125e+05, 6.15639125e+05, 8.21130250e+05,
          8.32651125e+05, 5.70208500e+05, 6.00319188e+05, 7.92072438e+05,
          7.72606750e+05, 7.14732562e+05, 6.78725188e+05, 7.00537688e+05,
          7.04054688e+05, 6.09068688e+05, 6.03460688e+05, 8.15925250e+05 ]
      - [ 0., 0., 0., 0., 0., 0., 0., 0., 0., 0., 0., 0., 0., 0., 0., 0.,
          0., 0., 0., 0., 0., 0., 0., 0., 0., 0., 0., 0., 0., 0., 0., 0.,
          0., 0., 0., 0., 0., 0., 0., 0., 0., 1.69705620e+01,
          3.94400604e+02, 2.23976978e+03, 2.66015039e+03, 3.80808411e+02,
          4.10121918e+01, 0., 5.93709750e+05, 4.95543281e+05,
          5.21432719e+05, 7.03847250e+05, 816620., 5.36934062e+05,
          5.08365781e+05, 6.10684312e+05, 6.02386438e+05, 5.30723938e+05,
          5.95051938e+05, 8.08049812e+05, 8.36804688e+05, 6.21306938e+05,
          5.61867812e+05, 6.07426375e+05 ]
      - [ 0., 2.82842708e+00, 0., 0., 6.32455540e+00, 0., 0., 0.,
          1.74868336e+01, 1.73741550e+01, 4.47213602e+00, 3.16227770e+00,
          20., 0., 0., 7.07106781e+00, 9.10847266e+03, 9.95345398e+02,
          6.10724792e+02, 4.01383789e+02, 5.86507141e+02, 1.09600232e+03,
          4.68734473e+03, 1.47275391e+05, 2.40784031e+05, 7.91837305e+03,
          3.33337476e+03, 1.32335999e+03, 3.56766266e+02, 5.25875427e+02,
          8.38103455e+02, 8.84526465e+03, 1.83245544e+01, 0., 0.,
          3.16227770e+00, 0., 0., 0., 0., 0., 0., 0., 0., 3.16227770e+00,
          0., 5.65685415e+00, 3.16227770e+00, 4.77909312e+05,
          3.72797125e+05, 3.02593594e+05, 3.88183469e+05, 4.34207312e+05,
          2.81560219e+05, 3.17537688e+05, 3.79826125e+05, 5.83945188e+05,
          4.57004688e+05, 3.94385781e+05, 4.13088125e+05, 5.13348375e+05,
          4.59683906e+05, 4.77271094e+05, 5.46903125e+05 ]
      - [ 0., 0., 0., 0., 0., 0., 0., 0., 0., 0., 0., 0., 0., 0., 0., 0.,
          0., 0., 0., 0., 0., 0., 0., 0., 0., 0., 0., 0., 0., 0., 0., 0.,
          1.15145303e+04, 5.90199219e+03, 7.10201514e+03, 1.17209355e+04,
          1.07780439e+04, 7.28719580e+03, 1.22220225e+04, 1.13049951e+04,
          1.78957891e+04, 8.82716895e+03, 7.67555957e+03, 2.15252324e+04,
          1.48727920e+04, 7.94640625e+03, 9.55921289e+03, 9.24347852e+03,
          5.13857688e+05, 4.09701938e+05, 4.67898875e+05, 6.09627250e+05,
          520899., 3.84391031e+05, 4.17735562e+05, 7.37132438e+05,
          8.32589250e+05, 5.22920312e+05, 5.04386781e+05, 698895.,
          570298., 3.48061844e+05, 3.53917969e+05, 4.97408531e+05 ]
      - [ 3.92626762e+01, 0., 8.68331757e+01, 3.23799408e+02,
          3.93173462e+02, 3.34978210e+02, 2.03872253e+02, 4.61944238e+03,
          2.64101538e+03, 5.11697754e+02, 1.51269775e+02, 3.29229401e+02,
          4.67476685e+02, 0., 0., 0., 5.02454651e+02, 1.22662964e+03,
          1.67085669e+03, 1.45546133e+04, 1.95968262e+04, 9.85552344e+03,
          1.29787480e+04, 1.88125344e+05, 2.49849875e+05, 1.28631299e+04,
          1.04918164e+04, 1.43392549e+04, 1.55264111e+04, 2.41781982e+03,
          1.20578943e+03, 4.34159882e+02, 1.88071045e+03, 6.51942017e+02,
          2.43143506e+03, 7.01742422e+04, 1.03628891e+05, 3.44595361e+03,
          8.84111511e+02, 1.99413528e+02, 1.85038916e+03, 2.46088272e+02,
          2.61725098e+03, 8.30830859e+04, 1.74604109e+05, 1.82160120e+03,
          2.17039444e+02, 3.11609314e+02, 4.57949844e+05, 3.85243594e+05,
          4.35810344e+05, 1.40824988e+06, 2.03063875e+06, 4.94749500e+05,
          4.74698188e+05, 4.05147375e+05, 4.28230312e+05, 346372.,
          4.39330125e+05, 1.38645862e+06, 1.88544812e+06, 5.04600125e+05,
          4.56497562e+05, 4.19920781e+05 ]
      - [ 0., 0., 0., 0., 0., 0., 0., 0., 0., 0., 0., 0., 0., 0., 0., 0.,
          2.40650684e+04, 1.47066895e+03, 2.67411255e+03, 4.48441602e+04,
          1.10179980e+04, 8.67157715e+03, 6.12406836e+03, 1.70664812e+05,
          3.12366621e+04, 8.36317676e+03, 8.65033789e+03, 4.88982578e+04,
          9.11426074e+03, 1.02617383e+03, 3.48625293e+03, 1.19918789e+05,
          4.90121826e+03, 1.92031464e+02, 1.29705597e+02, 8.09317245e+01,
          1.33306488e+02, 5.42469482e+01, 2.01511139e+02, 1.85866133e+04,
          5.63033154e+03, 3.90593237e+03, 2.65892773e+03, 3.73961670e+02,
          2.09505786e+03, 2.10628735e+03, 3.49457739e+03, 1.94313340e+04,
          5.36984188e+05, 3.01625594e+05, 2.16184625e+05, 1231497.,
          3.72185156e+05, 2.36202453e+05, 3.66985781e+05, 1.18381812e+06,
          5.08396594e+05, 2.81748125e+05, 2.56848531e+05, 1.30176738e+06,
          4.28127125e+05, 2.81268969e+05, 3.47652188e+05, 1.18707938e+06 ]
      - [ 0., 0., 0., 0., 0., 0., 0., 0., 0., 0., 0., 0., 0., 0., 0., 0.,
          1.56182275e+03, 8.35955994e+02, 3.00412811e+02, 3.09758179e+03,
          2.61566895e+03, 1.20834912e+03, 1.00218164e+03, 1.33615391e+05,
          1.97025031e+05, 3.03020874e+03, 1.54896167e+03, 6.05050195e+03,
          1.25084949e+03, 3.12130127e+02, 8.83713440e+02, 2.01416455e+03,
          0., 0., 0., 0., 0., 0., 0., 0., 0., 0., 0., 0., 0., 0., 0., 0.,
          5.72026875e+05, 3.14752531e+05, 3.16351844e+05, 575043.,
          5.23234219e+05, 2.29692594e+05, 2.69079250e+05, 5.04183938e+05,
          5.02917750e+05, 3.81475219e+05, 4.30486219e+05, 5.60023188e+05,
          5.23185719e+05, 3.35098719e+05, 3.73830062e+05, 6.13700625e+05 ]
      - [ 5.02142334e+01, 1.41421354e+00, 1.34467249e+01, 3.16227770e+00,
          12., 2.33664780e+01, 2.44377651e+01, 5.63205109e+01,
          9.22356491e+01, 1.16166115e+02, 1.86618027e+02, 2.77580017e+02,
          2.86677124e+02, 1.82960876e+02, 2.13728470e+02, 2.04777771e+02,
          7.60157617e+03, 5.57341650e+03, 7.89818945e+03, 1.75931582e+04,
          4.93796758e+04, 8.71517773e+03, 1.27896318e+04, 2.20510566e+04,
          9.91631641e+03, 5.67179150e+03, 8.44229004e+03, 2.68863535e+04,
          4.37927148e+04, 1.60799170e+04, 9.90458301e+03, 7.19090625e+03,
          9.15277893e+02, 5.32196655e+02, 3.95544403e+02, 2.76939545e+02,
          3.89837341e+02, 1.46834595e+02, 4.72700684e+02, 4.50020599e+02,
          1.09599475e+03, 1.67776599e+03, 4.05019800e+03, 1.58173875e+05,
          1.58520703e+05, 4.51129736e+03, 1.96662158e+03, 1.07140771e+03,
          881953., 6.17747062e+05, 6.04648750e+05, 7.61285625e+05,
          7.97340250e+05, 5.98492938e+05, 5.98620188e+05, 6.80397375e+05,
          7.44385188e+05, 5.90214250e+05, 571368., 7.41941812e+05,
          7.59825750e+05, 5.51051125e+05, 563517., 7.87125438e+05 ]
      - [ 7.90453644e+01, 5.83095169e+00, 4.47213602e+00, 1.58626007e+02,
          2.71166577e+03, 1.77147675e+02, 2.94270569e+02, 3.01468414e+02,
          1.19355278e+02, 2.46207062e+02, 4.31707001e+02, 1.74591064e+02,
          2.47331201e+03, 7.31598511e+01, 5.83095169e+00, 4.16390762e+01,
          3.60567651e+03, 2.53100244e+03, 1.01076398e+03, 3.70305322e+03,
          2.66759238e+04, 3.95668652e+03, 8.83663477e+03, 1.12229062e+05,
          1.66051391e+05, 9.00388184e+03, 4.33380371e+03, 1.28548359e+04,
          1.58499033e+04, 1.85900598e+03, 2.52702979e+03, 3.56475195e+03,
          3.78311914e+04, 1.15628242e+04, 3.08930835e+03, 1.71847910e+04,
          3.73738086e+04, 1.01166055e+04, 1.18262920e+04, 1.57522598e+04,
          3.21488066e+04, 2.29134453e+04, 1.99932871e+04, 2.68207695e+04,
          5.00905898e+04, 2.12077852e+04, 1.63529521e+04, 1.86441621e+04,
          5.95405375e+05, 3.47200781e+05, 2.90940688e+05, 4.35350625e+05,
          6.33625250e+05, 3.19676750e+05, 3.21557406e+05, 4.22336188e+05,
          4.17589969e+05, 2.86265281e+05, 2.88344438e+05, 4.35667281e+05,
          4.88355781e+05, 3.21428125e+05, 3.12841750e+05, 4.00836156e+05 ]
      - [ 2., 0., 0., 0., 0., 0., 0., 0., 3.16227770e+00, 4.24264050e+00,
          4.47213602e+00, 9.52338440e+02, 4.51524750e+02, 8.94427204e+00,
          2.82842708e+00, 3.16227770e+00, 1.20609463e+04, 9.79435645e+03,
          9.76741504e+03, 1.45733867e+04, 2.80529473e+04, 1.23862041e+04,
          1.52618486e+04, 1.32263672e+04, 1.18552314e+04, 1.43228193e+04,
          1.33526924e+04, 2.26170547e+04, 2.30644922e+04, 7.59035254e+03,
          7.56582324e+03, 9.36349707e+03, 2., 0., 0., 0., 0., 0., 0., 0.,
          4.41644287e+01, 2.37179352e+02, 2.95289886e+02, 1.77874766e+04,
          2.30415957e+04, 4.09465668e+02, 2.85305786e+02, 3.74179153e+01,
          5.83650812e+05, 3.20302188e+05, 3.34157094e+05, 5.40317188e+05,
          6.27885062e+05, 4.61387688e+05, 5.37956875e+05, 4.74766031e+05,
          4.35498750e+05, 3.24354875e+05, 2.79077562e+05, 622489.,
          6.30751562e+05, 4.10697500e+05, 5.66516062e+05, 6.72399750e+05 ]
      - [ 2.86491108e+01, 3.89718361e+01, 1.70293865e+01, 0.,
          1.52970581e+01, 0., 3.17758751e+01, 3.49256006e+03,
          2.21986768e+03, 4.16824722e+01, 4.11096077e+01, 1.45707664e+01,
          2.60768089e+01, 2.68328152e+01, 0., 1.26491108e+01,
          9.61306055e+03, 1.42130664e+04, 2.79289453e+03, 9.70630371e+02,
          2.64952930e+03, 1.96844275e+03, 9.48259863e+03, 1.62551969e+05,
          1.91043547e+05, 7.28306592e+03, 6.21914502e+03, 3.55742163e+03,
          2.26557593e+03, 1.83693335e+03, 3.55540137e+03, 9.57422168e+03,
          3.27963203e+04, 9.07024707e+03, 7.24853857e+03, 7.37255566e+03,
          8.14779883e+03, 8.15012061e+03, 1.14261934e+04, 2.26742695e+04,
          3.00709043e+04, 8.76855273e+03, 7.13728223e+03, 8.94081641e+03,
          1.21542510e+04, 8.42098730e+03, 8.71577051e+03, 1.11887471e+04,
          7.97455438e+05, 6.67102188e+05, 5.90746188e+05, 6.17317062e+05,
          6.53278250e+05, 5.86229500e+05, 5.60817062e+05, 7.50141188e+05,
          8.74979625e+05, 5.90791438e+05, 5.53967812e+05, 6.65958062e+05,
          5.93133188e+05, 4.26579125e+05, 4.53151062e+05, 6.94367438e+05 ]
      - [ 0., 0., 0., 0., 0., 0., 0., 0., 0., 0., 0., 0., 0., 0., 0., 0.,
          0., 0., 0., 0., 0., 0., 0., 0., 0., 0., 0., 0., 0., 0., 0., 0.,
          6.88438818e+03, 4.22078613e+03, 3.01084937e+03, 3.95399536e+03,
          4.36335693e+03, 2.75462939e+03, 3.10272998e+03, 1.31219561e+04,
          1.05055996e+04, 3.50270703e+03, 3.59010278e+03, 3.25222705e+03,
          2.84093628e+03, 2.57737256e+03, 2.90339746e+03, 3.73008374e+03,
          596726., 4.83429250e+05, 4.12346781e+05, 6.57469500e+05,
          6.55735938e+05, 346792., 3.99861094e+05, 9.06126250e+05,
          9.55753875e+05, 4.66226375e+05, 4.35869469e+05, 5.37368938e+05,
          5.37556125e+05, 3.83932344e+05, 4.14291156e+05, 6.56727750e+05 ]
      - [ 0., 0., 0., 0., 0., 0., 0., 0., 0., 0., 0., 0., 0., 0., 0., 0.,
          0., 0., 0., 0., 0., 0., 0., 0., 0., 0., 0., 0., 0., 0., 0., 0.,
          6.08163672e+03, 2.04326062e+03, 4.60015088e+03, 5.71606250e+04,
          2.05482031e+04, 3.59868140e+03, 1.99501868e+03, 3.16686938e+03,
          7.14160010e+03, 3.98039062e+03, 6.06582764e+03, 1.69118574e+04,
          1.07373750e+04, 5.20380127e+03, 1.52071985e+03, 3.65333716e+03,
          4.38089312e+05, 4.13536438e+05, 4.56304250e+05, 7.57207062e+05,
          6.33244938e+05, 2.93899375e+05, 349705., 6.03929938e+05,
          6.13499062e+05, 4.36018344e+05, 4.14306781e+05, 7.29622625e+05,
          4.86483938e+05, 4.44557875e+05, 4.16114219e+05, 5.28824188e+05 ]
      - [ 5.35775528e+01, 8.62531567e+00, 7.21110249e+00, 4.62837563e+01,
          18., 0., 5.87962112e+01, 1.03741379e+02, 2.31920456e+02,
          1.31109238e+02, 5.14623489e+01, 1.40237900e+02, 7.45606384e+01,
          0., 2.84087334e+01, 1.77481308e+01, 1.63309204e+03,
          1.97483508e+03, 4.23159082e+03, 9.02597656e+03, 5.82812158e+03,
          5.98483643e+03, 1.03377588e+04, 1.13927258e+05, 1.34186656e+05,
          1.88791406e+04, 9.32417188e+03, 6.07406689e+03, 4.40206348e+03,
          2.27310034e+03, 1.93517444e+03, 9.59000061e+02, 6.50056201e+03,
          1.42568933e+03, 1.69880750e+03, 4.04235596e+03, 1.05548760e+04,
          3.98991235e+03, 2.70621411e+03, 4.04360669e+03, 4.62606934e+03,
          2.96684399e+03, 9.94249023e+03, 4.40143398e+04, 6.71985703e+04,
          9.66028613e+03, 2.03430945e+03, 3.77026807e+03, 6.55150250e+05,
          3.39606469e+05, 2.73936375e+05, 3.76909906e+05, 3.90499125e+05,
          2.94584625e+05, 3.85661125e+05, 6.01705562e+05, 6.90276375e+05,
          3.79214531e+05, 2.71273875e+05, 3.09992594e+05, 4.14114906e+05,
          4.15484750e+05, 4.99354594e+05, 7.66047875e+05 ]
      - [ 0., 0., 0., 0., 0., 0., 0., 0., 0., 0., 0., 0., 0., 0., 0., 0.,
          0., 0., 0., 0., 0., 0., 0., 0., 0., 0., 0., 0., 0., 0., 0., 0.,
          1.15162277e+02, 3.81837654e+01, 1.47752237e+01, 6.95701065e+01,
          1.23971545e+03, 1.47752237e+01, 4.94974747e+01, 3.16227770e+00,
          1.21486832e+02, 7.07106781e+01, 1.57906662e+02, 6.72602031e+04,
          6.81552969e+04, 4.47213602e+00, 8.20243835e+01, 1.26491108e+01,
          8.33735688e+05, 590553., 5.00479312e+05, 5.98140062e+05,
          683005., 4.71464094e+05, 4.53344500e+05, 8.88918312e+05,
          9.79082250e+05, 5.56837750e+05, 5.72528688e+05, 7.66971375e+05,
          7.51942562e+05, 4.20037062e+05, 4.39764375e+05, 599374. ]
      - [ 4.75664368e+02, 8.33779831e+01, 3.42052612e+01, 2.79769135e+01,
          2.50880070e+01, 4.47780182e+02, 1.59227881e+03, 4.50659851e+02,
          5.33963135e+02, 5.22939819e+02, 1.05125320e+02, 7.87102890e+01,
          5.27631775e+02, 8.72533264e+01, 9.67532227e+02, 4.38381104e+02,
          1.12699258e+04, 1.06634971e+04, 8.70149023e+03, 6.45326807e+03,
          1.09215537e+04, 5.77588672e+03, 6.62229150e+03, 7.28094629e+03,
          6.30086572e+03, 9.37579590e+03, 1.17933525e+04, 1.96692305e+04,
          1.27868965e+04, 7.99770605e+03, 8.53138965e+03, 7.63106689e+03,
          2.19678672e+04, 1.76428438e+04, 1.65375547e+04, 1.55896504e+04,
          1.60267334e+04, 1.83913848e+04, 1.51324971e+04, 1.40225449e+04,
          2.33511426e+04, 1.73277637e+04, 1.57429570e+04, 2.43548477e+04,
          2.54910234e+04, 1.92737344e+04, 1.70275586e+04, 1.24084043e+04,
          7.67521500e+05, 6.30864062e+05, 5.18846219e+05, 5.56280062e+05,
          5.37826250e+05, 4.81029688e+05, 6.05567500e+05, 7.26639125e+05,
          8.36254875e+05, 6.79635500e+05, 5.73735500e+05, 6.66882562e+05,
          5.82617312e+05, 6.63027625e+05, 6.51118812e+05, 742898. ]
      - [ 0., 0., 0., 0., 0., 0., 0., 0., 0., 0., 0., 0., 0., 0., 0., 0.,
          0., 0., 0., 0., 0., 0., 0., 0., 0., 0., 0., 0., 0., 0., 0., 0.,
          0., 0., 0., 0., 0., 0., 0., 0., 0., 0., 0., 0., 0., 0., 0., 0.,
          6.79597062e+05, 3.57254406e+05, 3.85456625e+05, 4.56764469e+05,
          5.12652062e+05, 4.54251406e+05, 4.35899031e+05, 6.06873812e+05,
          6.20844062e+05, 3.86510719e+05, 4.87358969e+05, 7.10079625e+05,
          5.70116375e+05, 4.25099781e+05, 4.26878406e+05, 6.86843125e+05 ]
      - [ 2.22276993e+02, 8.48528099e+00, 0., 1.41421356e+01,
          2.74235744e+01, 4.47213602e+00, 2.82842708e+00, 3.84701172e+02,
          2.16873199e+02, 9.24393005e+01, 7.75247498e+01, 1.03479927e+02,
          3.13956223e+01, 7.65825348e+01, 1.27382622e+02, 4.03278015e+02,
          1.80783477e+04, 6.60923291e+03, 7.82685156e+03, 1.49699395e+04,
          2.65536289e+04, 5.09837500e+03, 6.33585498e+03, 3.64508789e+04,
          7.37516406e+04, 1.83448613e+04, 7.78198193e+03, 2.34281660e+04,
          1.69179102e+04, 4.11808887e+03, 3.65607422e+03, 3.22163281e+04,
          6.50450439e+02, 1.34053650e+02, 6.72154999e+01, 2.09104080e+01,
          9.20752945e+01, 5.83095169e+00, 8.86705475e+01, 6.71374817e+02,
          1.27024646e+03, 4.40001526e+02, 1.98139526e+02, 1.38548431e+02,
          2.25983063e+02, 2.71667511e+02, 3.15224823e+02, 1.23976477e+03,
          5.88116875e+05, 3.31978938e+05, 2.67083156e+05, 4.49562812e+05,
          4.40983531e+05, 3.87014281e+05, 3.31478906e+05, 5.18079688e+05,
          6.72587938e+05, 3.18593344e+05, 2.55259578e+05, 4.44293781e+05,
          5.20355688e+05, 3.66442125e+05, 4.77269969e+05, 8.09872125e+05 ]
      - [ 0., 0., 0., 0., 0., 0., 0., 0., 0., 0., 0., 0., 0., 0., 0., 0.,
          0., 0., 0., 0., 0., 0., 0., 0., 0., 0., 0., 0., 0., 0., 0., 0.,
          2.23418281e+04, 1.12362910e+04, 1.09734248e+04, 1.23673301e+04,
          1.63761943e+04, 1.22346377e+04, 6.08366650e+03, 1.62458252e+04,
          3.16323887e+04, 2.00859766e+04, 1.84491836e+04, 2.20709668e+04,
          4.09715625e+04, 2.92994824e+04, 1.17496650e+04, 1.89078398e+04,
          6.92341188e+05, 6.18349250e+05, 5.18724250e+05, 7.76958750e+05,
          8.28643500e+05, 5.39069438e+05, 6.45068812e+05, 8.66811875e+05,
          9.33058875e+05, 5.80405625e+05, 5.06108094e+05, 546363.,
          717222., 6.11598438e+05, 7.33922938e+05, 6.17604875e+05 ]
      - [ 0., 0., 0., 0., 0., 0., 0., 0., 0., 0., 0., 0., 0., 0., 0., 0.,
          9.76942978e+01, 1.08790794e+02, 1.61340389e+01, 5.94582214e+01,
          6.82074661e+01, 1.10720291e+02, 4.27246582e+02, 6.06583477e+04,
          1.35171078e+05, 1.65995825e+03, 2.43116165e+02, 7.52068253e+01,
          1.23801613e+02, 6.91062317e+01, 1.25975128e+02, 3.62752609e+01,
          0., 0., 0., 0., 0., 0., 0., 0., 0., 0., 0., 0., 0., 0., 0., 0.,
          5.19560531e+05, 3.13451781e+05, 2.95067375e+05, 4.04161344e+05,
          4.06882656e+05, 2.38170625e+05, 2.70435656e+05, 4.97260938e+05,
          5.11813625e+05, 360500., 3.52867906e+05, 5.16616125e+05,
          5.21683375e+05, 3.63147656e+05, 3.77283250e+05, 4.91141344e+05 ]
      - [ 4.55550354e+02, 8.48528099e+00, 0., 0., 44., 2.46981773e+01,
          2.71448578e+02, 1.99430505e+03, 6.56881958e+02, 3.34465271e+02,
          1.76977954e+03, 5.42398389e+03, 3.84219824e+03, 1.34536240e+02,
          7.07106781e+00, 4.50470062e+02, 3.55894492e+04, 1.11317412e+04,
          9.30041797e+03, 8.99157227e+03, 1.44130205e+04, 1.10654609e+04,
          1.60213984e+04, 1.21015312e+05, 1.06399180e+05, 1.28495693e+04,
          1.23786494e+04, 9.91662109e+03, 1.62066953e+04, 8.94349707e+03,
          1.52302256e+04, 6.13905820e+04, 8.39885938e+03, 9.44493555e+03,
          5.51789160e+03, 5.61973926e+03, 4.36441504e+03, 4.58001367e+03,
          5.67506543e+03, 4.64426270e+03, 1.05721172e+04, 1.22840576e+04,
          1.16835811e+04, 1.47212969e+05, 1.66806906e+05, 1.32522803e+04,
          6.97284180e+03, 8.60438770e+03, 9.76027188e+05, 8.04301750e+05,
          6.64471812e+05, 6.62245875e+05, 6.84545125e+05, 6.38454250e+05,
          8.16203875e+05, 1.10557388e+06, 877135., 7.18959375e+05,
          6.87182438e+05, 820098., 8.06077875e+05, 6.58078250e+05,
          7.77812062e+05, 1.04691369e+06 ]
      - [ 3.85250153e+02, 5.83095169e+00, 2.96296425e+01, 2.40831890e+01,
          4.36132851e+01, 8.87782440e+01, 0., 3.60929016e+02,
          5.29176979e+01, 3.61543457e+02, 1.27253098e+02, 2.81717804e+02,
          2.11862106e+02, 8.71320801e+01, 3.77796082e+02, 0.,
          1.55851250e+04, 1.96646113e+04, 1.99038633e+04, 2.19209746e+04,
          4.61811797e+04, 2.16559453e+04, 1.83969277e+04, 1.34710332e+04,
          1.58603604e+04, 1.80358926e+04, 2.41827324e+04, 3.16481758e+04,
          4.43881328e+04, 2.03214004e+04, 1.68893125e+04, 1.70136309e+04,
          4.07257397e+03, 5.06642969e+03, 4.44607812e+03, 2.78119580e+03,
          4.31447754e+03, 3.66459668e+03, 5.73441260e+03, 4.69042383e+03,
          4.00975073e+03, 6.97987109e+03, 6.59385596e+03, 8.11602441e+03,
          1.11825557e+04, 6.91211475e+03, 6.34124561e+03, 5.68821143e+03,
          5.94225625e+05, 5.26298875e+05, 5.52064375e+05, 7.52746688e+05,
          7.75298188e+05, 6.05253562e+05, 5.92115812e+05, 5.99416125e+05,
          5.19371938e+05, 5.15394219e+05, 5.66988688e+05, 8.22381500e+05,
          9.15610500e+05, 6.91856438e+05, 6.01040250e+05, 5.59908688e+05 ]
      - [ 1.73015976e+01, 1.34972591e+01, 0., 0., 0., 0., 2.13532372e+01,
          3.66082535e+01, 5.24536781e+01, 3.82864265e+01, 0., 0., 0., 0.,
          4.24264050e+00, 0., 1.89236404e+02, 1.57577133e+02,
          4.87978058e+01, 6.10619698e+01, 1.87152924e+02, 1.49356094e+02,
          6.27242493e+02, 1.13220728e+03, 1.91213513e+03, 5.55867004e+02,
          1.64147751e+02, 1.08118088e+02, 1.65721725e+02, 3.71587639e+01,
          2.10143066e+02, 1.22501694e+02, 5.97049805e+03, 2.24241821e+03,
          3.20098633e+03, 3.55981445e+03, 3.02998096e+03, 2.14852515e+03,
          2.18778589e+03, 2.38410669e+03, 1.66943633e+04, 3.21232471e+03,
          4.53840479e+03, 8.19304199e+03, 1.05660684e+04, 3.79304053e+03,
          2.25144360e+03, 2.11740405e+03, 8.11776750e+05, 4.26267094e+05,
          4.42934562e+05, 6.23465438e+05, 7.49624500e+05, 4.26331344e+05,
          4.64075906e+05, 8.94505438e+05, 1.00899794e+06, 4.11483094e+05,
          3.67239312e+05, 6.47638125e+05, 8.34675062e+05, 4.44604906e+05,
          3.84710031e+05, 5.97376750e+05 ]
      - [ 4.07402573e+01, 0., 2.34896641e+01, 0., 1.05684570e+02,
          4.03011963e+02, 2.62775360e+02, 6.19390564e+02, 2.07100113e+02,
          2.31500671e+02, 4.21879883e+02, 3.16227770e+00, 8.,
          8.94427204e+00, 0., 6.32455540e+00, 2.55085831e+02,
          1.61441833e+02, 7.70714111e+01, 1.03243706e+02, 4.94085938e+02,
          1.60110095e+03, 2.41426196e+03, 1.33391016e+05, 2.05751062e+05,
          3.05048486e+03, 6.50157776e+02, 6.36043091e+02, 3.39672333e+02,
          7.35768433e+01, 1.95725082e+02, 1.39608337e+02, 1.02329707e+04,
          8.57740723e+02, 1.32043494e+03, 1.69393496e+04, 3.86296406e+04,
          2.14544946e+03, 4.92361908e+02, 3.54038232e+03, 1.13702061e+04,
          1.62925208e+03, 2.54133057e+03, 4.00987148e+04, 7.37727188e+04,
          4.09466699e+03, 1.39905737e+03, 4.22406836e+03, 6.13950750e+05,
          4.79606688e+05, 3.09325438e+05, 3.00656969e+05, 3.42528312e+05,
          2.10125797e+05, 3.32713031e+05, 5.43818938e+05, 7.30222562e+05,
          5.25394938e+05, 3.75629875e+05, 3.25701531e+05, 3.78924406e+05,
          3.08419500e+05, 4.61046906e+05, 5.87573938e+05 ]
      - [ 0., 0., 0., 0., 0., 0., 0., 0., 0., 0., 0., 0., 0., 0., 0., 0.,
          0., 0., 0., 0., 0., 0., 0., 0., 0., 0., 0., 0., 0., 0., 0., 0.,
          0., 0., 0., 0., 0., 0., 0., 0., 0., 0., 0., 0., 0., 0., 0., 0.,
          4.41071656e+05, 2.72507281e+05, 2.26532250e+05, 3.79424281e+05,
          3.11931375e+05, 2.26498844e+05, 3.35018406e+05, 6.45514312e+05,
          6.46226188e+05, 3.33971656e+05, 3.42182250e+05, 3.78991750e+05,
          3.90638188e+05, 3.47560688e+05, 4.25543906e+05, 6.97834062e+05 ]
      - [ 4.47190323e+01, 2.12132034e+01, 1.34164085e+01, 2.53474770e+01,
          5.32982216e+01, 2.10321808e+01, 4.71896858e+01, 8.73570129e+02,
          3.80329651e+02, 4.56019783e+01, 1.53119720e+02, 9.78570557e+02,
          1.16788037e+03, 0., 4.35366325e+01, 1.58113880e+01,
          3.31719800e+03, 2.79338550e+03, 1.33236267e+03, 4.26348828e+04,
          2.55409531e+04, 4.67136426e+03, 8.05686377e+03, 7.43586094e+04,
          6.08620352e+04, 6.55018066e+03, 5.88553271e+03, 4.25808828e+04,
          2.48308828e+04, 1.85626367e+03, 4.82580762e+03, 4.14122559e+03,
          1.19486787e+04, 3.45966095e+02, 1.88945175e+02, 3.03736786e+02,
          5.42346130e+02, 2.30766235e+02, 3.56938263e+02, 1.16482148e+04,
          1.01107793e+04, 2.95866602e+03, 2.81743896e+03, 5.50598730e+03,
          7.80456836e+03, 2.33383032e+03, 3.49278223e+03, 1.08840928e+04,
          7.62884062e+05, 3.82455844e+05, 3.03537062e+05, 9.48180375e+05,
          6.02653938e+05, 465910., 4.23913219e+05, 889380.,
          7.37761062e+05, 4.28287938e+05, 3.55127344e+05, 9.72416625e+05,
          7.16982562e+05, 5.51170938e+05, 417557., 9.78905438e+05 ]
      - [ 22., 3.92495148e+02, 8.93366577e+02, 5.14335266e+02,
          3.72626762e+01, 8.50495667e+02, 3.43748016e+02, 1.17910718e+03,
          1.71628845e+03, 3.91852997e+02, 7.37397156e+02, 1.15197412e+03,
          1.39612097e+03, 6.08940002e+02, 5.55218628e+02, 8.48239868e+02,
          2.78083145e+04, 1.37979795e+04, 1.90217695e+04, 1.86778105e+04,
          2.72182832e+04, 2.34383262e+04, 4.36894766e+04, 1.39387500e+05,
          2.04908828e+05, 4.42663320e+04, 2.45523047e+04, 2.13172285e+04,
          2.61562773e+04, 2.09910195e+04, 1.84066562e+04, 2.40787871e+04,
          1.48657109e+04, 1.79721348e+04, 1.60495684e+04, 1.85719219e+04,
          1.57105254e+04, 2.09757480e+04, 1.37804922e+04, 1.74723125e+04,
          1.68127051e+04, 1.65773965e+04, 2.63555957e+04, 7.23919297e+04,
          8.10606406e+04, 2.75949238e+04, 2.12619805e+04, 1.29860342e+04,
          8.38676312e+05, 5.09567188e+05, 5.47587062e+05, 757744.,
          7.85417500e+05, 5.50237188e+05, 5.71859312e+05, 6.60681438e+05,
          8.39127625e+05, 5.92581125e+05, 604175., 7.86783688e+05,
          8.46920250e+05, 5.97121500e+05, 619353., 9.13095625e+05 ]
      - [ 5.13742065e+02, 1.30248795e+02, 2.63876862e+02, 1.36972803e+03,
          1.71530713e+03, 3.92412048e+02, 5.06032227e+02, 0.,
          5.43154480e+02, 3.46698723e+01, 1.34617981e+02, 1.66190405e+03,
          3.35786157e+03, 4.98539551e+03, 7.04329224e+02, 1.36014709e+02,
          7.49997266e+04, 3.45233594e+04, 3.87593750e+04, 2.78824258e+04,
          4.18999219e+04, 2.65615508e+04, 3.64047500e+04, 9.68480078e+04,
          8.88021094e+04, 4.59245430e+04, 2.91675488e+04, 3.27104648e+04,
          4.57055664e+04, 2.86777988e+04, 3.02537305e+04, 6.28009414e+04,
          2.07596270e+04, 6.17491406e+03, 5.33842188e+03, 1.29700537e+04,
          1.77866367e+04, 4.66448389e+03, 5.73767822e+03, 1.68524805e+04,
          1.91904434e+04, 1.21901279e+04, 1.01698867e+04, 2.52282031e+04,
          1.60909541e+04, 8.43120020e+03, 8.29416016e+03, 2.28832617e+04,
          1.10900638e+06, 6.21969750e+05, 5.28625312e+05, 6.16477125e+05,
          6.37697500e+05, 4.90476156e+05, 5.27317750e+05, 7.67962312e+05,
          8.78354500e+05, 7.14488688e+05, 5.92114812e+05, 7.48643875e+05,
          6.78904938e+05, 4.90106156e+05, 6.18983188e+05, 1.06335838e+06 ]
      - [ 0., 0., 0., 0., 0., 0., 0., 0., 0., 0., 0., 0., 0., 0., 0., 0.,
          7.87995703e+03, 3.33848364e+03, 1.21935718e+03, 2.13255957e+03,
          1.53377405e+03, 5.57604187e+02, 3.43179443e+03, 1.86447250e+05,
          2.14671844e+05, 8.96553516e+03, 2.56622534e+03, 3.41911530e+02,
          3.18641937e+02, 6.09520264e+02, 1.91911670e+03, 3.15457520e+03,
          2.90990200e+01, 1.57304459e+01, 7.61577320e+00, 3.16227770e+00,
          3.05579014e+01, 5.83095169e+00, 1.43716307e+01, 9.48683357e+00,
          3.66491089e+01, 1.97989902e+01, 5.83095169e+00, 2.97932663e+01,
          6.23610458e+01, 7.61577320e+00, 3.30705376e+01, 1.26491108e+01,
          5.13295562e+05, 3.90872594e+05, 3.19642375e+05, 5.37156312e+05,
          5.59329688e+05, 3.01109750e+05, 3.59690531e+05, 4.58984031e+05,
          5.77875812e+05, 494003., 4.26346562e+05, 5.21694625e+05,
          4.90894062e+05, 3.82398188e+05, 4.85819281e+05, 7.06343375e+05 ]
      - [ 0., 0., 0., 0., 0., 0., 0., 0., 0., 0., 0., 0., 0., 0., 0., 0.,
          0., 1.41421356e+01, 7.61577320e+00, 3.03691559e+01,
          5.06912689e+01, 8.80843811e+02, 2.29617749e+03, 4.89235898e+04,
          5.70089492e+04, 2.42310156e+03, 6.33749146e+02, 1.30171600e+02,
          4.82076378e+01, 0., 1.41421354e+00, 3.16227770e+00, 0., 0., 0.,
          0., 0., 0., 0., 0., 0., 0., 0., 0., 0., 0., 0., 0.,
          5.35556812e+05, 2.94721500e+05, 2.49679031e+05, 1.07187125e+06,
          4.93595750e+05, 2.43840578e+05, 2.96742250e+05, 9.56460500e+05,
          4.75346469e+05, 2.34667875e+05, 2.68539625e+05, 1.00968725e+06,
          5.16357062e+05, 3.54878406e+05, 3.03650094e+05, 8.77052625e+05 ]
      - [ 0., 0., 0., 0., 0., 0., 2.51086273e+01, 1.33452301e+01,
          5.06143379e+01, 2.61719131e+01, 0., 3.16227770e+00, 0., 0., 0.,
          0., 0., 0., 0., 0., 1.03911865e+02, 6.22471771e+01,
          5.98422852e+02, 8.81116943e+02, 1.57822681e+03, 5.82055237e+02,
          8.80484161e+01, 3.74683075e+01, 48., 0., 0., 0.,
          4.25267676e+03, 5.44124268e+03, 9.36580566e+03, 1.02916934e+04,
          1.22201553e+04, 5.24150098e+03, 3.95558984e+03, 7.89765820e+03,
          1.00391094e+04, 3.62303760e+03, 6.60851367e+03, 1.72146922e+05,
          1.94092281e+05, 5.67750488e+03, 2.12033691e+03, 3.65520166e+03,
          7.79283375e+05, 575362., 4.49887281e+05, 5.55358812e+05,
          6.13008125e+05, 354231., 4.23203094e+05, 8.56652875e+05,
          1014458., 5.98800375e+05, 4.89375531e+05, 6.98732812e+05,
          6.01288438e+05, 3.13438250e+05, 3.60712375e+05, 6.38540625e+05 ]
      - [ 9.57265015e+01, 6.89340286e+01, 2.37755524e+02, 3.61591339e+01,
          2.09742584e+02, 10., 3.23786774e+01, 5.09901953e+00,
          1.27998512e+02, 9.58077316e+01, 6.70789795e+01, 2.41141037e+02,
          2.86294586e+02, 7.20059662e+01, 6.09852791e+01, 6.09977074e+01,
          2.67558130e+03, 2.20984497e+03, 2.00831604e+03, 7.01653027e+03,
          2.56113027e+04, 3.83042285e+03, 5.38123047e+03, 8.09715527e+03,
          1.21367998e+04, 5.51357666e+03, 7.40147949e+03, 2.42463184e+04,
          1.83812500e+04, 3.38382007e+03, 2.51159448e+03, 2.23845752e+03,
          2.03871313e+03, 1.50782715e+03, 1.03023682e+03, 1.30358740e+03,
          1.56119312e+03, 1.21380542e+03, 1.53068555e+03, 1.25852063e+03,
          2.66520068e+03, 1.66223303e+03, 1.38553064e+03, 1.68682263e+03,
          2.44473779e+03, 1.55949890e+03, 2.72229346e+03, 1.44609558e+03,
          4.75645688e+05, 3.94730406e+05, 3.09189094e+05, 2.68958312e+05,
          3.22995250e+05, 2.44222812e+05, 3.25620875e+05, 4.81906438e+05,
          4.42521969e+05, 3.91852969e+05, 3.21399219e+05, 4.14592406e+05,
          4.62700594e+05, 3.85054438e+05, 3.91575312e+05, 4.91615875e+05 ]
      - [ 9.62562378e+02, 8.29621155e+02, 6.50920227e+02, 5.49175171e+02,
          1.44427039e+03, 1.09346826e+03, 5.21034363e+02, 6.99948792e+02,
          1.70372705e+03, 8.78528076e+02, 5.77363831e+02, 1.72281036e+02,
          420., 3.74468628e+02, 1.72437714e+02, 4.94369751e+02,
          3.31225586e+04, 3.30215820e+04, 3.80169922e+04, 4.97150156e+04,
          8.56606172e+04, 4.24146602e+04, 2.88926738e+04, 2.87216660e+04,
          2.86166543e+04, 3.20986289e+04, 3.93014375e+04, 4.56133789e+04,
          8.43597969e+04, 4.29160352e+04, 4.17566094e+04, 3.19609102e+04,
          3.14309082e+04, 1.66778906e+04, 2.49814570e+04, 3.42653398e+04,
          3.50297812e+04, 2.25871992e+04, 1.99162070e+04, 1.85671758e+04,
          2.87186641e+04, 2.01579473e+04, 2.22747344e+04, 2.97900059e+04,
          2.90417441e+04, 2.64584590e+04, 2.19775059e+04, 1.66162344e+04,
          7.35105250e+05, 5.79087688e+05, 6.78791250e+05, 8.88671438e+05,
          9.59296250e+05, 7.65649875e+05, 6.69458250e+05, 6.55846062e+05,
          6.00449938e+05, 5.40750250e+05, 5.99482812e+05, 9.18685625e+05,
          1.01519806e+06, 7.60917438e+05, 6.54046312e+05, 7.22075125e+05 ]
      - [ 3.46460724e+01, 1.83847752e+01, 6.54570770e+01, 1.30416412e+02,
          1.41582748e+02, 1.11686615e+02, 4.24264050e+00, 9.34778976e+01,
          3.79397430e+02, 4.06016731e+01, 6.91790848e+01, 1.38518158e+02,
          2.15997925e+01, 0., 4.24264050e+00, 4.32432289e+01,
          8.99230273e+03, 5.90703564e+03, 3.73407959e+03, 1.02844746e+04,
          2.71690254e+04, 3.04331323e+03, 5.98372510e+03, 1.08460047e+05,
          2.01571500e+05, 4.77032861e+03, 3.20124707e+03, 3.38743604e+03,
          3.39238594e+04, 3.44588110e+03, 7.11975098e+03, 8.92249121e+03,
          1.66304512e+04, 1.77399695e+03, 1.92025684e+03, 8.01126831e+02,
          1.97388159e+03, 4.59839209e+03, 2.35149102e+04, 2.81411055e+04,
          3.39454570e+04, 1.19173750e+04, 2.71585498e+03, 2.23018213e+03,
          2.98506689e+03, 1.35350176e+04, 3.59251680e+04, 3.94634766e+04,
          9.34099812e+05, 4.21001500e+05, 3.04962344e+05, 4.49478344e+05,
          4.92049594e+05, 2.61566172e+05, 3.77825406e+05, 6.89449062e+05,
          8.30490375e+05, 4.87594125e+05, 3.31860531e+05, 3.30100062e+05,
          4.19139500e+05, 3.12325812e+05, 4.48955125e+05, 8.49654875e+05 ]
      - [ 5.09901953e+00, 0., 0., 0., 0., 0., 0., 0., 0., 7.22291626e+02,
          2.43234497e+02, 9.60414673e+02, 4.25565723e+03, 2.79114037e+01,
          0., 0., 3.08411060e+03, 3.65136523e+03, 3.16152563e+03,
          6.43753467e+03, 5.37179844e+04, 6.80026074e+03, 4.39938623e+03,
          8.96717773e+03, 1.63558447e+04, 6.40100098e+03, 6.70345508e+03,
          1.31142949e+04, 4.28000547e+04, 1.09233496e+03, 1.38294641e+03,
          8.87776123e+02, 6.23596680e+03, 1.00038582e+02, 3.50247307e+01,
          5.78493004e+01, 2.04295151e+02, 6.56070328e+01, 9.97976074e+01,
          2.75596851e+03, 9.42691797e+03, 4.37792676e+03, 2.14282373e+03,
          4.15896240e+03, 1.46271904e+04, 2.67358032e+03, 4.33901904e+03,
          5.02994531e+03, 1.12960375e+06, 3.79470938e+05, 3.60748375e+05,
          5.48502688e+05, 1.25516625e+06, 2.84745281e+05, 3.69872344e+05,
          5.94093375e+05, 1.07130462e+06, 3.34488719e+05, 3.88728281e+05,
          5.70186500e+05, 1.26031762e+06, 3.64447812e+05, 3.54977156e+05,
          5.15015438e+05 ]
      - [ 0., 0., 0., 0., 0., 0., 0., 0., 0., 0., 0., 0., 0., 0., 0., 0.,
          0., 0., 0., 0., 0., 0., 0., 0., 0., 0., 0., 0., 0., 0., 0., 0.,
          7.18500879e+03, 5.59965723e+03, 5.83622070e+03, 7.23899902e+03,
          8.14136377e+03, 6.93907617e+03, 7.01976416e+03, 1.40651885e+04,
          8.66551562e+03, 5.51790332e+03, 7.42003906e+03, 2.16357891e+05,
          2.06140984e+05, 6.60269775e+03, 5.36674756e+03, 8.87232324e+03,
          5.25516750e+05, 4.12891062e+05, 3.83594031e+05, 6.19054500e+05,
          6.21262938e+05, 5.08429750e+05, 5.47104750e+05, 8.00921375e+05,
          8.13521188e+05, 4.27354688e+05, 3.84598250e+05, 6.78926250e+05,
          5.98798625e+05, 3.67928188e+05, 4.46856156e+05, 6.06910562e+05 ]
      - [ 0., 0., 0., 0., 0., 0., 0., 0., 0., 0., 0., 0., 0., 0., 0., 0.,
          0., 0., 0., 0., 0., 0., 0., 0., 0., 0., 0., 0., 0., 0., 0., 0.,
          2.34251236e+02, 1.19880478e+02, 7.29317932e+01, 5.52963409e+01,
          5.26491089e+01, 9.89917297e+01, 1.32292923e+02, 1.45582764e+02,
          1.35278610e+02, 1.71622681e+02, 8.05938034e+01, 2.44353256e+01,
          1.06704155e+02, 1.09154282e+02, 1.61934479e+02, 4.68761940e+01,
          6.64642125e+05, 4.11900562e+05, 3.21507375e+05, 3.67148312e+05,
          3.89419094e+05, 3.06848656e+05, 390379., 6.26368875e+05,
          6.37663625e+05, 4.92385156e+05, 4.27919125e+05, 4.38104781e+05,
          4.93816625e+05, 4.61505812e+05, 4.51635125e+05, 5.51290188e+05 ]
      - [ 0., 0., 0., 0., 0., 0., 0., 0., 0., 0., 0., 0., 0., 0., 0., 0.,
          0., 0., 0., 0., 0., 0., 0., 0., 0., 0., 0., 0., 0., 0., 0., 0.,
          5.61740771e+03, 8.99717969e+03, 1.03603516e+04, 1.25746924e+04,
          1.08545186e+04, 7.71591748e+03, 4.47524414e+03, 8.18870312e+03,
          1.18429180e+04, 7.31538965e+03, 9.10768652e+03, 1.95628672e+05,
          1.98308266e+05, 8.32555566e+03, 4.92693262e+03, 3.72238525e+03,
          6.07449438e+05, 4.87919562e+05, 4.91752438e+05, 7.38119500e+05,
          7.50378750e+05, 3.97864281e+05, 4.57142500e+05, 6.82870625e+05,
          7.44685375e+05, 5.33612812e+05, 5.78784062e+05, 7.22932625e+05,
          6.80480438e+05, 4.01095969e+05, 3.63176469e+05, 5.16675594e+05 ]
      - [ 6.53956223e+01, 2.62448349e+01, 0., 8.77287750e+01,
          7.23455124e+01, 5.46532936e+01, 5.81638641e+01, 5.52785156e+02,
          7.90510803e+02, 1.21664795e+02, 3.82987900e+01, 6.32455540e+00,
          2.92626762e+01, 0., 2.07169704e+01, 9.05538559e+00,
          2.28023999e+03, 1.52550842e+03, 1.96276575e+03, 8.73539062e+03,
          6.58904443e+03, 3.56712354e+03, 5.89912598e+03, 1.10246656e+05,
          1.34670672e+05, 8.31697363e+03, 8.62821289e+03, 9.64831348e+03,
          8.92692188e+03, 1.07771289e+03, 1.37301782e+03, 1.65546997e+03,
          4.85656494e+03, 3.09497607e+03, 2.89770898e+03, 2.62263623e+03,
          3.72162402e+03, 3.07444067e+03, 3.43304517e+03, 2.78315479e+03,
          4.28513623e+03, 2.93573999e+03, 2.36390967e+03, 2.90631860e+03,
          3.65470972e+03, 2.98485620e+03, 3.67216309e+03, 3.26916016e+03,
          4.42482094e+05, 2.94543562e+05, 2.79469656e+05, 4.43511438e+05,
          5.23952156e+05, 3.40485625e+05, 3.19809375e+05, 4.71592625e+05,
          3.77433188e+05, 3.49879125e+05, 3.52176562e+05, 5.06594406e+05,
          5.60544188e+05, 4.68525469e+05, 4.73945500e+05, 5.51058688e+05 ]
      - [ 0., 0., 0., 0., 0., 0., 0., 0., 0., 0., 0., 0., 0., 0., 0., 0.,
          0., 0., 0., 0., 0., 0., 0., 0., 0., 0., 0., 0., 0., 0., 0., 0.,
          7.44662500e+03, 4.69432129e+03, 6.38956152e+03, 4.76861865e+03,
          5.08218457e+03, 4.59157715e+03, 5.00398975e+03, 3.88052075e+03,
          8.71341602e+03, 5.69003027e+03, 8.11457080e+03, 2.22024043e+04,
          1.45378779e+04, 9.70197656e+03, 5.15725928e+03, 4.79310449e+03,
          6.32329875e+05, 4.64340094e+05, 450460., 5.39896875e+05,
          5.70978188e+05, 4.23089719e+05, 4.36723625e+05, 6.26526500e+05,
          7.09466562e+05, 5.10889625e+05, 5.00135469e+05, 6.02378562e+05,
          6.75699688e+05, 5.04975375e+05, 4.85833500e+05, 5.92235750e+05 ]
      - [ 1.23245554e+01, 1.41421354e+00, 5.83095169e+00, 0., 2.,
          4.47213602e+00, 7.21110249e+00, 6.32455540e+00, 6.,
          1.30761166e+01, 8.00162354e+01, 1.47644333e+02, 2.91374817e+02,
          8.60232544e+00, 2.82842708e+00, 0., 4.15114209e+03,
          3.37626172e+03, 3.28055322e+03, 6.64460156e+03, 6.81003125e+03,
          4.88493115e+03, 5.85646289e+03, 1.78921375e+05, 2.01440078e+05,
          8.82949023e+03, 3.24494678e+03, 8.23200781e+03, 7.51458691e+03,
          3.69218750e+03, 3.28428247e+03, 2.95903784e+03, 1.28629425e+02,
          8.62601013e+01, 3.22894135e+01, 5.98011284e+01, 1.33946167e+02,
          3.98748703e+01, 5.19143066e+01, 2.80290527e+01, 1.69061966e+02,
          2.72104950e+02, 5.04831085e+02, 1.91098340e+04, 2.41263027e+04,
          4.00855438e+02, 3.26538788e+02, 7.75492554e+01, 1144035.,
          4.54107938e+05, 4.05146469e+05, 5.99791500e+05, 5.30797812e+05,
          3.90836594e+05, 6.58168938e+05, 9.54613062e+05, 8.22544938e+05,
          4.13920062e+05, 4.03826156e+05, 6.85576125e+05, 6.98638188e+05,
          3.97075969e+05, 5.00924469e+05, 1.09009488e+06 ]
      - [ 5.65499878e+02, 0., 3.11207336e+02, 7.26873108e+02,
          1.99331213e+03, 6.45450500e+02, 2.83109448e+03, 2.12261353e+03,
          4.59583154e+03, 2.17734570e+03, 1.59429272e+03, 4.59279834e+03,
          4.15963916e+03, 1.52843005e+03, 2.50060596e+03, 7.29473145e+02,
          6.64003203e+04, 2.62461133e+04, 1.46241416e+04, 2.79237227e+04,
          3.39451523e+04, 1.83272129e+04, 2.71293496e+04, 1.90264422e+05,
          2.64181188e+05, 3.41945508e+04, 1.69931660e+04, 2.35970312e+04,
          2.75106348e+04, 1.61099990e+04, 2.15056367e+04, 5.87463086e+04,
          9.20352637e+03, 3.38705957e+03, 2.27742310e+03, 2.06912817e+03,
          2.67605786e+03, 3.09070312e+03, 3.52630347e+03, 7.46613721e+03,
          1.39533330e+04, 9.13450586e+03, 9.63459375e+03, 2.51819953e+05,
          2.68149406e+05, 7.63546924e+03, 9.20161621e+03, 1.28038018e+04,
          1.00927169e+06, 7.55190562e+05, 7.48896188e+05, 1.03010638e+06,
          1.10004888e+06, 8.09329062e+05, 8.87241875e+05, 9.72065562e+05,
          9.19877500e+05, 7.29042188e+05, 6.80994938e+05, 8.81364562e+05,
          9.08617938e+05, 7.57692812e+05, 7.71191438e+05, 1.08672938e+06 ]
      - [ 0., 0., 0., 0., 0., 0., 2.82842708e+00, 0., 4., 7.07106781e+00,
          0., 0., 0., 0., 0., 0., 0., 0., 0., 0., 0., 0., 2.31125854e+02,
          4.91749969e+02, 1.01489099e+03, 2.48878738e+02, 0., 0., 0., 0.,
          0., 0., 1.74973663e+02, 5.44248543e+01, 4.26462440e+01,
          9.58470230e+01, 2.53755814e+02, 1.78885441e+01, 9.86387482e+01,
          6.57249832e+01, 1.66122711e+02, 3.64365936e+02, 2.63745117e+02,
          5.74060547e+02, 1.21140857e+03, 2.38522629e+02, 3.47079590e+02,
          1.40772995e+02, 7.51665562e+05, 7.14020500e+05, 5.65534812e+05,
          7.25815438e+05, 1.81455688e+06, 5.93871938e+05, 695029.,
          8.04734375e+05, 8.43974188e+05, 5.75202562e+05, 6.05631438e+05,
          959429., 1.89888462e+06, 6.44311500e+05, 5.68309875e+05,
          5.96401312e+05 ]
      - [ 0., 0., 0., 0., 0., 0., 0., 0., 0., 0., 0., 1.55829468e+03,
          2.30606885e+03, 0., 0., 0., 5.83452266e+04, 7.81727722e+02,
          3.49304956e+03, 3.98396445e+04, 7.17480547e+04, 4.24177881e+03,
          4.92473633e+03, 5.10695898e+04, 1.66201031e+05, 3.52661108e+03,
          1.09080947e+04, 3.45146094e+04, 6.62944453e+04, 2.45709961e+03,
          8.57191101e+02, 4.56161484e+04, 4.91076562e+04, 1.40541107e+02,
          4.36482315e+01, 3.81749535e+01, 8.67217941e+01, 8.94427204e+00,
          1.51660599e+02, 1.02686465e+04, 5.21979414e+04, 8.36232117e+02,
          6.40296570e+02, 5.28006641e+03, 1.46144922e+04, 1.39353119e+02,
          1.49289502e+03, 1.31819053e+04, 1.27733088e+06, 3.11167719e+05,
          3.00176469e+05, 7.89247688e+05, 1.34580950e+06, 2.86201062e+05,
          3.17596156e+05, 7.08718125e+05, 1.14576588e+06, 3.12160656e+05,
          3.62536906e+05, 6.81614625e+05, 1.28132238e+06, 3.98010375e+05,
          3.68505875e+05, 6.28981062e+05 ]
      - [ 1.11622772e+01, 8.48528099e+00, 5.83095169e+00, 5.09901953e+00,
          8., 5.83095169e+00, 3.02421112e+01, 4.92270538e+02,
          1.96576019e+02, 9.14016190e+01, 2.02531567e+01, 7.07106781e+00,
          1.11622772e+01, 0., 1.27279215e+01, 1.21700878e+01,
          4.60370789e+02, 2.38415863e+02, 4.57382278e+01, 6.93910675e+01,
          2.20635300e+02, 4.85075111e+01, 1.00281903e+03, 1.96140176e+04,
          2.95236855e+04, 6.30651306e+02, 6.90833740e+01, 1.05296951e+02,
          2.32267685e+02, 3.71359024e+01, 2.24590073e+02, 1.45167542e+02,
          3.96692871e+03, 2.34998730e+03, 2.10296997e+03, 2.10266040e+03,
          2.48717822e+03, 2.34864844e+03, 3.19064307e+03, 1.42390684e+04,
          3.83853516e+03, 3.94376123e+03, 1.41795273e+04, 1.33158016e+05,
          1.25416891e+05, 8.70845703e+03, 4.38386865e+03, 1.24565176e+04,
          4.95259969e+05, 4.36231156e+05, 4.94357875e+05, 6.29294562e+05,
          5.54932125e+05, 4.36769031e+05, 4.78653844e+05, 6.61439438e+05,
          6.34450438e+05, 4.44389281e+05, 4.23292812e+05, 713498.,
          6.04912625e+05, 3.70341438e+05, 3.66450469e+05, 4.57728062e+05 ]
      - [ 5.09901953e+00, 5.65685415e+00, 1.34164076e+01, 0.,
          1.62176628e+01, 1.75105400e+01, 3.46599274e+01, 1.14235744e+01,
          1.11365120e+02, 2.58519783e+01, 0., 3.16227770e+00,
          9.05538559e+00, 1.03030872e+01, 7.21110249e+00, 6.32455540e+00,
          1.76201157e+02, 1.91997910e+02, 4.26940842e+01, 1.61803360e+02,
          5.02719238e+02, 1.90879120e+02, 7.86457703e+02, 9.48431763e+02,
          1.68878564e+03, 8.04911072e+02, 1.97752304e+02, 2.85817749e+02,
          3.45433899e+02, 8.46212997e+01, 1.44467529e+02, 7.41028061e+01,
          4.96120273e+04, 2.36453145e+04, 1.53859951e+04, 9.23181934e+03,
          1.54614648e+04, 1.12769658e+04, 1.45639697e+04, 3.41736289e+04,
          5.66771602e+04, 2.67477695e+04, 1.66139336e+04, 1.50082715e+04,
          1.34929004e+04, 1.36387969e+04, 2.05498887e+04, 3.31176172e+04,
          9.29115625e+05, 5.38387375e+05, 4.45147344e+05, 6.80830688e+05,
          6.80005125e+05, 4.75888125e+05, 5.35786938e+05, 8.31251250e+05,
          8.99919438e+05, 6.10089375e+05, 4.82938312e+05, 6.63745875e+05,
          6.27935375e+05, 3.83590750e+05, 4.23532344e+05, 7.74224688e+05 ]
      - [ 0., 0., 0., 0., 0., 0., 0., 0., 0., 0., 0., 9.70852280e+01,
          2.66715179e+02, 4.47213602e+00, 0., 0., 2.92789014e+03,
          6.08130811e+03, 9.76644434e+03, 8.16999121e+03, 7.28590332e+03,
          1.85337720e+03, 2.05888940e+03, 6.10894805e+04, 5.29156250e+04,
          1.27607500e+04, 1.64663848e+04, 1.33480039e+04, 8.49588770e+03,
          1.45964758e+03, 1.73371021e+03, 1.28460559e+03, 0., 0., 0., 0.,
          0., 0., 0., 0., 0., 1.55563488e+01, 1.46136169e+02,
          8.42261328e+03, 1.17414580e+04, 1.92955399e+02, 2.68700581e+01,
          0., 7.19125062e+05, 5.14031406e+05, 4.00579875e+05,
          4.61801594e+05, 3.93744406e+05, 3.48002344e+05, 4.75014531e+05,
          6.25887562e+05, 7.50565688e+05, 5.91575062e+05, 4.68613875e+05,
          5.66096875e+05, 5.65617625e+05, 434243., 5.61955062e+05,
          8.60682688e+05 ]
      - [ 6., 4.24264050e+00, 0., 8.26129723e+00, 8., 1.42126703e+01,
          5.04457703e+01, 2.29554639e+03, 3.82405127e+03, 2.15273361e+01,
          7.21110249e+00, 1.77224979e+01, 1.70990200e+01, 4.47213602e+00,
          1.47752237e+01, 7.07106781e+00, 2.50858963e+02, 3.47875061e+02,
          8.62887344e+01, 1.95665558e+02, 5.87886780e+02, 4.22052002e+02,
          1.42989746e+03, 1.38802812e+05, 1.57065734e+05, 1.34365955e+03,
          4.18417511e+02, 2.72284271e+02, 4.86722534e+02, 8.25190277e+01,
          2.75656525e+02, 1.74092407e+02, 3.34057148e+04, 2.11026504e+04,
          1.43712080e+04, 1.51244326e+04, 1.12291289e+04, 9.50082422e+03,
          8.43778711e+03, 1.92134980e+04, 3.55900195e+04, 2.09883027e+04,
          2.86975195e+04, 2.07321719e+04, 1.25785693e+04, 9.98152051e+03,
          1.58754297e+04, 2.29667324e+04, 7.10195938e+05, 4.97432156e+05,
          4.42310938e+05, 5.12401438e+05, 5.44089750e+05, 3.61303844e+05,
          4.42566688e+05, 6.70866250e+05, 7.08050062e+05, 586781.,
          5.31829375e+05, 543553., 5.00065031e+05, 4.36976312e+05,
          4.89179594e+05, 6.86686062e+05 ]
      - [ 8., 4.24264050e+00, 0., 0., 8., 0., 7.07106781e+00, 0., 14.,
          8.48528099e+00, 1.88693562e+01, 8.95099182e+01, 1.71622772e+01,
          0., 7.07106781e+00, 3.16227770e+00, 1.81010986e+03,
          2.65385425e+03, 3.56423389e+03, 2.25321655e+03, 2.24238501e+03,
          3.84195239e+03, 1.01307344e+04, 5.84192695e+04, 5.74552383e+04,
          7.73487842e+03, 5.85708984e+03, 5.25189062e+03, 1.60527393e+03,
          1.44522546e+03, 4.20100391e+03, 4.19551025e+03, 1.91236038e+02,
          8.80426331e+01, 4.85250359e+01, 6.78353806e+01, 1.23295319e+02,
          5.56882973e+01, 9.13072586e+01, 3.10933609e+01, 2.67477692e+02,
          5.22333496e+02, 1.05857349e+03, 1.98097617e+04, 2.75006543e+04,
          8.17636475e+02, 5.37646973e+02, 8.90997696e+01, 5.18699625e+05,
          4.47862125e+05, 5.00689906e+05, 6.05799625e+05, 5.99963375e+05,
          4.83186969e+05, 4.92121469e+05, 6.02639938e+05, 6.29533875e+05,
          6.07628250e+05, 6.15529875e+05, 7.24879500e+05, 6.50763375e+05,
          4.48528500e+05, 4.02118750e+05, 5.00882469e+05 ]
      - [ 0., 0., 0., 0., 0., 0., 0., 0., 0., 0., 0., 0., 0., 0., 0., 0.,
          4.48287402e+03, 5.39232227e+03, 1.95552502e+03, 8.56244922e+03,
          3.70100234e+04, 3.64343604e+03, 5.68575098e+03, 6.45555762e+03,
          1.28543096e+04, 1.24088613e+04, 3.69235791e+03, 2.80874180e+04,
          1.88835703e+04, 1.17241089e+03, 1.19394727e+03, 6.74255127e+02,
          6.70938672e+03, 4.08915454e+03, 6.85294238e+03, 4.17958643e+03,
          4.43460986e+03, 2.99989429e+03, 3.22469507e+03, 4.56279834e+03,
          1.05968779e+04, 1.32773047e+04, 1.52206592e+04, 4.84785898e+04,
          4.26227266e+04, 1.94043828e+04, 1.20358145e+04, 4.39976514e+03,
          7.61895812e+05, 3.87503125e+05, 2.71037562e+05, 4.07998531e+05,
          4.86013844e+05, 2.45704203e+05, 4.19492312e+05, 6.34953688e+05,
          610715., 3.58950562e+05, 2.71953375e+05, 4.03043562e+05,
          4.27054188e+05, 3.50937594e+05, 3.62805750e+05, 6.94148562e+05 ]
      - [ 0., 0., 0., 0., 0., 0., 0., 3.94061584e+02, 3.89166229e+02,
          2.75651978e+02, 9.86002045e+01, 1.58113880e+01, 0., 0., 0., 0.,
          2.29994564e+01, 2.00284843e+01, 1.47648230e+01, 4.40204849e+01,
          6.92319260e+01, 8.29041870e+02, 3.19929468e+03, 7.04646094e+04,
          8.56814688e+04, 2.57197607e+03, 5.33119812e+02, 1.33956232e+01,
          8.56466751e+01, 0., 4.20158882e+01, 1.53323650e+01, 4690.,
          5.34046402e+01, 3.07851624e+02, 8.04469849e+02, 5.55191223e+02,
          1.53850876e+02, 1.71105976e+01, 1.24964868e+03, 7.33659229e+03,
          3.01825659e+03, 2.20581177e+03, 1.49426846e+04, 1.92020293e+04,
          2.36191748e+03, 3.14365039e+03, 4.83002832e+03, 1.48210325e+06,
          3.65484281e+05, 2.53738484e+05, 3.75877812e+05, 1.01471881e+06,
          2.53045609e+05, 3.37963469e+05, 677674., 1208199.,
          3.90435969e+05, 2.83469656e+05, 4.26370781e+05, 1.14607862e+06,
          3.88263125e+05, 3.48450094e+05, 4.97303656e+05 ]
      - [ 1.09273422e+02, 5.29600639e+01, 0., 0., 0., 0., 0.,
          1.03088953e+03, 8.96164368e+02, 5.37401161e+01, 0., 0., 40.,
          3.93954315e+01, 2.54994545e+01, 2.23635635e+01, 2.51054956e+03,
          1.15713391e+03, 7.56154053e+02, 4.32865753e+02, 1.84069977e+02,
          3.42436066e+02, 3.66116364e+02, 8.46311406e+04, 1.05301289e+05,
          4.73282861e+03, 3.95827881e+03, 2.22309875e+02, 3.61577148e+02,
          7.46149170e+02, 1.57092712e+03, 2.07742285e+03, 1.14282544e+03,
          1.03949792e+03, 7.94079407e+02, 5.63163330e+02, 1.41125476e+03,
          6.26040039e+02, 9.80838379e+02, 4.13313293e+02, 1.20060596e+03,
          8.53842590e+02, 5.10689728e+02, 3.75038965e+03, 6.19896875e+03,
          3.65816742e+02, 1.01506836e+03, 6.55119934e+02, 5.11509469e+05,
          3.94907125e+05, 3.44200969e+05, 4.21816156e+05, 4.15567562e+05,
          3.17788156e+05, 3.87993250e+05, 5.21230219e+05, 4.63252375e+05,
          3.92344781e+05, 4.99815656e+05, 595596., 6.19719875e+05,
          3.86262375e+05, 4.25699719e+05, 4.18169312e+05 ]
      - [ 0., 0., 0., 0., 0., 0., 0., 0., 0., 0., 0., 0., 0., 0., 0., 0.,
          0., 0., 0., 0., 0., 0., 0., 0., 0., 0., 0., 0., 0., 0., 0., 0.,
          2.99522109e+04, 1.55709756e+04, 2.59610430e+04, 3.26449863e+04,
          3.17731152e+04, 2.68662305e+04, 2.42888008e+04, 1.85554980e+04,
          3.37695859e+04, 1.44975400e+04, 2.31352480e+04, 3.19273008e+04,
          3.19200898e+04, 2.53196777e+04, 2.07038301e+04, 1.87026445e+04,
          9.20822188e+05, 6.60905375e+05, 6.42601875e+05, 8.89719562e+05,
          8.63938312e+05, 6.32958438e+05, 7.67333750e+05, 1.10655550e+06,
          1.04281581e+06, 7.16696125e+05, 6.96979812e+05, 7.21702938e+05,
          7.67572875e+05, 6.56090500e+05, 8.03846688e+05, 9.80949375e+05 ]
      - [ 0., 2.82842708e+00, 7.21110249e+00, 0., 2., 0., 5.65685415e+00,
          1.92534256e+01, 1.93015976e+01, 2.16673698e+01, 1.75465965e+01,
          1.14084892e+01, 4.77330437e+01, 8.60232544e+00, 0.,
          6.32455540e+00, 8.14028320e+01, 1.23868111e+02, 4.36631126e+01,
