%YAML:1.0
opencv_ml_svm:
   format: 3
   svmType: C_SVC
   kernel:
      type: RBF
      gamma: 5.3830000000000000e+000
   C: 2.6699999999999999e+000
   term_criteria: { epsilon:1.1920928955078125e-007, iterations:1000 }
   var_count: 64
   class_count: 2
   class_labels: !!opencv-matrix
      rows: 2
      cols: 1
      dt: i
      data: [ 0, 1 ]
   sv_total: 399
   support_vectors:
      - [ 8.72963770e+003, 2.00641614e+003, 6.63621277e+002,
          3.80593292e+002, 1.97075220e+003, 4.49185852e+002,
          4.21510193e+002, 1.89573669e+003, 2.60965137e+003,
          1.86724396e+002, 4.30474396e+002, 0., 9.15136108e+002,
          4.91327942e+002, 7.19720032e+002, 5.46592285e+002,
          1.06383289e+005, 2.77986992e+004, 4.69574727e+004,
          7.19814219e+004, 8.95295234e+004, 1.63103213e+004,
          2.52515801e+004, 2.74282578e+004, 5.04816055e+004,
          1.58114131e+004, 7.33575469e+004, 5.56087461e+004,
          9.59943125e+004, 1.90843008e+004, 2.27456934e+004,
          8.08868438e+004, 2.44091547e+005, 4.97687578e+004,
          7.55366484e+004, 5.24784648e+004, 4.16065078e+004,
          2.90016777e+004, 3.69088125e+004, 1.43422953e+005,
          2.06678828e+005, 3.71266250e+004, 7.10130078e+004,
          1.34376719e+005, 2.09649063e+004, 1.81945098e+004,
          3.52592148e+004, 1.04909492e+005, 3.57709575e+006, 1498973.,
          2.49649250e+006, 3.44660950e+006, 4098845., 9.55226813e+005,
          1.12206838e+006, 2.75124175e+006, 3427600., 1.11413575e+006,
          3.63398850e+006, 3.32777450e+006, 4581669., 7.58690375e+005,
          9.97670688e+005, 2.52191475e+006 ]
      - [ 6.89653503e+002, 1.07534706e+002, 5.83095169e+000, 0., 0.,
          2.28473206e+001, 2.87432613e+001, 7.22697510e+003,
          7.82369482e+003, 3.76837883e+001, 0., 1.92534256e+001, 4., 0.,
          2.82842708e+000, 8.44375687e+001, 1.94046660e+004,
          1.35399521e+004, 8.26574316e+003, 1.02100723e+004,
          1.05937861e+004, 1.37739941e+004, 3.81321328e+004,
          2.16517922e+005, 2.51288609e+005, 4.08791523e+004,
          2.31973105e+004, 7.48668994e+003, 7.99452002e+003,
          7.49637500e+003, 1.14090234e+004, 1.34041182e+004,
          5.46899841e+002, 9.55520325e+001, 7.59954834e+001,
          3.43060303e+001, 2.36688257e+003, 4.88818665e+001,
          1.54801498e+002, 1.54080795e+002, 5.27702332e+002,
          1.39672928e+002, 3.20079308e+001, 4.30312653e+001,
          8.70813574e+003, 1.61553745e+001, 1.04471756e+002,
          1.38296722e+002, 2.51171575e+006, 1.72816450e+006,
          1.71045525e+006, 1.99527675e+006, 2128567., 1.71562238e+006,
          1.77485975e+006, 2.29379425e+006, 2295237., 1.94452113e+006,
          1800891., 2.02134763e+006, 2.11033250e+006, 1.84571938e+006,
          1.86605150e+006, 2.09237063e+006 ]
      - [ 0., 0., 0., 0., 0., 0., 0., 0., 0., 0., 0., 0., 0., 0., 0., 0.,
          6.02080977e+004, 7.63630234e+004, 9.43647969e+004,
          1.05605172e+005, 1.08800789e+005, 6.24986797e+004,
          4.29896211e+004, 1.39501938e+005, 1.63634922e+005,
          5.40795039e+004, 6.80680078e+004, 1.30320789e+005,
          1.32561344e+005, 5.01343320e+004, 5.22726289e+004,
          6.82456406e+004, 0., 0., 0., 0., 0., 0., 0., 0., 0., 0., 0.,
          0., 0., 0., 0., 0., 2.08206225e+006, 1.45350913e+006,
          1.53545513e+006, 2.66943525e+006, 2792807., 1.74842788e+006,
          1.45698663e+006, 2.20035850e+006, 2.23518850e+006,
          1.58648838e+006, 1.58811288e+006, 3.08533025e+006,
          2.94902025e+006, 1.42470775e+006, 1.37830838e+006, 2095319. ]
      - [ 0., 0., 0., 0., 0., 0., 1.56568546e+001, 2.14353729e+002,
          1.86229111e+002, 7.32477112e+001, 0., 0., 0., 0., 0., 0., 0.,
          0., 0., 0., 0., 0., 1.34199121e+003, 7.57003125e+003,
          1.07446270e+004, 1.16891895e+003, 0., 0., 0., 0., 0., 0.,
          9.53652891e+004, 6.47843828e+004, 7.42270156e+004,
          6.86234219e+004, 9.75200547e+004, 6.80028203e+004,
          6.74328672e+004, 6.82327188e+004, 9.98449531e+004,
          6.30751094e+004, 6.72641250e+004, 8.04364688e+004,
          8.74641484e+004, 7.48736641e+004, 7.88025156e+004,
          6.01658438e+004, 2.29969025e+006, 1.83356263e+006,
          1.94606013e+006, 2.92496875e+006, 3242163., 2.11313225e+006,
          2010174., 2.32736650e+006, 2.26864625e+006, 1886101., 2034376.,
          2.61786150e+006, 2.92497075e+006, 2.27056650e+006,
          1.99075250e+006, 2.32317125e+006 ]
      - [ 2.54017544e+001, 9.89949512e+000, 5.83095169e+000,
          1.72691078e+001, 2.50453606e+001, 7.61577320e+000,
          2.85137653e+001, 1.10453606e+001, 3.10990200e+001,
          3.14038391e+001, 5.39264946e+001, 1.87875458e+002,
          1.22049988e+002, 0., 2.40416298e+001, 9.48683357e+000,
          5.25399707e+003, 7.88465430e+003, 1.20150166e+004,
          6.43121729e+003, 6.83137842e+003, 1.21055176e+004,
          3.01720723e+004, 1.67887641e+005, 1.72127781e+005,
          2.21159004e+004, 1.88360898e+004, 1.52593037e+004,
          4.90252881e+003, 4.91791650e+003, 1.30184707e+004,
          1.25331943e+004, 6.12471924e+002, 3.79475128e+002,
          2.11819168e+002, 4.51816345e+002, 6.95448914e+002,
          2.29700180e+002, 2.93935394e+002, 1.89918777e+002,
          7.47116821e+002, 1.73819397e+003, 3.63984473e+003,
          5.82854805e+004, 8.39236250e+004, 2.58826782e+003,
          1.60029407e+003, 4.23843231e+002, 1.60354850e+006,
          1.35955138e+006, 1.52382513e+006, 1.83040813e+006,
          1.83150738e+006, 1.47368888e+006, 1.52248688e+006,
          1.83705013e+006, 1.92398863e+006, 1860471., 1854725.,
          2.16212175e+006, 1.99946963e+006, 1.36407263e+006,
          1.24112463e+006, 1.52712738e+006 ]
      - [ 3.67396820e+002, 2.09208847e+002, 6.12660675e+001,
          1.69666840e+002, 6.22404419e+002, 3.63585236e+002,
          9.12436600e+001, 2.84604988e+001, 1.53891174e+002,
          8.94465866e+001, 4.03401756e+001, 2.71372711e+002,
          2.29679199e+002, 2.46463272e+002, 1.43472610e+002,
          2.71661568e+001, 2.05040703e+004, 2.02808203e+004,
          3.16650879e+004, 1.27039680e+005, 9.56032813e+004,
          1.82572227e+004, 5.51330566e+003, 5.49366309e+003,
          9.21582617e+003, 8.90180664e+003, 1.53821934e+004,
          1.00240352e+005, 1.01996797e+005, 3.25146504e+004,
          1.79003965e+004, 1.38142852e+004, 1.27366305e+005,
          7.43573438e+004, 2.93151504e+004, 5.05011094e+004,
          1.05691773e+005, 5.09130977e+004, 9.49878281e+004,
          3.71374609e+004, 1.07326547e+005, 1.09250219e+005,
          3.24441504e+004, 3.79143242e+004, 1.06740336e+005,
          6.38525000e+004, 1.01456469e+005, 5.39720391e+004,
          2.96700675e+006, 1.93670613e+006, 1.46197475e+006, 3027257.,
          3.97725525e+006, 1267190., 1.86640463e+006, 4288795., 3122825.,
          1.83660575e+006, 1.44555438e+006, 3157908., 3297603.,
          9.96577875e+005, 1.71552313e+006, 4.12579550e+006 ]
      - [ 8.34704056e+001, 5.11691315e+002, 1.25793007e+002,
          5.23527466e+002, 6.62529449e+001, 4.03196869e+001,
          4.87098694e+001, 8.20120703e+003, 3.64578149e+003,
          4.03853333e+002, 3.63374023e+003, 3.10961572e+003,
          1.33160068e+004, 6.89254913e+001, 7.18684692e+001,
          5.37360954e+001, 7.21471328e+004, 2.75537734e+004,
          2.47305781e+004, 1.65715430e+004, 1.34816631e+004,
          8.97296582e+003, 1.30189521e+004, 9.14304188e+005,
          1.03382963e+006, 1.64473164e+004, 1.06276797e+004,
          1.41673643e+004, 1.51197715e+004, 1.75770527e+004,
          3.54019336e+004, 6.12327813e+004, 1.11011829e+003,
          2.26575513e+003, 8.16041064e+003, 5.03359492e+004,
          4.37013320e+004, 9.22984180e+003, 3.39549146e+003,
          1.19337402e+003, 9.04372437e+002, 1.08192468e+003,
          1.24326465e+003, 5.26965375e+005, 6.69517875e+005,
          1.09032556e+003, 1.30487537e+003, 4.92694946e+002,
          2.30533675e+006, 1.54413663e+006, 1.49775613e+006,
          1.92025888e+006, 2.08838938e+006, 1.36442175e+006,
          1.50339625e+006, 2.10372125e+006, 2249144., 1.53923413e+006,
          1.48011638e+006, 1.82091150e+006, 1.80404588e+006,
          1.46277650e+006, 1.56618013e+006, 2.28483675e+006 ]
      - [ 2.12967850e+002, 6.69003174e+002, 1.68369858e+002,
          1.05006454e+002, 66., 0., 0., 0., 0., 0., 0., 0., 0., 0., 0.,
          0., 1.47659875e+005, 1.37263213e+004, 5.30681104e+003,
          9.60736621e+003, 8.85178672e+004, 1.27202222e+003,
          1.97442126e+003, 3.62773193e+003, 6.20121836e+004,
          7.06145410e+003, 1.35614343e+003, 1.07462197e+004,
          1.21317570e+005, 2.59987378e+003, 4.03432544e+003,
          5.06404736e+003, 6.94462939e+003, 3.80688647e+003,
          7.39088989e+002, 1.08494873e+003, 7.80050293e+003,
          1.02243762e+003, 4.87971875e+003, 2.10135229e+003,
          7.37862061e+003, 4.81756500e+002, 2.98586426e+002,
          4.70607147e+002, 1.54618152e+003, 9.29799652e+001,
          4.57358612e+002, 2.01291656e+002, 3480195., 7.90756250e+005,
          6.78220875e+005, 5614393., 6911840., 7.37706500e+005,
          8.47967313e+005, 3.91951675e+006, 3.08042950e+006,
          7.37671813e+005, 7.15059688e+005, 6274794., 7066515.,
          7.15435063e+005, 7.96512500e+005, 2.91832425e+006 ]
      - [ 5.96277161e+002, 5.36015991e+002, 2.67168549e+002,
          1.50661606e+002, 0., 0., 0., 0., 0., 0., 0., 6.36396103e+001,
          1.95150313e+004, 1.74183691e+004, 6.96518433e+002,
          4.40006317e+002, 1.88864160e+004, 1.80041465e+004,
          1.54715947e+004, 5.68501680e+004, 6.50670781e+004,
          1.20879482e+004, 1.20740420e+004, 1.09697510e+004,
          1.16859824e+004, 1.19037549e+004, 1.58450137e+004,
          4.43384883e+004, 7.69058125e+004, 1.88234609e+004,
          1.90044004e+004, 1.92463125e+004, 4.84032500e+004,
          1.26161357e+004, 1.37696143e+004, 7.10712734e+004,
          6.36851953e+004, 1.13476516e+005, 3.56537695e+004,
          2.55196563e+004, 5.30326367e+004, 1.87250664e+004,
          1.62334814e+004, 6.76437500e+004, 7.59521563e+004,
          5.10221641e+004, 3.24346582e+004, 2.86457813e+004,
          6.31723750e+006, 1.15478688e+006, 1.14925975e+006, 5418352.,
          6.03390350e+006, 1.27569850e+006, 1.21547763e+006,
          4.01740225e+006, 6228035., 1.24432138e+006, 1.25648875e+006,
          5.47708150e+006, 6.59778950e+006, 1.36436538e+006,
          1.24939913e+006, 4272311. ]
      - [ 0., 0., 0., 0., 0., 0., 0., 0., 0., 0., 0., 0., 0., 0., 0., 0.,
          3.60366250e+004, 3.29790898e+004, 3.25352891e+004,
          4.38388320e+004, 6.83252188e+004, 1.64368984e+004,
          2.87609355e+004, 9.17536875e+004, 1.87666844e+005,
          5.32189219e+004, 2.65530703e+004, 3.87013164e+004,
          5.91630195e+004, 1.48127646e+004, 1.51269521e+004,
          2.26157676e+004, 0., 0., 0., 0., 0., 0., 0., 0., 0., 0., 0.,
          0., 0., 0., 0., 0., 2.37174975e+006, 2.20356750e+006,
          1.83858425e+006, 1.90199863e+006, 1735496., 1424769., 1721485.,
          2200206., 2.52248025e+006, 2.05478650e+006, 1.84795313e+006,
          2.24671050e+006, 2.19252775e+006, 1.36217713e+006,
          1.62787025e+006, 2.12787675e+006 ]
      - [ 0., 0., 0., 0., 0., 0., 0., 0., 0., 0., 0., 0., 0., 0., 0., 0.,
          2.30797832e+004, 2.01530527e+004, 3.07241367e+004,
          7.15344063e+004, 6.74747813e+004, 2.04546699e+004,
          1.82697695e+004, 1.47656758e+004, 2.10075527e+004,
          2.06280293e+004, 2.97026230e+004, 6.24464961e+004,
          8.81817734e+004, 2.61304590e+004, 2.75396973e+004,
          2.38186523e+004, 0., 0., 0., 0., 0., 0., 0., 0., 0., 0., 0.,
          0., 0., 0., 0., 0., 1.93951875e+006, 1.81867638e+006,
          2.31844425e+006, 4.31056750e+006, 3.87076475e+006,
          3.52768475e+006, 1.87478363e+006, 1.75888375e+006,
          2.17233975e+006, 2.30177175e+006, 2.91307425e+006,
          4.25023250e+006, 4594637., 3.24624750e+006, 2.30546250e+006,
          2.02287050e+006 ]
      - [ 2.28299255e+002, 3.49522614e+002, 1.30504486e+002,
          6.81269714e+002, 1.79507227e+003, 8.33981201e+002,
          1.01790320e+003, 0., 150., 2.55757233e+002, 1.48307007e+002,
          2.95465729e+002, 1.36633423e+003, 5.81258667e+002,
          3.54400940e+002, 8.59138489e+002, 7.04471719e+004,
          3.27450234e+004, 2.51741738e+004, 3.99146836e+004,
          8.35129531e+004, 2.43447891e+004, 2.24797676e+004,
          2.86894043e+004, 4.13988008e+004, 4.13343047e+004,
          2.89160527e+004, 3.16056719e+004, 5.74277852e+004,
          3.11726699e+004, 2.44505391e+004, 3.99854375e+004,
          3.29144219e+005, 1.08137453e+005, 8.98675234e+004,
          1.01280844e+005, 9.19785313e+004, 1.05918016e+005,
          1.17169477e+005, 1.36715328e+005, 2.80204656e+005,
          1.16173547e+005, 1.30244563e+005, 1.51514766e+005,
          1.26430797e+005, 1.29153359e+005, 1.02328289e+005,
          1.15454320e+005, 5.87058150e+006, 2.51515975e+006, 2615321.,
          7297317., 7675473., 3126800., 2.74216125e+006, 4.28828250e+006,
          6162442., 2.94947725e+006, 2.95215075e+006, 7.78678750e+006,
          6.24561150e+006, 3090079., 2.56155450e+006, 4387718. ]
      - [ 0., 0., 0., 0., 0., 0., 0., 0., 0., 0., 0., 0., 0., 0., 0., 0.,
          0., 0., 0., 0., 0., 0., 0., 0., 0., 0., 0., 0., 0., 0., 0., 0.,
          0., 0., 0., 0., 0., 0., 0., 0., 0., 1.82433548e+002,
          9.80429535e+001, 7.14837524e+002, 1.33381775e+003,
          7.87955933e+001, 1.89504608e+002, 0., 1.54046650e+006,
          1.13254213e+006, 1.08387650e+006, 1.40930225e+006,
          1.73381550e+006, 1065359., 1.11070563e+006, 1.62350750e+006,
          2.01423475e+006, 1.09838913e+006, 9.85868063e+005,
          1.47916263e+006, 1.89203350e+006, 1.28027088e+006,
          1.17008388e+006, 1.42301463e+006 ]
      - [ 1.60857385e+003, 6.82563354e+002, 5.69439331e+002,
          4.83084277e+003, 4.53291406e+003, 1.79530420e+003,
          9.08337830e+002, 4.56694916e+002, 1.41445068e+003,
          2.88832031e+002, 3.65519745e+002, 4.91218652e+003,
          1.13584268e+004, 1.37978652e+004, 2.28806006e+003,
          4.83328552e+002, 2.24346641e+005, 1.08756289e+005,
          1.15816820e+005, 8.39066328e+004, 1.28743266e+005,
          7.49511172e+004, 1.10079219e+005, 3.02023313e+005,
          2.60117109e+005, 1.39257719e+005, 9.25120781e+004,
          9.47623594e+004, 1.40522266e+005, 8.35418281e+004,
          9.53724375e+004, 1.94761547e+005, 6.82028516e+004,
          2.09320645e+004, 1.75129492e+004, 4.42361719e+004,
          5.70945156e+004, 1.63238955e+004, 1.85421699e+004,
          4.59510352e+004, 6.26308438e+004, 3.65097500e+004,
          3.05912695e+004, 7.63726875e+004, 5.84142695e+004,
          2.56554688e+004, 2.50344238e+004, 6.40598008e+004, 3355958.,
          1.90776488e+006, 1.59770438e+006, 1.88199788e+006,
          1.94754138e+006, 1.50723938e+006, 1.61794213e+006,
          2.32937325e+006, 2665525., 2.15919825e+006, 1.81660963e+006,
          2.28726050e+006, 2.05771813e+006, 1.52318763e+006,
          1.88490113e+006, 3.21047225e+006 ]
      - [ 4.45189551e+003, 3.68054175e+003, 1.97580048e+002,
          9.89286865e+002, 1.06405591e+003, 2.70081909e+002,
          1.56313013e+003, 4.84405322e+003, 5.65439893e+003,
          3.25309180e+003, 4.49939160e+003, 3.18627148e+003,
          2.44339502e+003, 2.80668262e+003, 2.12494751e+003,
          3.14581348e+003, 8.94168203e+004, 9.01949141e+004,
          3.91701758e+004, 7.99506406e+004, 1.06660375e+005,
          4.06495039e+004, 4.03951719e+004, 5.25412969e+004,
          1.74752656e+004, 5.35510078e+004, 4.32741055e+004,
          9.34368906e+004, 7.24364531e+004, 2.46335742e+004,
          9.67123203e+004, 1.86593609e+005, 1.70691656e+005,
          1.90683145e+004, 4.28626758e+004, 2.92224629e+004,
          3.89068164e+004, 2.04930195e+004, 4.76167813e+004,
          1.29587625e+005, 1.75664484e+005, 3.64819414e+004,
          3.01027051e+004, 2.68321699e+004, 5.83972813e+004,
          2.78201055e+004, 2.39775566e+004, 1.57629406e+005,
          4.04793550e+006, 1.68342788e+006, 1.80981538e+006, 4560539.,
          4.70327850e+006, 1.30037613e+006, 1.42555225e+006,
          3.51864375e+006, 4.29069150e+006, 1.46424038e+006,
          1.81105338e+006, 3950758., 4402494., 1.28295538e+006,
          1.50546750e+006, 3.50739025e+006 ]
      - [ 0., 0., 0., 0., 0., 0., 0., 0., 0., 0., 0., 0., 0., 0., 0., 0.,
          1.40115771e+004, 1.80920469e+004, 6.35948047e+003,
          3.03488203e+004, 1.12814625e+005, 1.28995791e+004,
          1.83184746e+004, 1.97179844e+004, 3.87161992e+004,
          3.64307383e+004, 1.49683760e+004, 8.57706563e+004,
          6.08573320e+004, 4.42940332e+003, 3.75566187e+003,
          2.48069165e+003, 1.97492070e+004, 1.29356826e+004,
          2.05553418e+004, 1.27406270e+004, 1.24218477e+004,
          9.40514941e+003, 9.89697461e+003, 1.32744150e+004,
          3.29894336e+004, 3.95922891e+004, 4.53889219e+004,
          1.42890859e+005, 1.30522117e+005, 5.78474297e+004,
          3.67616836e+004, 1.29500488e+004, 2316220., 1.17890775e+006,
          8.52545563e+005, 1.24578363e+006, 1.45519813e+006,
          7.69779375e+005, 1.27904388e+006, 1.93760450e+006,
          1.84999788e+006, 1.09774788e+006, 8.54889875e+005,
          1.22957138e+006, 1.29088275e+006, 1.05486550e+006,
          1.10306075e+006, 2.12009875e+006 ]
      - [ 0., 0., 0., 0., 0., 0., 0., 0., 0., 0., 0., 0., 0., 0., 0., 0.,
          0., 0., 0., 0., 0., 0., 0., 0., 0., 0., 0., 0., 0., 0., 0., 0.,
          0., 0., 0., 0., 0., 0., 0., 0., 0., 0., 0., 0., 0., 0., 0., 0.,
          1.74022675e+006, 8.45115313e+005, 6.85987938e+005,
          1.05224975e+006, 1.16637950e+006, 7.45447688e+005,
          8.36411688e+005, 1787049., 1.87518325e+006, 9.75846813e+005,
          1.17476588e+006, 1.43095613e+006, 1678396., 1.20660413e+006,
          9.41164500e+005, 1.47669338e+006 ]
      - [ 3.32355164e+002, 1.07869690e+002, 1.41605087e+002,
          6.25476709e+003, 720., 2.16333084e+001, 0., 0., 6., 0.,
          1.41048691e+002, 6.30668518e+002, 6.21909326e+003,
          3.31661072e+002, 1.15880127e+002, 9.48683357e+000,
          3.02455840e+004, 1.62476973e+004, 2.37993535e+004,
          1.48922969e+005, 1.74340750e+005, 9.29097852e+003,
          8.91948047e+003, 3.48424180e+004, 1.59375186e+004,
          9.55964063e+003, 1.12320693e+004, 1.61337703e+005,
          1.71508594e+005, 1.87921504e+004, 1.94655918e+004,
          5.04315195e+004, 8.82969609e+004, 2.66270059e+004,
          6.60255615e+003, 5.11673779e+003, 7.34351074e+003,
          5.44905713e+003, 1.12500908e+004, 1.00129242e+005,
          5.65823320e+004, 1.27037314e+004, 4.14461230e+003,
          1.67758008e+003, 4.32224951e+003, 3.33048438e+003,
          6.91051123e+003, 3.32931406e+004, 2.85313150e+006,
          8.99695438e+005, 1.04166075e+006, 4.34203950e+006, 3860619.,
          8.52989563e+005, 8.27048938e+005, 4.27168750e+006,
          3.57227650e+006, 1.02801425e+006, 1.23893875e+006,
          4.15899475e+006, 3.69427250e+006, 7.43186188e+005,
          8.52387125e+005, 4.13025250e+006 ]
      - [ 1.51947327e+002, 3.92388397e+002, 6.70820389e+001,
          5.69209976e+001, 120., 0., 0., 0., 0., 0., 0., 0., 0., 0.,
          6.50165787e+001, 3.42707253e+001, 3.32804141e+004,
          2.69090684e+004, 3.93183828e+004, 1.05336938e+005,
          1.21069969e+005, 2.65943086e+004, 1.83486719e+004,
          1.28938545e+004, 1.81042422e+004, 2.34451914e+004,
          3.42327422e+004, 9.84627891e+004, 1.59115984e+005,
          2.67705488e+004, 1.96460313e+004, 3.20971289e+004,
          1.26472133e+005, 1.85039043e+004, 1.93236504e+004,
          4.16410664e+004, 5.33297852e+004, 2.24767480e+004,
          1.42397598e+004, 4.50501875e+004, 1.52046688e+005,
          2.00818203e+004, 4.52584766e+004, 7.87471406e+004,
          9.03225859e+004, 2.14453809e+004, 2.44418262e+004,
          7.28593125e+004, 3.14699325e+006, 1672459., 1.84242113e+006,
          6.94522350e+006, 7053188., 1.75105050e+006, 1.62749425e+006,
          2.83753775e+006, 3.33396925e+006, 1.79184125e+006,
          1.98458363e+006, 6759683., 7214732., 1.86946575e+006, 1689784.,
          3002804. ]
      - [ 0., 0., 0., 0., 0., 0., 0., 0., 0., 0., 0., 0., 0., 0., 0., 0.,
          0., 0., 0., 0., 0., 0., 0., 0., 0., 0., 0., 0., 0., 0., 0., 0.,
          3.70204102e+004, 8.85321191e+003, 9.41616797e+003,
          4.23607406e+005, 9.72760703e+004, 1.15386807e+004,
          1.05459131e+004, 6.04558242e+004, 3.98870547e+004,
          8.49685645e+003, 7.15248047e+003, 2.66382563e+005,
          6.36711211e+004, 6.05601709e+003, 6.18030371e+003,
          6.22855234e+004, 1601321., 8.14100063e+005, 6.84202688e+005,
          2567554., 1.23092913e+006, 7.95610688e+005, 1068756.,
          2.58248375e+006, 1530802., 8.89275188e+005, 1.00062181e+006,
          2.77892350e+006, 1.53093188e+006, 1.10686275e+006, 1048452.,
          2.39231225e+006 ]
      - [ 0., 0., 0., 0., 0., 0., 0., 0., 0., 0., 0., 0., 0., 0., 0., 0.,
          0., 0., 0., 0., 0., 0., 0., 0., 0., 0., 0., 0., 0., 0., 0., 0.,
          0., 0., 0., 0., 0., 0., 0., 0., 0., 0., 0., 0., 0., 0., 0., 0.,
          2.76091775e+006, 1.98454350e+006, 2.15688825e+006,
          3.26251650e+006, 4016171., 2.89629750e+006, 2.47548775e+006,
          3.54624925e+006, 3.05523275e+006, 2.04539613e+006, 2226175.,
          4.11856325e+006, 4321638., 2.71569375e+006, 2.06793825e+006,
          2.86761675e+006 ]
      - [ 3.44385956e+002, 5.31959961e+002, 3.37541290e+002,
          1.02238849e+003, 1.09575989e+003, 3.20178925e+002,
          9.33380966e+001, 4.95023232e+001, 2.63705475e+002,
          1.65674683e+002, 2.09965271e+002, 1.15880875e+002,
          2.17342499e+002, 1.79185516e+002, 2.28131241e+002,
          5.31601334e+001, 1.43059766e+004, 1.40089424e+004,
          1.78379121e+004, 3.26380293e+004, 5.03528516e+004,
          3.40498555e+004, 2.34481973e+004, 6.54431836e+004,
          4.19464570e+004, 1.93857656e+004, 1.72020156e+004,
          5.22171680e+004, 5.21477500e+004, 1.15489961e+004,
          1.37934170e+004, 1.41381182e+004, 4.45859141e+004,
          1.67228281e+004, 1.01004594e+005, 8.44411719e+004,
          4.35669781e+005, 2.14473281e+004, 2.07084844e+004,
          2.37321504e+004, 2.69929531e+004, 1.29049365e+004,
          1.62010547e+004, 9.14981348e+003, 6.89819092e+003,
          4.32018799e+003, 2.57010547e+004, 9.93022461e+003,
          3.73696050e+006, 1.18480925e+006, 1.59243613e+006,
          2.57254775e+006, 3.70005850e+006, 1.18240975e+006,
          1.16341738e+006, 2.51238050e+006, 3712883., 1.15722713e+006,
          1.19438750e+006, 2.61152725e+006, 4.46452750e+006,
          1.26057450e+006, 1.19967513e+006, 2.47505025e+006 ]
      - [ 3.93871002e+002, 5.23101440e+002, 5.36656342e+001,
          9.48683357e+000, 78., 2.68328171e+001, 9.33380890e+001,
          1.89736671e+001, 5.74868317e+001, 1.69705620e+001, 0.,
          9.48683357e+000, 9.48683357e+000, 0., 1.27279215e+001,
          3.65102615e+001, 1.30539082e+004, 4.02583643e+003,
          8.83773865e+002, 1.03375745e+003, 3.22634937e+003,
          1.24096756e+002, 3.98835236e+002, 2.92006470e+002,
          1.32261023e+003, 2.00781082e+002, 7.12494354e+001,
          1.80880920e+002, 5.40993701e+003, 1.13902698e+003,
          4.97738379e+003, 1.02087408e+003, 4.86956289e+004,
          6.47752832e+003, 2.00185522e+003, 5.25165967e+003,
          3.98494648e+004, 1.51829639e+003, 7.09209814e+003,
          2.43099785e+004, 3.70545586e+004, 2.59419775e+003,
          1.10635022e+003, 3.67902734e+003, 3.51159141e+004,
          6.69272559e+003, 3.49972095e+003, 2.23889355e+003,
          2.78958450e+006, 1.13555413e+006, 1.28143063e+006,
          4.18794725e+006, 5568123., 1456026., 1.28590088e+006,
          2.41705125e+006, 3.28555825e+006, 1.15049763e+006,
          1.25471838e+006, 4.18805850e+006, 5951455., 1.42704763e+006,
          1.24014025e+006, 2.20558950e+006 ]
      - [ 2.93532043e+002, 1.25324120e+002, 2.42393768e+002,
          1.12010887e+002, 6.21484253e+002, 5.48578369e+002,
          1.65873550e+002, 1.23702942e+002, 4.37443390e+002,
          1.16977417e+002, 4.03259521e+002, 1.35643921e+002,
          2.74687012e+002, 3.83869476e+002, 4.90045410e+002,
          7.06116180e+001, 1.64723008e+004, 1.26094023e+004,
          9.68652832e+003, 9.61400391e+003, 1.65281035e+004,
          7.16376025e+003, 9.85082129e+003, 5.84752539e+003,
          8.07140576e+003, 9.28733398e+003, 6.83922998e+003,
          6.96752393e+003, 1.56572529e+004, 8.80302441e+003,
          1.42751777e+004, 1.30729561e+004, 2.82136230e+004,
          1.80785039e+004, 1.62291016e+004, 2.10473965e+004,
          2.39802266e+004, 1.81681250e+004, 1.98021895e+004,
          1.41640020e+004, 2.61287324e+004, 1.55397715e+004,
          1.20066367e+004, 2.92255488e+004, 3.21192734e+004,
          1.19590498e+004, 1.59742168e+004, 1.39867939e+004,
          2.52029675e+006, 9.40426938e+005, 805905., 1.38988025e+006,
          1.51830275e+006, 7.47094938e+005, 1.12870425e+006,
          2.12681525e+006, 2.57431475e+006, 9.15838125e+005,
          7.35312563e+005, 1.29988325e+006, 1.39880113e+006,
          7.02507188e+005, 1.17719938e+006, 2.09749925e+006 ]
      - [ 0., 0., 0., 0., 0., 0., 0., 0., 0., 0., 0., 0., 0., 0., 0., 0.,
          0., 0., 0., 0., 0., 0., 0., 0., 0., 0., 0., 0., 0., 0., 0., 0.,
          0., 0., 0., 0., 0., 0., 0., 0., 0., 0., 0., 0., 0., 0., 0., 0.,
          1.25097388e+006, 8.94934500e+005, 6.57834063e+005,
          8.92823563e+005, 9.36519500e+005, 6.63017375e+005,
          8.55212188e+005, 1.16076138e+006, 1.32914413e+006, 706130.,
          7.32040125e+005, 1.11035725e+006, 1.14598313e+006,
          9.48505813e+005, 8.13677688e+005, 9.91114750e+005 ]
      - [ 9.21698685e+001, 4.00089684e+001, 1.20830460e+001, 0.,
          3.16227770e+000, 2.64266338e+001, 8.60102234e+001,
          7.05138770e+003, 1.36764404e+004, 4.99191437e+001,
          1.58738899e+001, 1.84390888e+001, 6., 0., 3.52399902e+001,
          2.83354626e+001, 5.69787415e+002, 2.45374405e+002,
          1.62902710e+002, 1.32475861e+002, 8.27576758e+003,
          1.29196514e+004, 1.47198750e+004, 3.47698063e+005,
          4.85818281e+005, 1.51258242e+004, 1.35244629e+004,
          7.55785205e+003, 4.69543060e+002, 1.59457870e+002,
          2.21927002e+002, 2.04921143e+002, 1.61737563e+005,
          3.34981763e+003, 1.36658459e+003, 1.22896680e+003,
          1.74711548e+003, 1.23988074e+003, 1.82079858e+003,
          1.09586650e+004, 1.35870750e+005, 3.13718530e+003,
          7.99979858e+002, 8.20783691e+002, 1.67251660e+003,
          9.88814148e+002, 2.49768506e+003, 4.59349072e+003, 3850084.,
          8.46411938e+005, 7.09390563e+005, 9.36406438e+005, 3360322.,
          6.37203813e+005, 767710., 1516314., 3.26610175e+006,
          9.08627188e+005, 8.48303250e+005, 1.38571150e+006,
          3.87439650e+006, 9.78469750e+005, 9.92061188e+005,
          1.23466175e+006 ]
      - [ 3.68462769e+003, 3.69910767e+002, 1.78670364e+002,
          4.01868706e+001, 54., 1.34164085e+001, 6.18185272e+001,
          4.17851639e+001, 8.16279907e+001, 1.34164085e+001, 0., 0., 36.,
          0., 0., 5.49913086e+002, 1.38930500e+005, 1.14369902e+004,
          2.85693555e+003, 1.45602759e+003, 8.74508105e+003,
          2.48019873e+003, 1.06808789e+004, 1.44559922e+005,
          7.11026016e+004, 8.07399121e+003, 2.58766040e+003,
          1.12840466e+003, 7.02900293e+003, 2.57137451e+003,
          1.47743154e+004, 1.61809297e+005, 1.78255098e+004,
          1.22225068e+004, 8.08220996e+003, 3.04467559e+004,
          8.55674922e+004, 1.81265566e+004, 1.37353682e+004,
          8.41854199e+003, 1.38492900e+004, 5.80438916e+003,
          4.82329395e+003, 1.37269775e+004, 3.83763828e+004,
          1.05591016e+004, 9.37718750e+003, 6.04232031e+003,
          7.91849550e+006, 2.91954375e+006, 2408348., 3.20283350e+006,
          3.78568875e+006, 2.53393525e+006, 3.11895825e+006, 8853345.,
          7321608., 2.64978625e+006, 2.23369325e+006, 2.75598625e+006,
          3.33313925e+006, 2528048., 2.90965875e+006, 9061896. ]
      - [ 150., 1.27279215e+001, 7.41758804e+001, 1.00370453e+003,
          7.64625732e+002, 0., 0., 0., 3.34868317e+001, 1.27279215e+001,
          0., 0., 1.11475415e+003, 3.66006592e+002, 1.25102036e+002,
          9.48683357e+000, 1.25472656e+004, 1.52847959e+004,
          2.53618262e+004, 7.17668516e+004, 8.51353203e+004,
          1.77161035e+004, 8.19505762e+003, 7.83668115e+003,
          1.01171475e+004, 1.10442236e+004, 2.45109297e+004,
          6.87373672e+004, 1.23608250e+005, 1.77132422e+004,
          1.03137432e+004, 7.12668115e+003, 2.76825073e+003,
          6.72205505e+002, 8.67617004e+002, 2.23982617e+003,
          4.44566602e+004, 1.42222388e+003, 9.16457642e+002,
          3.80337738e+002, 3.50708496e+003, 7.29155884e+002,
          4.17332367e+002, 2.00001184e+003, 4.50006719e+004,
          2.50499536e+003, 7.98111206e+002, 3.10723022e+002,
          3.52686225e+006, 2.03852875e+006, 1712638., 3.78108475e+006,
          4344156., 1805169., 1.53487550e+006, 2608409., 3448346.,
          2144109., 1.98583263e+006, 4430386., 5.36111350e+006,
          1.82234775e+006, 1.58945625e+006, 2.64592025e+006 ]
      - [ 0., 0., 0., 0., 0., 0., 0., 0., 0., 0., 0., 0., 0., 0., 0., 0.,
          0., 0., 0., 0., 0., 0., 0., 0., 0., 0., 0., 0., 0., 0., 0., 0.,
          2.79828379e+004, 1.83628535e+004, 1.96638711e+004,
          1.86919414e+004, 1.79945742e+004, 1.66024395e+004, 17471.,
          1.66458672e+004, 3.35795352e+004, 2.03902969e+004,
          2.64447500e+004, 7.16877891e+004, 4.86021055e+004,
          3.00926777e+004, 1.83572910e+004, 1.96407930e+004,
          1.98480088e+006, 1.44744813e+006, 1379437., 1.68771388e+006,
          1.77400113e+006, 1.31201025e+006, 1.36544113e+006,
          1.99163350e+006, 2.21289925e+006, 1.58813475e+006,
          1.56231438e+006, 1.89426163e+006, 2.08110350e+006,
          1.52851213e+006, 1.51642188e+006, 1.88380588e+006 ]
      - [ 7.07106781e+000, 1.83847771e+001, 4.47213602e+000,
          3.16227770e+000, 2.45858536e+001, 7.61577320e+000,
          1.14878063e+001, 8.26129723e+000, 5.51622772e+001,
          2.18462906e+001, 0., 0., 0., 0., 0., 0., 1.42856796e+002,
          1.36904190e+002, 1.28003754e+002, 8.46912231e+001,
          9.22888428e+002, 9.39085449e+002, 3.51008325e+003,
          1.16650127e+004, 1.77788340e+004, 3.39323730e+003,
          8.13473938e+002, 6.89421570e+002, 5.13123169e+002,
          1.20889465e+002, 1.16199959e+002, 9.90422211e+001,
          2.03734336e+004, 2.69306006e+003, 2.29808667e+003,
          1.61642832e+004, 2.12143887e+004, 2.25442896e+003,
          2.95980664e+003, 1.03764189e+004, 1.63006895e+004,
          4.15899121e+003, 1.66598486e+003, 1.13101680e+004,
          2.39932168e+004, 1.49077161e+003, 3.30225269e+003,
          6.53916406e+003, 3.32597575e+006, 1.45216950e+006,
          9.04104188e+005, 1085416., 1.15768463e+006, 7.59557625e+005,
          1.24630513e+006, 3.10163225e+006, 3.91403450e+006, 1670692.,
          9.20212688e+005, 9.29076938e+005, 1066670., 9.90110938e+005,
          1.71243713e+006, 3384435. ]
      - [ 1.42460495e+002, 0., 1.90686523e+002, 2.11842432e+003,
          3.56379468e+003, 0., 3.49857101e+001, 4.50998917e+001,
          1.45477264e+002, 4.96655464e+001, 6.65520874e+002,
          1.59567444e+003, 2.36127832e+003, 1.94723511e+002,
          5.53172684e+001, 4.94772644e+001, 1.07684346e+004,
          8.55214746e+003, 7.33587305e+003, 5.68218711e+004,
          3.87368906e+004, 6.69417090e+003, 1.80242656e+004,
          1.55223877e+004, 8.31362891e+003, 9.45751367e+003,
          9.12324609e+003, 4.40989766e+004, 4.49126406e+004,
          1.22313252e+004, 1.92612461e+004, 1.88446543e+004,
          5.55817734e+004, 2.00025801e+004, 4.32630664e+004,
          1.53894844e+005, 9.68790078e+004, 3.24067949e+004,
          2.75679590e+004, 4.99294258e+004, 5.50219453e+004,
          1.45865049e+004, 1.56105342e+004, 2.11319406e+005,
          9.45446641e+004, 1.37456719e+004, 2.35028281e+004,
          3.51618438e+004, 1.44288850e+006, 7.06249813e+005,
          6.62051188e+005, 3.04680475e+006, 1.89252863e+006,
          6.12224250e+005, 1.10763950e+006, 1.40023513e+006,
          8.83779500e+005, 7.26528063e+005, 7.43626563e+005,
          3.63993775e+006, 2.02553225e+006, 5.77722375e+005,
          8.08899688e+005, 9.94362313e+005 ]
      - [ 3.42578949e+002, 3.86199188e+002, 7.52170959e+002,
          2.87325592e+002, 2.75233276e+002, 2.12602921e+001, 0.,
          1.07756182e+004, 4.11780664e+003, 1.75932581e+003,
          2.30772632e+003, 5.23259961e+003, 1.82005156e+004,
          2.21645050e+002, 2.07636719e+002, 2.30921295e+002,
          1.00892781e+005, 6.39273047e+004, 4.03857461e+004,
          2.47499609e+004, 2.43988633e+004, 1.82097090e+004,
          3.33018906e+004, 8.26449188e+005, 9.06999563e+005,
          3.82215625e+004, 2.22873887e+004, 4.20436914e+004,
          3.58241797e+004, 3.13366074e+004, 4.12172852e+004,
          7.40887891e+004, 3.14017544e+001, 5.23695107e+001,
          4.44170105e+002, 3.54139478e+003, 8.12422422e+004,
          4.28937469e+002, 1.46868410e+001, 6.32455540e+000,
          7.68582077e+001, 5.39696083e+001, 6.54308395e+001,
          3.50617188e+004, 9.69166188e+005, 4.34183159e+001,
          4.00569687e+001, 6.32455540e+000, 2.00897463e+006,
          1.70495788e+006, 1.60346425e+006, 2.15904350e+006,
          2.06845988e+006, 1.37646175e+006, 1561593., 1.86317788e+006,
          2.46015525e+006, 1825148., 1.70845163e+006, 1.95614175e+006,
          1.92482938e+006, 1.41393425e+006, 1.58495625e+006, 2399689. ]
      - [ 2.40411401e+003, 4.34234955e+002, 0., 0., 198.,
          4.92066010e+002, 6.95692017e+002, 3.06511890e+003,
          6.63549902e+003, 1.26965378e+002, 1.18869675e+002, 0.,
          6.79947327e+002, 3.07877625e+002, 9.64686157e+002,
          2.30536743e+003, 3.41671641e+004, 2.35202285e+004,
          3.78966289e+004, 6.45408555e+004, 3.06444961e+004,
          4.59356543e+003, 8.60905664e+003, 1.68036758e+004,
          9.24884609e+004, 1.28403330e+004, 4.46801445e+004,
          5.44046211e+004, 4.79960352e+004, 9.73647754e+003,
          1.40783369e+004, 3.41080508e+004, 1.34010016e+005,
          2.49590664e+004, 3.30573086e+004, 4.10116406e+004,
          1.93021453e+005, 2.85916758e+004, 3.66734414e+004,
          9.43435313e+004, 1.43432313e+005, 3.90042188e+004,
          4.56394336e+004, 3.31031250e+004, 1.66077313e+005,
          1.79074453e+004, 2.33197051e+004, 9.89237656e+004,
          3.65920225e+006, 8.95566563e+005, 1.03612663e+006,
          2.97778575e+006, 3.29545950e+006, 8.22798063e+005,
          9.61496125e+005, 4182713., 3.76963175e+006, 8.06128063e+005,
          1.29757088e+006, 3.36204125e+006, 3.65638325e+006,
          6.29759375e+005, 8.07516938e+005, 3.59867350e+006 ]
      - [ 0., 0., 0., 0., 5.00665932e+001, 2.54950981e+001,
          5.32066422e+001, 2.06582748e+002, 3.18119537e+002,
          3.24342728e+001, 0., 0., 3.50453606e+001, 0., 2.82842708e+000,
          0., 6.24662781e+002, 1.62865417e+002, 1.15325211e+002,
          1.55847015e+002, 8.03197021e+002, 3.14122986e+002,
          1.44761084e+003, 2.56220215e+003, 6.80506934e+003,
          1.17327026e+003, 4.08104950e+002, 3.70106598e+002,
          4.43630951e+002, 1.58850082e+002, 2.83195068e+002,
          2.34976318e+002, 5.34160547e+004, 2.47254805e+004,
          2.94106973e+004, 2.88030488e+004, 3.36695508e+004,
          3.01373633e+004, 3.23678613e+004, 3.90104336e+004, 77258.,
          2.65272305e+004, 2.93060879e+004, 3.69176172e+004,
          4.07820898e+004, 3.49360430e+004, 3.88482070e+004,
          3.41084414e+004, 2.18955950e+006, 1.37414263e+006,
          1.01313250e+006, 1.36350875e+006, 1.61783588e+006,
          9.79308250e+005, 1.09708350e+006, 1.97269950e+006,
          2.70562775e+006, 1.45096363e+006, 1.21023463e+006,
          1.23729675e+006, 1.48553250e+006, 1350598., 1.42776675e+006,
          1.70490825e+006 ]
      - [ 1.58310989e+002, 1.63898682e+002, 3.52663477e+003,
          7.14862012e+003, 1.03139199e+004, 1.74928551e+001,
          1.27279215e+001, 0., 12., 0., 0., 0., 0., 0., 0., 0.,
          1.42370922e+005, 4.18498086e+004, 4.71762188e+004,
          5.59668281e+004, 1.81307078e+005, 4.14043867e+004,
          4.04891563e+004, 9.25666250e+004, 1.66558578e+005,
          4.44481797e+004, 4.07290352e+004, 5.40953711e+004, 201244.,
          4.44060117e+004, 3.55573672e+004, 5.05861680e+004,
          2.59695293e+004, 2.11671406e+004, 4.03573867e+004,
          5.41973281e+004, 6.02280859e+004, 3.85370195e+004,
          2.62668965e+004, 1.18852969e+004, 2.11455664e+004,
          1.16976504e+004, 1.31361250e+004, 1.44993555e+004,
          1.74944277e+004, 1.44576328e+004, 1.06335225e+004,
          6.92660254e+003, 3617465., 2.54684775e+006, 2531476.,
          3.28718275e+006, 4588800., 2.74521275e+006, 2.70228650e+006,
          3.04404175e+006, 3.42758225e+006, 2.79490475e+006,
          2.89642150e+006, 3.51876475e+006, 5.06110050e+006,
          2.87149975e+006, 2651323., 2.89627450e+006 ]
      - [ 1.48329561e+004, 0., 0., 1.11040535e+002, 876.,
          1.93377783e+003, 1.91580969e+003, 5.06328369e+003,
          1.82541882e+003, 7.68058594e+002, 1.92867004e+003,
          9.45860596e+002, 2.86391040e+003, 2.08062500e+002,
          2.44200745e+002, 3.37546411e+003, 1.84946125e+005,
          9.12442188e+003, 7.39366113e+003, 8.71034141e+004,
          2.29807516e+005, 2.17488086e+004, 1.62206035e+004,
          4.46635547e+004, 1.42846203e+005, 1.15059287e+004,
          1.52370674e+004, 9.42228828e+004, 2.39830594e+005,
          1.21632656e+004, 9.81229004e+003, 2.32639043e+004,
          1.71724953e+005, 1.61798232e+004, 1.17218047e+004,
          1.75918203e+004, 9.79909609e+004, 5.16524844e+004,
          3.39203359e+004, 8.06919922e+004, 9.01850859e+004,
          9.41137305e+003, 6.99658350e+003, 8.73127441e+003,
          8.68947813e+004, 2.53128887e+004, 1.28860166e+004,
          2.07798848e+004, 6128671., 1.40120713e+006, 1.64544713e+006,
          4270192., 6.35298350e+006, 2.05440538e+006, 1.51596650e+006,
          2.99396125e+006, 5068603., 1494276., 1.73964450e+006, 4200078.,
          7.39370150e+006, 1.92013588e+006, 1343863., 2.58516875e+006 ]
      - [ 2.11807907e+002, 7.58504272e+002, 4.16582733e+002,
          2.30365173e+002, 2.85891174e+002, 0., 0., 0., 0., 0., 0., 0.,
          0., 0., 0., 0., 1.42536162e+004, 2.27711055e+004,
          2.91270664e+004, 9.17346016e+004, 6.52203008e+004,
          8.90072070e+003, 5.49342334e+003, 3.07158154e+003,
          5.43560986e+003, 1.52700195e+004, 3.63487930e+004,
          6.12950078e+004, 7.85387656e+004, 1.74446035e+004,
          1.23295723e+004, 7.02126660e+003, 1.34518922e+005,
          7.42117031e+004, 8.49509766e+003, 7.15889160e+003,
          2.13758770e+004, 1.54286084e+004, 2.15952227e+004,
          6.62755234e+004, 1.14941484e+005, 5.11131094e+004,
          1.70257068e+003, 1.51120251e+003, 3.39172925e+003,
          1.57808887e+004, 1.30224609e+004, 1.53984209e+004,
          4.17673650e+006, 1.69729588e+006, 1.79595588e+006,
          3.66993725e+006, 4.31736850e+006, 1.44656975e+006,
          1.06766425e+006, 2497686., 4420892., 1.51047025e+006,
          1.68550663e+006, 3.76679825e+006, 4.49617450e+006,
          1.20407913e+006, 9.55842063e+005, 1.97204763e+006 ]
      - [ 8., 0., 1.14017544e+001, 1.41421356e+001, 1.26491108e+001,
          1.78885441e+001, 2.30235519e+001, 0., 1.39221405e+002,
          6.12701721e+001, 7.21110249e+000, 0., 12., 0., 1.78885441e+001,
          2.92604103e+001, 5.86509766e+002, 1.83155045e+002,
          1.07912918e+002, 7.76845474e+001, 6.93481567e+002,
          2.39168243e+002, 1.42163416e+003, 2.06017480e+003,
          4.44999756e+003, 1.28878760e+003, 2.70003235e+002,
          2.70172577e+002, 6.13368591e+002, 8.72821655e+001,
          1.81591492e+002, 2.30263367e+002, 2.63671973e+003,
          3.00367212e+003, 4.95519385e+003, 1.97573164e+004,
          2.95272480e+004, 5.40827832e+003, 3.33389014e+003,
          8.94821289e+003, 1.13125264e+004, 4.22527100e+003,
          1.28983652e+004, 4.09820844e+005, 4.69271969e+005,
          9.11986523e+003, 4.38204443e+003, 2.03638635e+003,
          1.45614813e+006, 1.31639613e+006, 1.29249538e+006, 1875691.,
          2.27000525e+006, 1.43771138e+006, 1.45977138e+006, 2090351.,
          2.23161775e+006, 1.29862863e+006, 1.17587313e+006,
          1.89951338e+006, 2.30037125e+006, 1.28047863e+006,
          1.18998238e+006, 1.25963813e+006 ]
      - [ 2.41785629e+002, 2.18122292e+001, 4.03401756e+001,
          9.48683357e+000, 5.54868317e+001, 7.00994339e+001,
          7.95148544e+001, 1.79748108e+002, 2.28036102e+002,
          3.54305176e+002, 6.66544189e+002, 6.87191223e+002,
          7.70424683e+002, 6.14217834e+002, 5.82580383e+002,
          5.31662781e+002, 2.75301016e+004, 1.86701250e+004,
          2.70109727e+004, 7.32476250e+004, 1.46811391e+005,
          3.11723203e+004, 3.86461719e+004, 6.20567695e+004,
          3.46407266e+004, 2.23472051e+004, 2.94216934e+004,
          9.26021172e+004, 1.35901469e+005, 4.81571836e+004,
          3.28151992e+004, 2.43797910e+004, 2.46153687e+003,
          1.98277271e+003, 1.23679602e+003, 8.62642456e+002,
          1.47879114e+003, 5.14984192e+002, 1.55991614e+003,
          1.44858459e+003, 3.21070801e+003, 5.40569434e+003,
          1.19418887e+004, 4.79873406e+005, 4.65857438e+005,
          1.40837871e+004, 5.70681104e+003, 3.52294214e+003, 2684812.,
          1883928., 1819939., 2.28320875e+006, 2408333., 1.78988025e+006,
          1824920., 2.09594713e+006, 2.28577825e+006, 1.81176138e+006,
          1.72019213e+006, 2.24866850e+006, 2.27879175e+006,
          1.66790375e+006, 1.73754138e+006, 2.42037925e+006 ]
      - [ 1.46356670e+004, 3.99250519e+002, 1.04314804e+002,
          3.70854568e+001, 1.60494644e+002, 8.80595322e+001,
          1.76017700e+002, 6.31335327e+002, 7.85380078e+003,
          1.29255151e+003, 6.13262207e+002, 8.20490527e+003,
          7.14174023e+003, 8.63988647e+002, 1.76587634e+003,
          1.69584790e+003, 1.40541875e+005, 9.20731836e+003,
          1.84347773e+004, 1.80610918e+004, 2.82474188e+005,
          1.08113604e+004, 5.82997607e+003, 4.67982656e+004,
          1.48115625e+005, 8.29216504e+003, 1.34091289e+004,
          4.79007500e+004, 2.76622094e+005, 6.19592969e+003,
          7.45143896e+003, 2.82114199e+004, 6.63587109e+004,
          1.89281689e+003, 3.13423755e+003, 9.40721582e+003,
          9.69906563e+004, 4.50266455e+003, 2.01450330e+003,
          1.01053379e+004, 68262., 1.37609609e+004, 1.52211982e+004,
          2.00095918e+004, 1.31960547e+005, 1.66398887e+004,
          1.07686465e+004, 1.27048486e+004, 3.69170875e+006,
          1.02375919e+006, 8.10773500e+005, 9.35627500e+005,
          2.78241175e+006, 7.47017938e+005, 1.05567413e+006,
          1.56001675e+006, 3416348., 1.07198550e+006, 9.20987438e+005,
          1.13948263e+006, 3.10329275e+006, 1.06424313e+006,
          1.12884688e+006, 1.42812213e+006 ]
      - [ 4.84529610e+001, 4.24264050e+000, 0., 0., 7.16227770e+000,
          6.54369888e+001, 4.58891785e+002, 1.32150869e+004,
          1.14005234e+004, 1.32045300e+003, 2.49753271e+003,
          1.40347520e+004, 1.10510083e+003, 3.31455460e+001,
          3.31029472e+001, 8.82031097e+001, 8.54520781e+004,
          9.99908887e+003, 8.80089453e+003, 6.85408643e+003,
          6.91481396e+003, 4.65803809e+003, 7.58072021e+003,
          8.58803500e+005, 8.83439875e+005, 9.40215527e+003,
          6.74743750e+003, 9.68149121e+003, 8.14783789e+003,
          3.96124121e+003, 6.09689746e+003, 6.73143281e+004,
          2.41272109e+004, 8.95625781e+003, 3.91455713e+003,
          2.50830176e+003, 3.31596143e+003, 5.28222217e+003,
          6.36933008e+003, 2.05509277e+004, 1.77156172e+004,
          1.74654414e+004, 1.74490977e+004, 2.92590719e+005,
          3.40028219e+005, 2.45666191e+004, 1.11176875e+004,
          2.15153809e+004, 3.05649625e+006, 1475168., 1.10535950e+006,
          1.47477875e+006, 1.74100075e+006, 1349554., 1.18188175e+006,
          2.52012675e+006, 3.02727325e+006, 1.47988825e+006,
          1.10141275e+006, 1.69002788e+006, 1.74031125e+006,
          1.25200263e+006, 1.19948388e+006, 2602310. ]
      - [ 9.48683357e+000, 2.12132034e+001, 0., 3.65102615e+001,
          6.84510254e+002, 0., 2.12132034e+001, 9.48683357e+000, 48.,
          8.48528099e+000, 0., 0., 24., 0., 8.48528099e+000, 0.,
          1.66991309e+004, 5.70168408e+003, 4.07391602e+003,
          6.64259912e+003, 1.24261514e+004, 3.34978247e+003,
          5.25280371e+003, 3.63883789e+003, 6.16222559e+003,
          3.75152979e+003, 4.33884229e+003, 3.63409302e+003,
          1.44930361e+004, 5.99596436e+003, 6.13254688e+003,
          6.72962158e+003, 4.63309023e+004, 9.19159668e+003,
          8.71193750e+003, 1.92769102e+004, 2.19453047e+004,
          5.01520215e+003, 1.11412246e+004, 2.49581855e+004,
          3.34234492e+004, 4.24129980e+003, 4.46309180e+003,
          3.08605005e+003, 3.03308154e+003, 7.92669556e+002,
          3.87005249e+003, 1.96843281e+004, 1.64950150e+006,
          7.50561500e+005, 7.83212500e+005, 1.71936938e+006,
          2.18815650e+006, 6.82393250e+005, 577230., 1.06724588e+006,
          1568344., 8.13125938e+005, 8.42757125e+005, 1.75114375e+006,
          2.21983150e+006, 7.34750313e+005, 5.93774313e+005,
          1.34718363e+006 ]
      - [ 1.27235508e+004, 1.41174414e+003, 1.75801025e+002,
          1.90163086e+002, 348., 2.67151642e+002, 2.35836743e+003,
          5.38904590e+003, 7.16223682e+003, 1.23109703e+002, 0., 0.,
          420., 0., 3.15669800e+002, 4.06979688e+003, 2.71210250e+005,
          5.87526221e+003, 2.26663257e+003, 4.72195898e+003,
          1.58089785e+004, 7.10987500e+003, 9.10390918e+003,
          5.13712969e+004, 3.64161758e+004, 7.19018701e+003,
          2.17639746e+003, 4.82976563e+003, 1.75812559e+004,
          7.05342041e+003, 1.09253838e+004, 2.04122172e+005,
          1.60895672e+005, 8.22476855e+003, 8.25562598e+003,
          2.05734785e+004, 1.64369375e+004, 1.02228232e+004,
          2.37726270e+004, 1.77034328e+005, 1.32716297e+005,
          6.77781689e+003, 2.46685571e+003, 2.83914478e+003,
          3.25218872e+003, 1.18339954e+003, 4.51879248e+003,
          1.47127203e+005, 5.97371850e+006, 1.31275375e+006,
          1.20996875e+006, 3416430., 2.91475875e+006, 9.73998500e+005,
          1.27410113e+006, 6.45659150e+006, 7.14634750e+006,
          1.30119525e+006, 1.19670013e+006, 3322898., 3253076.,
          1.33436375e+006, 1.41854588e+006, 6273262. ]
      - [ 0., 0., 0., 0., 0., 0., 0., 0., 0., 0., 0., 0., 0., 0., 0., 0.,
          0., 0., 0., 0., 0., 0., 0., 0., 0., 0., 0., 0., 0., 0., 0., 0.,
          0., 0., 0., 0., 0., 0., 0., 0., 0., 0., 0., 0., 0., 0., 0., 0.,
          1.39389513e+006, 8.53139500e+005, 7.16560063e+005,
          1.17191388e+006, 9.69328750e+005, 7.09277250e+005,
          1.06073113e+006, 2.01736150e+006, 1.97240288e+006,
          1.04167838e+006, 1.06261975e+006, 1.18443250e+006,
          1.20192263e+006, 1.07513850e+006, 1.31533338e+006, 2159277. ]
      - [ 1.75324817e+003, 7.75588760e+001, 1.60643021e+002,
          9.48683357e+000, 2.64463226e+002, 30., 3.05649689e+002,
          1.29486816e+002, 2.60619690e+002, 2.12132034e+001, 0., 0., 36.,
          0., 1.66059875e+002, 3.58964355e+002, 2.19168047e+004,
          1.64242910e+004, 1.43734727e+004, 2.68226230e+004,
          5.50634453e+004, 2.18304668e+004, 2.32323340e+004,
          9.06489531e+004, 6.71606094e+004, 2.04586387e+004,
          1.79962383e+004, 2.77148398e+004, 5.13378828e+004,
          2.28678184e+004, 1.45152471e+004, 1.41026758e+004,
          7.30180938e+004, 1.79520781e+004, 1.17866641e+004,
          1.35780752e+004, 2.41118027e+004, 1.55349453e+004,
          2.37823691e+004, 4.22140781e+004, 5.10308750e+004,
          1.19254355e+004, 5.11255078e+003, 9.28035547e+003,
          3.74694063e+004, 2.73289727e+004, 1.26926133e+004,
          4.24394102e+004, 2.99104825e+006, 1746548., 1.86711625e+006,
          3.02392325e+006, 3.10178475e+006, 1.57002688e+006,
          1.56078363e+006, 2.62674575e+006, 2.85190225e+006,
          1.73251463e+006, 2.03833438e+006, 2.98718475e+006, 3659959.,
          1675015., 1.73364050e+006, 2908755. ]
      - [ 0., 0., 0., 0., 0., 0., 0., 0., 0., 0., 0., 0., 0., 0., 0., 0.,
          3.56149390e+003, 1.35539441e+003, 7.09401306e+002,
          5.54965088e+002, 2.20815894e+003, 7.61726904e+003,
          1.17921260e+004, 3.58462625e+005, 4.30969781e+005,
          1.34350195e+004, 5.31369824e+003, 2.75747363e+003,
          1.47823804e+003, 5.46959351e+002, 1.33636560e+003,
          1.36830420e+003, 1.61244385e+002, 9.90930252e+001,
          1.34164085e+001, 6.72018509e+001, 1.80681274e+002,
          2.68328171e+001, 1.16616753e+002, 1.02918091e+002,
          1.68771484e+002, 1.91441116e+002, 1.15639114e+002,
          2.64435730e+002, 4.26100250e+002, 1.30892120e+002,
          1.83478134e+002, 1.21785843e+002, 1.64140775e+006,
          1.10310438e+006, 937990., 1.33255938e+006, 1.77338875e+006,
          1.02817306e+006, 1.14486438e+006, 1.42866725e+006,
          1.45383125e+006, 1.18553888e+006, 1.03084444e+006,
          1.66482125e+006, 1.73061888e+006, 1.32633625e+006,
          1.42470025e+006, 1.66428925e+006 ]
      - [ 1.01071068e+002, 3.36697418e+002, 4.00931030e+002,
          5.24531372e+002, 6.21359444e+001, 5.98240540e+002,
          1.45980383e+003, 9.16031055e+003, 6.62611719e+003,
          1.31588098e+003, 8.06280457e+002, 4.80837646e+002,
          1.61195724e+002, 0., 1.73666992e+001, 5.03793564e+001,
          1.59900352e+004, 7.09742676e+003, 5.48005225e+003,
          1.68821504e+004, 1.71898828e+004, 1.49753467e+004,
          3.77124570e+004, 4.37758250e+005, 5.12494344e+005,
          3.79690430e+004, 2.22063047e+004, 1.41299961e+004,
          9.88008398e+003, 6.16845313e+003, 1.60574287e+004,
          2.51445313e+004, 1.19520117e+005, 8.04152734e+004,
          7.65942578e+004, 7.79797734e+004, 8.79200234e+004,
          8.25479219e+004, 8.50624688e+004, 8.14702422e+004,
          1.25052102e+005, 8.75300703e+004, 8.15082188e+004,
          1.13776656e+005, 9.48947891e+004, 8.52424453e+004,
          1.00057836e+005, 7.78420781e+004, 2.87822125e+006,
          2.13288925e+006, 1.79272813e+006, 2.17987750e+006,
          2.16886575e+006, 1.98118550e+006, 2.45342950e+006, 3098350.,
          2.58582625e+006, 1.97068875e+006, 1944189., 2.16148275e+006,
          2.24286550e+006, 1.96451963e+006, 2.38609550e+006,
          3.13907275e+006 ]
      - [ 5.39359055e+001, 2.76772423e+001, 3.55286674e+001,
          1.68935144e+003, 1.74615942e+003, 4.24271622e+001,
          3.30088310e+001, 4.00744400e+001, 5.13603172e+001,
          7.10548935e+001, 9.12675629e+001, 4.71416455e+003,
          7.60197363e+003, 9.81952591e+001, 9.27561417e+001,
          3.93343048e+001, 1.47452725e+004, 2.45760742e+004,
          5.89042344e+004, 2.28054281e+005, 8.01207891e+004,
          1.09665420e+004, 5.64484326e+003, 2.90615137e+003,
          2.39907910e+004, 5.02301953e+004, 4.86827578e+004,
          2.33531844e+005, 9.18743516e+004, 1.02704561e+004,
          9.05095313e+003, 1.02891016e+004, 1.22465205e+004,
          2.38282813e+003, 4.36553076e+003, 9.08385078e+004,
          2.02417852e+004, 4.11333936e+003, 2.50086719e+003,
          2.62198945e+004, 1.70750781e+004, 8.61499121e+003,
          9.63166309e+003, 1.28667133e+005, 5.04694961e+004,
          8.44451563e+003, 1.00064287e+004, 3.46939375e+004,
          1.91012663e+006, 9.46072125e+005, 7.77085688e+005,
          2.63960875e+006, 1.44712463e+006, 9.94004938e+005,
          1.09006550e+006, 3118353., 1925738., 1.04831925e+006,
          1.11122075e+006, 2.71696250e+006, 1.67721588e+006,
          1.40225725e+006, 1.36677325e+006, 3.18591850e+006 ]
      - [ 0., 0., 0., 0., 0., 0., 0., 0., 0., 0., 0., 0., 0., 0., 0., 0.,
          2.88485078e+004, 8.57516016e+003, 8.79612109e+003,
          1.02855830e+004, 2.93755898e+004, 9.77520801e+003,
          1.76751230e+004, 2.35129453e+005, 5.07790938e+005,
          2.22986113e+004, 7.66640918e+003, 1.24385381e+004,
          2.19371953e+004, 2.27481445e+003, 5.92702686e+003,
          2.14128379e+004, 4.77556122e+002, 2.97943207e+002,
          1.82069489e+002, 4.68522827e+002, 6.89195007e+002,
          2.28553268e+002, 2.69417297e+002, 1.96237015e+002,
          6.72327576e+002, 7.94234680e+002, 7.14901184e+002,
          1.78397925e+003, 3.42400903e+003, 7.48965942e+002,
          7.92514832e+002, 2.50665405e+002, 2.60444650e+006,
          2.35818375e+006, 1980213., 1.98147750e+006, 1.94612575e+006,
          1265725., 1375787., 2.32264650e+006, 2470678., 2.11497550e+006,
          2156424., 2.12380275e+006, 2.07623688e+006, 1530505.,
          1.59028475e+006, 2.23791525e+006 ]
      - [ 3.48320618e+001, 1.57858448e+001, 5.03849792e+001,
          1.58113880e+001, 3.61885757e+001, 1.34164085e+001,
          1.43530731e+002, 1.18909473e+003, 6.64072876e+002,
          5.62277405e+002, 2.67989990e+002, 6.64848022e+001,
          6.45113602e+001, 3.34124222e+001, 9.17852325e+001,
          5.53795776e+001, 4.62296094e+003, 1.17817017e+003,
          4.86371704e+002, 6.73650818e+002, 2.41830566e+003,
          9.00412231e+002, 5.03265186e+003, 3.07854219e+005,
          3.61539250e+005, 6.53521875e+003, 8.72819641e+002,
          1.08261511e+003, 1.96459180e+003, 5.52357849e+002,
          1.40652686e+003, 2.29866235e+003, 4.08422266e+003,
          3.06927783e+003, 2.45065308e+003, 4.00695239e+003,
          6.06494678e+003, 3.57297925e+003, 2.80431226e+003,
          2.39521631e+003, 4.04874365e+003, 4.94033057e+003,
          4.61431152e+003, 3.63919063e+004, 4.81499922e+004,
          5.44767188e+003, 5.43175586e+003, 2.74291431e+003,
          1.78329513e+006, 1.23055175e+006, 1.00969975e+006,
          1.01877019e+006, 1.07565050e+006, 1.16640563e+006,
          1.73669238e+006, 1.94275675e+006, 1901570., 1.41927038e+006,
          1.20112613e+006, 1221367., 1.31828688e+006, 1.35389675e+006,
          1.90548213e+006, 2.50827650e+006 ]
      - [ 3.81421356e+001, 7.21110249e+000, 0., 5.09901953e+000,
          2.11622772e+001, 0., 4.55279388e+001, 3.89462471e+001,
          1.59608963e+002, 3.56174812e+001, 1.75465965e+001,
          1.58113880e+001, 1.54084892e+001, 0., 0., 0., 1.26140051e+003,
          7.54732300e+002, 4.48639404e+002, 4.27433655e+002,
          1.62539087e+003, 9.52536255e+002, 3.44382397e+003,
          4.61546143e+003, 7.32764453e+003, 3.50321753e+003,
          1.15653455e+003, 9.84611816e+002, 9.27036926e+002,
          3.37743317e+002, 6.28495422e+002, 1.10201770e+003,
          5.74251484e+004, 4.56997930e+004, 3.62689492e+004,
          4.82336914e+004, 3.95846406e+004, 3.68143320e+004,
          4.70501836e+004, 3.00992441e+004, 9.10495781e+004,
          2.37008828e+004, 3.06994668e+004, 1.00637813e+005,
          3.29027578e+004, 2.03533203e+004, 2.39373887e+004,
          3.59304297e+004, 3.25398875e+006, 2.40664950e+006,
          2.33685275e+006, 3.09477750e+006, 2.70370175e+006,
          2.15178275e+006, 2369664., 4442892., 3804622., 2495018.,
          2157755., 2.86820750e+006, 2.76404775e+006, 2.11126150e+006,
          2.00294350e+006, 3.56729825e+006 ]
      - [ 5.06976990e+002, 6.37134094e+002, 1.26750175e+002,
          3.96209656e+002, 7.72893921e+002, 2.14455612e+002,
          4.28743134e+002, 1.27962639e+002, 3.91292175e+002,
          8.16139526e+001, 1.03385170e+002, 2.68432404e+002, 120.,
          8.77061539e+001, 2.37489288e+002, 0., 3.60150469e+004,
          1.93356035e+004, 2.39336992e+004, 1.07840266e+005,
          1.29711898e+005, 8.35882617e+003, 1.71393379e+004,
          1.85466270e+004, 1.12252129e+004, 7.61267920e+003,
          5.45484424e+003, 2.08891621e+004, 1.88205438e+005,
          2.90389629e+004, 1.04108500e+005, 6.61164609e+004,
          2.34539043e+004, 1.32691064e+004, 1.32237334e+004,
          3.19647852e+004, 2.67690254e+004, 1.86933223e+004,
          1.55670820e+004, 1.05810176e+004, 1.60669033e+004,
          9.30947559e+003, 9.30211035e+003, 4.21620313e+004,
          2.52395918e+004, 1.69828145e+004, 5.02499805e+004,
          8.38959766e+003, 2.06344163e+006, 1.04401538e+006,
          1.18551913e+006, 4467056., 5003299., 1.39648375e+006,
          1.30128788e+006, 2.28611725e+006, 2.48399525e+006,
          1.03927788e+006, 1.13254288e+006, 5185882., 4.72943750e+006,
          1.31247350e+006, 1.46057425e+006, 2132739. ]
      - [ 1.09673698e+002, 2.31250809e+002, 1.36643814e+002,
          2.99790253e+002, 3.68485870e+002, 1.17603134e+002,
          8.94465866e+001, 8.04105453e+001, 66., 2.28473206e+001, 0., 0.,
          1.12035690e+002, 5.78330307e+001, 6.98675003e+001,
          9.45538864e+001, 6.37353633e+004, 2.57796133e+004,
          2.37691367e+004, 6.61521563e+004, 2.28101047e+005,
          2.15335840e+004, 2.01230332e+004, 2.02399785e+004,
          3.08895020e+004, 1.57911846e+004, 2.08267129e+004,
          4.38736797e+004, 2.29204813e+005, 3.42511719e+004,
          2.34972383e+004, 3.24035488e+004, 1.19807822e+004,
          9.45497168e+003, 7.32208447e+003, 7.40884961e+003,
          1.39056475e+004, 5.59195654e+003, 8.49992676e+003,
          2.69455298e+003, 7.43104541e+003, 6.42500391e+003,
          4.85822900e+003, 4.32067334e+003, 6.01620459e+003,
          1.76908875e+003, 5.71251221e+003, 7.30101904e+003,
          3.18799350e+006, 1.91784313e+006, 2.10025775e+006, 3860130.,
          9274287., 2.15391425e+006, 1934081., 2.73747275e+006,
          3.32412625e+006, 2.00698075e+006, 2.17159875e+006,
          3.75713025e+006, 9350236., 2.13192575e+006, 1.81851988e+006,
          2.74249425e+006 ]
      - [ 1.02356250e+003, 1.08068115e+003, 6.08232300e+002,
          1.81076843e+002, 5.10710678e+001, 1.30420542e+001,
          3.74614639e+001, 2.42835059e+004, 6.51036279e+003,
          3.64226294e+003, 1.67751782e+003, 3.11234473e+003,
          1.40803594e+004, 3.00537758e+001, 2.03766804e+001,
          3.07833191e+002, 6.30919688e+004, 2.27533711e+004,
          1.90075352e+004, 3.95757422e+004, 8.27665234e+003,
          9.10037305e+003, 1.27799648e+004, 7.16461188e+005,
          8.59570500e+005, 1.39753691e+004, 7.28588721e+003,
          3.45681367e+004, 1.64442813e+004, 1.20620557e+004,
          1.85726719e+004, 2.28760344e+005, 2.98138599e+003,
          6.23365039e+003, 9.53210645e+003, 4.19624375e+004,
          1.14281297e+005, 1.14296240e+004, 7.05947510e+003,
          4.00865527e+003, 2.09610400e+003, 1.50875940e+003,
          4.69766992e+003, 3.40004656e+005, 9.66467938e+005,
          2.13538086e+003, 1.76874902e+003, 1.52494495e+003,
          1.65897513e+006, 1.15470188e+006, 1158813., 1.73973250e+006,
          1636029., 1.07895575e+006, 1.19995175e+006, 2.13369675e+006,
          1.70617513e+006, 1.17601863e+006, 1.06292038e+006,
          1.52007950e+006, 1326932., 9.71985688e+005, 1.13815838e+006,
          1.70807788e+006 ]
      - [ 5.07743256e+002, 3.48933868e+002, 3.09219818e+002,
          1.40452850e+002, 4.58063660e+002, 2.36878616e+002,
          2.70306000e+002, 1.36653488e+002, 2.90412750e+002,
          2.69944366e+002, 1.71067245e+002, 1.07079407e+002,
          5.27003235e+002, 1.69188812e+002, 5.77108765e+001,
          1.84901108e+002, 2.21577871e+004, 1.45577803e+004,
          1.36961035e+004, 1.68251641e+004, 5.61198984e+004,
          3.57885977e+004, 1.54609551e+004, 2.36829824e+004,
          1.91812949e+004, 1.40898154e+004, 4.26802695e+004,
          1.55666816e+004, 6.18290469e+004, 1.60550283e+004,
          1.62908496e+004, 3.34373438e+004, 2.65241426e+004,
          1.81398438e+004, 1.67762422e+004, 1.89248223e+004,
          2.17138242e+004, 1.51613750e+004, 1.85388691e+004,
          1.48335137e+004, 2.46705078e+004, 1.20529834e+004,
          1.02509834e+004, 1.06326963e+004, 1.17082119e+004,
          9.17276953e+003, 1.08357363e+004, 1.13643213e+004, 2187713.,
          1.18367350e+006, 1.10381550e+006, 2.82641725e+006,
          2.93455375e+006, 9.65739188e+005, 1.16944625e+006, 2268230.,
          1.87274563e+006, 1.16353688e+006, 1.13185825e+006, 3129682.,
          2930092., 1.00157313e+006, 1097853., 2.38691025e+006 ]
      - [ 2.02460495e+002, 3.66932556e+002, 4.02492256e+001,
          2.84604988e+001, 48., 2.68328171e+001, 9.33380890e+001,
          1.89736671e+001, 120., 0., 0., 0., 0., 0., 0., 0.,
          2.86458633e+004, 2.47187754e+004, 2.16082012e+004,
          3.62245547e+004, 3.59466172e+004, 8.33625098e+003,
          1.48305068e+004, 4.38887891e+004, 5.02396797e+004,
          1.93001602e+004, 1.93357832e+004, 4.17903086e+004,
          5.54902695e+004, 2.19286699e+004, 2.92076758e+004,
          3.03692637e+004, 1.00233211e+005, 1.40659395e+004,
          1.39936592e+004, 1.71855293e+004, 2.09853281e+004,
          1.18435527e+004, 11294., 7.64289063e+004, 1.16173211e+005,
          3.44572969e+004, 3.55733945e+004, 5.19856250e+004,
          5.69326758e+004, 3.16413652e+004, 2.62492070e+004,
          9.53083984e+004, 3.01150950e+006, 1.64826463e+006,
          1.55173925e+006, 2480344., 2721246., 1.40706013e+006,
          1.58689375e+006, 3.04344975e+006, 3.31971450e+006,
          1.84504625e+006, 1693199., 3053524., 3073467., 1.97205788e+006,
          1.80099813e+006, 3.24872475e+006 ]
      - [ 0., 0., 0., 0., 0., 0., 0., 0., 0., 0., 0., 0., 0., 0., 0., 0.,
          5.99902148e+004, 3.62554531e+004, 3.61119023e+004,
          7.61426719e+004, 5.44864219e+004, 4.68218672e+004,
          9.64005859e+004, 4.07283219e+005, 5.52780625e+005,
          8.04263906e+004, 4.58853672e+004, 1.01477367e+005,
          6.73486484e+004, 2.59927598e+004, 3.12672871e+004,
          8.51459297e+004, 2.05893203e+005, 8.89883047e+004,
          5.35742617e+004, 3.64489883e+004, 4.59055195e+004,
          4.54096523e+004, 6.83825859e+004, 1.39656781e+005,
          2.27367453e+005, 1.58573063e+005, 1.26127969e+005, 239911.,
          1.82355188e+005, 1.06517297e+005, 9.16753203e+004,
          2.22328203e+005, 3.69722625e+006, 2234056., 1.80851750e+006,
          2272674., 2.13565925e+006, 1.66839825e+006, 1.91079263e+006,
          2.79323425e+006, 3.02219375e+006, 2.27357225e+006,
          2.04120363e+006, 2576052., 2.16408525e+006, 1.52189888e+006,
          1.72773563e+006, 3.48917875e+006 ]
      - [ 1.87126266e+002, 5.03205322e+002, 4.03367737e+002,
          4.42108795e+002, 5.58469238e+002, 2.74236908e+002,
          1.13994049e+002, 3.91152115e+001, 1.00035690e+002,
          3.49857101e+001, 1.25337563e+002, 7.79377670e+001,
          2.92200500e+002, 3.49857101e+001, 1.36280151e+002,
          1.27618629e+002, 5.22353125e+004, 1.82759414e+004,
          1.27388594e+004, 2.33591074e+004, 4.36342344e+004,
          4.50291406e+003, 1.10235117e+004, 3.50487695e+004,
          2.10498398e+004, 1.88179824e+004, 1.23446123e+004,
          1.12174209e+004, 4.72866758e+004, 1.09097754e+004,
          2.44509922e+004, 6.00127344e+004, 5.89791719e+004,
          1.58027949e+004, 1.86280820e+004, 2.38619082e+004,
          7.81689063e+004, 5.52158750e+004, 3.38996289e+004,
          6.43087617e+004, 4.95502148e+004, 1.02154639e+004,
          1.19318877e+004, 9.86492422e+004, 8.32445156e+004,
          1.02928313e+005, 1.47786553e+004, 4.56996016e+004,
          4.19303925e+006, 1.17098175e+006, 1.25684488e+006, 2432936.,
          3693010., 1.43454113e+006, 1.27469063e+006, 3.09877850e+006,
          3.73875925e+006, 1.25032788e+006, 1.20012163e+006, 2495470.,
          4.34562750e+006, 1.38387438e+006, 1.23733188e+006,
          2.89794975e+006 ]
      - [ 4.35157654e+002, 1.80339111e+002, 1.77773819e+002,
          2.83742828e+002, 2.76270905e+002, 1.34090897e+002,
          6.78822479e+001, 3.79473305e+001, 1.18270721e+002,
          4.24264050e+000, 0., 2.71661568e+001, 1.05486832e+002,
          8.16455460e+001, 2.60657196e+002, 1.57043640e+002,
          1.88553926e+004, 1.26446221e+004, 1.25006084e+004,
          2.56659531e+004, 2.87924609e+004, 9.66404492e+003,
          8.28914355e+003, 1.44768691e+004, 1.13239805e+004,
          6.71951855e+003, 6.59279980e+003, 2.71011660e+004,
          3.12399746e+004, 8.19736621e+003, 8.36374219e+003,
          1.03404678e+004, 1.22178848e+004, 1.19936191e+004,
          1.80110449e+004, 7.75288828e+004, 1.92202109e+004,
          8.23483496e+003, 9.22609668e+003, 4.86109717e+003,
          1.07183096e+004, 5.18166064e+003, 4.41179248e+003,
          3.51131211e+004, 8.05828418e+003, 2.60364868e+003,
          3.68422461e+003, 2.54714941e+003, 5172061., 830297.,
          5.82876438e+005, 1.89579325e+006, 2624458., 6.73678500e+005,
          7.19090813e+005, 1.97177188e+006, 4.65578550e+006,
          7.64260625e+005, 5.05653719e+005, 2.77159825e+006,
          2.67116175e+006, 6.08246813e+005, 7.37075625e+005, 2138570. ]
      - [ 0., 0., 0., 0., 0., 0., 0., 0., 0., 0., 0., 0., 0., 0., 0., 0.,
          1.83174902e+003, 4.72311615e+002, 1.89367157e+002,
          2.65069794e+002, 7.01194153e+002, 5.22416138e+002,
          3.54276489e+003, 1.77021234e+005, 4.01652656e+005,
          4.78596631e+003, 9.37915649e+002, 5.94863953e+002,
          6.35038086e+002, 3.29387085e+002, 6.21750183e+002,
          7.54134216e+002, 0., 0., 0., 0., 0., 0., 0., 0., 0., 0., 0.,
          0., 0., 0., 0., 0., 1630755., 9.87234688e+005, 9.03890875e+005,
          1.27862288e+006, 1.25007163e+006, 7.68771625e+005,
          8.59444438e+005, 1.55830725e+006, 1.59013913e+006,
          1.12368663e+006, 1.09817613e+006, 1.60021463e+006,
          1.61351525e+006, 1.12557663e+006, 1.17439825e+006,
          1.52601638e+006 ]
      - [ 0., 0., 0., 0., 4., 1.34467249e+001, 8.68922958e+001,
          6.61331711e+001, 1.60730560e+002, 7.35174103e+001,
          2.59736595e+001, 1.14235744e+001, 0., 0., 0., 0., 0., 0., 0.,
          0., 9.14372437e+002, 6.15093689e+002, 1.97225122e+003,
          3.04259131e+003, 4.63462793e+003, 1.99001343e+003,
          5.61025024e+002, 4.85732605e+002, 456., 0., 0., 0.,
          1.34732598e+004, 1.91414043e+004, 3.15813730e+004,
          6.39644297e+004, 6.43669805e+004, 1.98247031e+004,
          1.28158438e+004, 2.50869414e+004, 2.77674160e+004,
          1.65158359e+004, 1.93902930e+004, 5.05736906e+005,
          5.70063938e+005, 2.09971797e+004, 9.98504199e+003,
          9.72106934e+003, 2.36584525e+006, 1.77581150e+006,
          1.45597138e+006, 1.81856788e+006, 1911777., 1.18557113e+006,
          1.33854975e+006, 2.61158925e+006, 3.02968925e+006,
          1.82675125e+006, 1.61276538e+006, 2.25320375e+006,
          1.93339675e+006, 1.07393950e+006, 1.15310588e+006, 1978273. ]
      - [ 4.29892517e+002, 1.07513168e+002, 2.16333084e+001,
          2.08257431e+002, 1.46058151e+002, 7.75339584e+001,
          4.83735466e+001, 1.13619385e+003, 1.06162073e+003,
          1.54722244e+002, 3.42052612e+001, 3.29320374e+002,
          5.18023376e+002, 7.25061569e+001, 5.27383362e+002,
          2.39969757e+002, 1.87464219e+004, 3.17777813e+004,
          2.48981992e+004, 1.34252705e+004, 1.23907109e+004,
          2.66380396e+003, 5.92481104e+003, 1.98883750e+004,
          1.38525938e+004, 3.43522422e+004, 1.87414941e+004,
          1.48150156e+004, 2.10387949e+004, 6.80102686e+003,
          1.44293643e+004, 2.20408438e+004, 6.49970547e+004,
          9.79250195e+003, 5.76226709e+003, 3.01094316e+004,
          4.29682930e+004, 8.36943652e+003, 1.16388857e+004,
          2.80239805e+004, 6.82643281e+004, 1.39210049e+004,
          9.67125781e+003, 3.55659492e+004, 5.40036719e+004,
          8.18883350e+003, 1.13541602e+004, 2.73421992e+004,
          2.34656375e+006, 9.81623875e+005, 9.54113250e+005, 1981456.,
          3.04219125e+006, 6.50091250e+005, 7.93741563e+005,
          1.41402050e+006, 2.65867375e+006, 1.32938050e+006,
          1.04751050e+006, 2.33157425e+006, 3.01750525e+006,
          7.40532313e+005, 9.30395625e+005, 1.50845125e+006 ]
      - [ 2.71626465e+002, 2.53519653e+002, 1.20296822e+002,
          2.62371002e+002, 2.20163345e+002, 1.63091217e+002,
          8.24870682e+001, 8.60780411e+001, 2.27524185e+002,
          1.05099609e+002, 0., 3.05941162e+001, 36., 2.16333084e+001,
          1.63270798e+002, 8.01619034e+001, 6.78158105e+003,
          8.51435742e+003, 8.13738184e+003, 2.79713672e+004,
          5.32078086e+004, 2.00318926e+004, 9.34528418e+003,
          8.62416602e+003, 6.86066553e+003, 6.95345117e+003,
          8.15711475e+003, 2.00292090e+004, 6.86983984e+004,
          1.02676719e+004, 8.04177588e+003, 5.94712158e+003,
          1.66627500e+004, 9.55668750e+003, 1.13062471e+004,
          2.25047480e+004, 2.50984688e+004, 1.48805127e+004,
          1.36504492e+004, 7.64264746e+003, 1.97983223e+004,
          1.33701816e+004, 1.93251367e+004, 4.83118320e+004,
          4.98599844e+004, 2.00915918e+004, 8.39216113e+003,
          5.55700635e+003, 1.22449750e+006, 7.16302125e+005,
          7.33206500e+005, 1743717., 3.09211550e+006, 1104475.,
          8.55564438e+005, 1.15262413e+006, 1.53324875e+006,
          8.26938188e+005, 7.43425500e+005, 1.97238538e+006, 3276998.,
          8.26227375e+005, 6.90588125e+005, 8.92960375e+005 ]
      - [ 6.29239075e+002, 3.11448456e+002, 1.01077744e+002, 0.,
          6.79473343e+001, 2.29830948e+002, 0., 1.58824707e+002,
          2.26577148e+002, 0., 3.68232880e+002, 2.09560508e+004,
          6.95116553e+003, 1.44500000e+002, 3.51366150e+002,
          9.19114151e+001, 1.62957324e+004, 1.11019307e+004,
          1.63769277e+004, 7.54600469e+004, 1.54208297e+005,
          1.96691699e+004, 1.45381309e+004, 1.36011768e+004,
          1.14773291e+004, 9.90925586e+003, 1.50883711e+004,
          6.97280234e+004, 1.33442734e+005, 2.55257305e+004,
          1.59394189e+004, 8.33111621e+003, 1.34280422e+005,
          4.25284414e+004, 5.18507344e+004, 2.12193406e+005,
          1.07392922e+005, 4.38380234e+004, 4.45301953e+004,
          1.54104422e+005, 1.06978891e+005, 2.23354023e+004,
          2.04374453e+004, 2.05810391e+005, 5.41759648e+004,
          2.30554219e+004, 3.03108320e+004, 1.21310164e+005,
          1.91925713e+006, 1.17896113e+006, 1.67797888e+006,
          7.36850750e+006, 9643858., 1.61154788e+006, 1201970.,
          1.98517813e+006, 1.86613613e+006, 1.50223938e+006,
          1.91405475e+006, 6.68991650e+006, 8910360., 1751272.,
          1.50390425e+006, 2.01146925e+006 ]
      - [ 3.51562500e+002, 1.66466125e+002, 0., 5.51543312e+001,
          8.84683655e+002, 7.20647217e+002, 0., 0., 54., 2.28560532e+002,
          3.38412628e+002, 1.43626553e+004, 2.24234336e+004,
          8.10555420e+001, 1.08591415e+002, 0., 1.86974063e+004,
          1.70249961e+004, 1.64966250e+004, 5.25029414e+004,
          7.03478359e+004, 1.02764365e+004, 1.24774707e+004,
          8.55028906e+004, 2.60079688e+004, 7.21036621e+003,
          1.38228672e+004, 4.37813789e+004, 1.00218359e+005,
          9.14005566e+003, 1.00579863e+004, 4.43548906e+004,
          2.53308047e+004, 5.05225664e+004, 1.85811738e+004,
          4.29288984e+004, 1.34419203e+005, 6.25997344e+004,
          1.87271641e+004, 4.25203711e+004, 3.88938086e+004,
          1.91816895e+004, 3.49880313e+004, 3.86182688e+005,
          3.55400469e+005, 5.70178008e+004, 1.81189824e+004,
          1.08762109e+004, 1.45201850e+006, 7.67480563e+005,
          6.65161250e+005, 1.88070688e+006, 4.18267075e+006,
          6.50785688e+005, 7.51955375e+005, 9.39567563e+005,
          1.55380525e+006, 6.47871500e+005, 560193., 1.77246413e+006,
          5275861., 566523., 8.35984375e+005, 9.95690188e+005 ]
      - [ 2.87093315e+001, 0., 20., 0., 18., 0., 0., 0., 1.59086105e+002,
          1.82385217e+003, 6.45663879e+002, 2.59906274e+003,
          1.10329883e+004, 3.82075615e+001, 4.17815285e+001, 0.,
          1.01440303e+004, 1.15435244e+004, 1.10126934e+004,
          2.25203906e+004, 1.51251969e+005, 2.01876758e+004, 13471.,
          2.64253887e+004, 49576., 1.99708691e+004, 2.19948359e+004,
          3.74350977e+004, 1.25257992e+005, 3.03595630e+003,
          4.60781396e+003, 3.64451367e+003, 1.81267012e+004,
          3.09997742e+002, 1.81020859e+002, 4.23775146e+002,
          8.51729675e+002, 3.23829132e+002, 3.76120544e+002,
          9.07536426e+003, 2.63262305e+004, 1.23784893e+004,
          6.69177246e+003, 1.55763115e+004, 3.81746719e+004,
          8.90016113e+003, 1.21291885e+004, 1.49146318e+004, 3344131.,
          1.17230938e+006, 1.10820775e+006, 1.70445488e+006, 3592065.,
          877286., 1.13991888e+006, 1.85087313e+006, 3.16099225e+006,
          1057378., 1.19003913e+006, 1.76672025e+006, 3.63308775e+006,
          1.09911038e+006, 1.09112925e+006, 1.63997963e+006 ]
      - [ 1.20973663e+002, 3.49273499e+002, 4.02492256e+001,
          2.84604988e+001, 48., 2.68328171e+001, 9.33380890e+001,
          1.89736671e+001, 5.74868317e+001, 1.69705620e+001, 0.,
          9.48683357e+000, 6.94868317e+001, 0., 1.27967705e+002, 0.,
          3.73068047e+004, 2.14417715e+004, 1.99005410e+004,
          3.95512773e+004, 5.04000273e+004, 1.73395215e+004,
          1.68037012e+004, 2.29925117e+004, 2.62699219e+004,
          2.67095020e+004, 2.37729980e+004, 3.61468789e+004,
          5.83876016e+004, 3.18022617e+004, 3.65992734e+004,
          3.63917266e+004, 1.10809385e+004, 4.33095410e+003,
          2.26187891e+003, 3.26762866e+003, 2.01850078e+004,
          3.16889819e+003, 6.28143994e+003, 2.69665449e+004,
          2.15328398e+004, 3.48340771e+003, 1.87993896e+003,
          1.19376489e+003, 2.66429346e+003, 1.46608643e+003,
          3.06039502e+003, 2.83275098e+003, 2.11751775e+006,
          1.60267350e+006, 1.58151375e+006, 3589072., 3704647., 1840760.,
          1.44225613e+006, 2.27078325e+006, 2.59004475e+006,
          1.61782438e+006, 1.60366338e+006, 4.31153950e+006, 4190538.,
          2.02194963e+006, 1.53806450e+006, 2174708. ]
      - [ 3.53025246e+001, 0., 1.86848068e+001, 7.99395676e+001,
          7.79353485e+001, 9.96717758e+001, 1.36238892e+002,
          6.38541832e+001, 2.81553131e+002, 1.27869812e+002,
          6.12820244e+001, 4.82723312e+001, 1.07703295e+001,
          3.76225433e+001, 2.32034512e+001, 1.58693485e+001,
          9.73411560e+002, 7.75403198e+002, 2.73835236e+002,
          4.39463409e+002, 1.54690442e+003, 7.58875488e+002,
          2.68784521e+003, 3.32894287e+003, 5.42238965e+003,
          2.85942212e+003, 7.40712463e+002, 8.58200623e+002,
          1.12290979e+003, 2.53316910e+002, 7.15820557e+002,
          4.74319458e+002, 1.47659188e+005, 7.41210938e+004,
          4.62868320e+004, 2.96701484e+004, 4.55343945e+004,
          3.36814414e+004, 4.72958984e+004, 1.05597273e+005,
          1.68473813e+005, 7.92338438e+004, 5.13459141e+004,
          4.77781797e+004, 3.77967539e+004, 4.02072891e+004,
          6.38579297e+004, 1.01072633e+005, 2.85072625e+006,
          1.67381475e+006, 1.35164975e+006, 2.07494138e+006,
          2.09763675e+006, 1.46255950e+006, 1.65490088e+006,
          2.54407850e+006, 2754766., 1.86187363e+006, 1.48683588e+006,
          2.02493438e+006, 1.92027763e+006, 1217072., 1.30241588e+006,
          2.35545325e+006 ]
      - [ 72., 0., 0., 0., 0., 0., 0., 0., 0., 0., 0., 0.,
          1.34023071e+003, 0., 5.09116859e+001, 9.48683357e+000,
          1.03032451e+004, 4.40044287e+003, 4.63468555e+003,
          1.08426904e+004, 1.67700723e+004, 2.65170654e+003,
          3.35835400e+003, 1.79645349e+003, 5.98858740e+003,
          3.08819360e+003, 2.97162744e+003, 4.40128711e+003,
          1.85874277e+004, 7.95156641e+003, 5.31696143e+003,
          1.24829277e+004, 4.66525859e+004, 6.68858838e+003,
          2.90726563e+003, 4.38173047e+003, 7.02353564e+003,
          9.31056519e+002, 3.72695459e+003, 2.70093359e+004,
          4.40228398e+004, 8.77739551e+003, 3.52859448e+003,
          7.26818018e+003, 5.13198359e+004, 2.62530859e+003,
          3.60528369e+003, 2.69864082e+004, 1.74287950e+006,
          8.53168375e+005, 8.70561875e+005, 1.80554713e+006,
          2.22946625e+006, 7.45053125e+005, 6.22664125e+005,
          1.04183069e+006, 1.70590850e+006, 8.83490063e+005,
          9.24046813e+005, 1.73233363e+006, 2.30283675e+006,
          7.82676875e+005, 5.96256938e+005, 1.36489250e+006 ]
      - [ 4.79429352e+002, 2.26267471e+002, 3.23949341e+002,
          5.30338745e+002, 3.66019928e+002, 3.52688507e+002,
          1.06121826e+002, 2.79635925e+002, 4.03798920e+002,
          4.66690445e+001, 2.15588226e+002, 1.03485864e+003,
          1.67801526e+003, 5.92913879e+002, 3.41876007e+002,
          9.61880493e+001, 7.32899063e+004, 4.58589648e+004,
          4.03435352e+004, 7.98669375e+004, 7.84198672e+004,
          3.16441973e+004, 3.76536602e+004, 8.45485156e+004,
          1.02798805e+005, 2.85605898e+004, 2.62729941e+004,
          7.85354063e+004, 1.15130914e+005, 4.98870742e+004,
          3.89207930e+004, 1.03465781e+005, 3.38742422e+004,
          1.73978770e+004, 2.78461836e+004, 5.09683125e+004,
          7.15787031e+004, 2.75027168e+004, 2.42753125e+004,
          3.57666563e+004, 5.62485664e+004, 1.19995693e+004,
          1.18777754e+004, 5.40365547e+004, 378984., 1.68436035e+004,
          1.48348271e+004, 1.53368965e+004, 5.03399950e+006,
          1.60346825e+006, 1.47994113e+006, 5.26359450e+006, 4585872.,
          1.72148413e+006, 1.53685363e+006, 3.89882550e+006,
          5.41516950e+006, 1775343., 1.55338788e+006, 5980191.,
          4.62931850e+006, 1.66869663e+006, 1.32115263e+006,
          3.56380175e+006 ]
      - [ 0., 0., 0., 0., 0., 0., 0., 0., 0., 0., 0., 0., 0., 0., 0., 0.,
          3.34357539e+004, 4.51903662e+003, 5.89770166e+003,
          1.79550453e+005, 4.12227461e+004, 3.91942261e+003,
          6.85970313e+003, 6.65327734e+004, 1.97508691e+004,
          4.67557324e+003, 4.47197363e+003, 1.52590031e+005,
          4.26162188e+004, 5.16007373e+003, 1.05852266e+004,
          3.73871969e+005, 1.47695947e+003, 7.44536621e+002,
          8.35436401e+002, 5.28729346e+003, 1.12050391e+003,
          9.85896362e+002, 1.98081860e+003, 1.84457153e+003,
          8.86470801e+003, 7.15676416e+003, 7.16261914e+003,
          3.66572148e+004, 1.50394150e+004, 1.04890088e+004,
          9.78495605e+003, 8.82229395e+003, 1603440., 8.46940688e+005,
          7.78597438e+005, 2999297., 1.20095525e+006, 9.46276938e+005,
          9.95158688e+005, 3.09473825e+006, 1.19632638e+006,
          8.70679938e+005, 1.21984850e+006, 3.14129225e+006,
          1.65036075e+006, 1131657., 1.11974738e+006, 2767938. ]
      - [ 4.71740112e+002, 6.35044250e+002, 1.34409988e+002,
          8.38991699e+001, 144., 0., 0., 0., 0., 0., 0., 0., 0., 0., 0.,
          0., 2.38808125e+004, 2.87801001e+003, 5.67840088e+002,
          4.82690338e+002, 1.00278387e+003, 0., 3.81837654e+001,
          5.90546150e+001, 3.12454681e+002, 1.24247353e+002, 0.,
          3.79473343e+001, 3.22419360e+003, 1.49504858e+003,
          1.02144463e+004, 3.24237573e+003, 7.92181719e+004,
          1.07885410e+004, 6.71243115e+003, 1.18646006e+004,
          9.13373906e+004, 1.08060186e+004, 2.13465332e+004,
          4.14674609e+004, 7.63317891e+004, 5.59764795e+003,
          3.91857178e+003, 7.94144336e+003, 1.03498227e+005,
          7.74736182e+003, 4.93108789e+003, 1.81993105e+004,
          4.11713575e+006, 1.52561288e+006, 1.89455688e+006, 5114016.,
          4.49890850e+006, 1.86766213e+006, 1.56552925e+006, 4310574.,
          4779127., 1.63745250e+006, 1.92445938e+006, 4.96676850e+006,
          5014473., 1.97806138e+006, 1.72168813e+006, 3.37976525e+006 ]
      - [ 90., 0., 0., 0., 6., 0., 0., 9.48683357e+000, 228.,
          2.61443291e+001, 1.29033142e+002, 1.98854846e+003,
          2.07792920e+003, 3.39801971e+002, 9.12518616e+001,
          2.84604988e+001, 6.83774688e+004, 2.57834297e+004,
          2.78695000e+004, 5.36531055e+004, 1.53328344e+005,
          1.45784961e+004, 1.80535371e+004, 1.76299395e+004,
          3.69941289e+004, 2.49070039e+004, 1.57657305e+004,
          4.78408711e+004, 1.24594430e+005, 3.94867852e+004,
          3.81269570e+004, 3.77717500e+004, 1.44436984e+005,
          3.00157207e+004, 3.24012637e+004, 5.72041680e+004,
          1.76424359e+005, 5.47660977e+004, 3.73287656e+004,
          1.55730031e+005, 1.10500313e+005, 2.83187324e+004,
          3.38265547e+004, 6.25437539e+004, 1.30820453e+005,
          3.26477930e+004, 2.86143828e+004, 1.33638203e+005, 5216438.,
          1.65440750e+006, 1.80239413e+006, 4511407., 7935166.,
          2.25339075e+006, 1.96955675e+006, 6.61689750e+006, 5036567.,
          1.97731475e+006, 2.01734888e+006, 5.14121850e+006,
          7.25034350e+006, 1.97773450e+006, 1.69401225e+006,
          6.72462550e+006 ]
      - [ 1.57678486e+004, 2.99357208e+002, 3.72254425e+002,
          1.93766022e+002, 3.79897949e+002, 4.83735466e+001,
          7.84873886e+001, 0., 168., 1.27279215e+001, 1.21892761e+002,
          1.38419464e+002, 2.84286957e+002, 8.23771820e+001,
          1.64110748e+002, 3.99599048e+003, 2.64778250e+005,
          2.65074355e+004, 1.81144941e+004, 3.61266289e+004,
          5.91209023e+004, 1.70769180e+004, 1.92153945e+004,
          1.52634328e+005, 1.77534813e+005, 2.16028496e+004,
          2.05423594e+004, 6.77382344e+004, 4.38816484e+004,
          9.57758496e+003, 1.20772998e+004, 1.10977828e+005,
          2.17103875e+005, 5.46050234e+004, 5.44474180e+004,
          9.13022578e+004, 7.01435938e+004, 5.04916445e+004,
          6.14133320e+004, 1.61346313e+005, 1.74457266e+005,
          5.50866406e+004, 5.25389609e+004, 7.99294297e+004,
          5.30351953e+004, 3.78605508e+004, 4.65869453e+004,
          1.03536797e+005, 5647145., 2203365., 2.09637163e+006, 4430459.,
          5.16301250e+006, 2.28376225e+006, 2.39480125e+006,
          4.85022050e+006, 5420859., 2313930., 2.20578375e+006,
          4.57688050e+006, 3.75786150e+006, 1993261., 2180050.,
          4.12236050e+006 ]
      - [ 1.08332314e+002, 2.76815704e+002, 1.96167984e+002,
          3.14216583e+002, 3.36088043e+002, 3.54502991e+002,
          2.20284119e+002, 1.23595322e+002, 1.05990433e+002,
          9.72948151e+001, 0., 9.48683357e+000, 2.74868336e+001,
          3.49857101e+001, 2.12135513e+002, 6.62721634e+001,
          1.70984258e+004, 1.14949688e+004, 1.55006836e+004,
          3.87552695e+004, 5.09441016e+004, 1.30524570e+004,
          8.61776074e+003, 7.32680420e+003, 1.09076445e+004,
          5.92635059e+003, 5.59870508e+003, 3.82490195e+004,
          7.54936797e+004, 2.26841855e+004, 9.19332031e+003,
          8.73873242e+003, 1.57641748e+004, 1.05116133e+004,
          1.31275889e+004, 1.13188359e+005, 5.26868789e+004,
          1.59320771e+004, 9.63629883e+003, 4.85084277e+003,
          1.35045449e+004, 5.97791650e+003, 9.24007520e+003,
          1.51462328e+005, 4.90916094e+004, 1.73231328e+004,
          7.77517627e+003, 4.12909229e+003, 2.05413313e+006,
          1.01354294e+006, 1.05825150e+006, 2.99116025e+006,
          5.57321250e+006, 1.16298650e+006, 9.61016688e+005,
          1.72000088e+006, 1.97192325e+006, 7.41516188e+005,
          7.89212500e+005, 3.89115275e+006, 5973102., 1.22135638e+006,
          9.13570688e+005, 1.57459625e+006 ]
      - [ 3.33654572e+002, 8.03452637e+002, 2.41674850e+002,
          7.44575958e+001, 1.98973663e+002, 7.82855377e+001,
          6.30965424e+001, 2.12132034e+001, 36., 0., 0., 0., 0., 0., 0.,
          0., 2.00088906e+004, 5.45939307e+003, 3.32419995e+003,
          2.15243091e+003, 4.26169531e+003, 1.28704382e+003,
          1.86767957e+003, 1.65808142e+003, 3.80117139e+003,
          2.71348120e+003, 1.16467993e+003, 1.75423950e+003,
          6.80169482e+003, 3.59260498e+003, 1.13779600e+004,
          3.95504053e+003, 6.04495938e+004, 8.44046582e+003,
          2.72187378e+003, 2.19309692e+003, 1.22981875e+004,
          4.44361230e+003, 1.97832031e+004, 4.38838438e+004,
          3.40565898e+004, 2.52468042e+003, 1.30883228e+003,
          1.46090247e+003, 1.37791809e+003, 3.37402161e+002,
          1.13236084e+003, 8.79728711e+003, 3.71877675e+006,
          1.44777250e+006, 1746948., 4976532., 4365020., 1.82170138e+006,
          1.54933938e+006, 4.21120450e+006, 4.38768050e+006,
          1.49285825e+006, 1.79366688e+006, 4783969., 5.00634350e+006,
          1.85043713e+006, 1.67686438e+006, 3.14930550e+006 ]
      - [ 6.80659943e+001, 1.86142712e+001, 1.42126703e+001,
          1.33956232e+001, 2.91622772e+001, 2.69088173e+001,
          7.44652863e+001, 4.29829785e+003, 1.00544209e+004,
          7.53294449e+001, 2.16333084e+001, 0., 2.82612972e+001, 0.,
          4.44662514e+001, 1.14235744e+001, 1.60623743e+003,
          8.94067444e+002, 4.41635681e+002, 4.49738556e+002,
          1.39231104e+003, 1.16141724e+003, 4.87023877e+003,
          4.14267938e+005, 4.84800563e+005, 4.07981396e+003,
          8.68521362e+002, 9.82309631e+002, 1.05619080e+003,
          4.85606689e+002, 9.08202820e+002, 1.03137317e+003,
          2.61426426e+004, 1.29123398e+004, 1.55550430e+004,
          2.24291875e+004, 2.09239922e+004, 1.63814561e+004,
          1.51889922e+004, 1.65196191e+004, 3.07908242e+004,
          1.41949688e+004, 1.88695098e+004, 2.31641953e+004,
          4.00148906e+004, 5.53408906e+004, 1.57136592e+004,
          1.36745107e+004, 1.68755613e+006, 1.39415150e+006, 1198012.,
          1.49134088e+006, 1.42385875e+006, 1.11732225e+006,
          1.14851013e+006, 1.91118750e+006, 2.23284150e+006,
          1.43442875e+006, 1.30770050e+006, 1.49452375e+006,
          1.45127163e+006, 1.28822388e+006, 1.17744375e+006,
          1.54598413e+006 ]
      - [ 0., 0., 0., 0., 0., 0., 0., 0., 0., 0., 0., 0., 0., 0., 0., 0.,
          9.70347461e+003, 3.03237769e+003, 1.66096411e+003,
          8.06854375e+004, 7.53976641e+004, 1.68118086e+004,
          1.26486494e+004, 8.48609141e+004, 1.67193688e+005,
          1.18828408e+004, 3.42491367e+004, 6.68964453e+004,
          7.42033906e+004, 2.39980737e+003, 5.38522412e+003,
          8.48712891e+003, 0., 0., 0., 0., 0., 0., 0., 0., 0., 0., 0.,
          0., 0., 0., 0., 0., 2889664., 1.08686850e+006, 942342.,
          2.58696775e+006, 2.81713025e+006, 1025013., 1.16127938e+006,
          2.49198025e+006, 2.47964550e+006, 1.13583875e+006,
          1.21009888e+006, 2.26757650e+006, 2.72147250e+006, 1374096.,
          1289727., 2231996. ]
      - [ 0., 0., 0., 0., 0., 0., 0., 0., 0., 0., 0., 0., 0., 0., 0., 0.,
          0., 0., 0., 0., 0., 0., 0., 0., 0., 0., 0., 0., 0., 0., 0., 0.,
          3.49279023e+004, 1.96592324e+004, 20699., 3.58581406e+004,
          3.07290273e+004, 2.29140254e+004, 3.71841641e+004,
          3.40321016e+004, 5.37201875e+004, 2.70182500e+004,
          2.43898535e+004, 6.31580742e+004, 4.35632930e+004,
          2.48116680e+004, 2.85826836e+004, 2.86676563e+004,
          1.58259763e+006, 1.28638188e+006, 1.42461975e+006,
          1.86701313e+006, 1.62960650e+006, 1.18623075e+006,
          1.30481563e+006, 2.25564450e+006, 2527575., 1.60451613e+006,
          1.56206975e+006, 2.13597050e+006, 1.77681575e+006,
          1.06848038e+006, 1107368., 1.53454963e+006 ]
      - [ 0., 0., 0., 0., 0., 0., 0., 0., 0., 0., 0., 0., 0., 0., 0., 0.,
          4.65422173e+001, 5.25000000e+001, 4.89200249e+001,
          1.19290184e+002, 6.55149963e+002, 3.03945972e+003,
          8.89310059e+003, 1.45433391e+005, 1.67001250e+005,
          8.93039063e+003, 2.39744409e+003, 6.01568420e+002,
          3.35483795e+002, 2.32362728e+001, 2.28569126e+001,
          7.56217422e+001, 0., 0., 0., 0., 0., 0., 0., 0., 0., 0., 0.,
          0., 0., 0., 0., 0., 1.67651175e+006, 9.11460188e+005,
          7.80605750e+005, 3.06378125e+006, 1.55730350e+006, 767589.,
          9.24770813e+005, 2.79345525e+006, 1.50002375e+006, 736208.,
          8.33662313e+005, 2.88521075e+006, 1644550., 1.07022113e+006,
          9.48813250e+005, 2.56014625e+006 ]
      - [ 4.20816528e+002, 6.26648499e+002, 1.06826958e+002,
          2.69620636e+002, 5.34341309e+002, 1.53324982e+002,
          3.42899292e+002, 2.66765320e+002, 4.83863251e+002,
          2.84294189e+002, 2.51837738e+002, 2.81904175e+002,
          3.40580200e+002, 1.89985443e+002, 3.44442139e+002,
          3.20616394e+002, 3.64153203e+004, 2.22376875e+004,
          3.16263281e+004, 4.64159609e+004, 95087., 3.73061914e+004,
          3.51437695e+004, 7.17382969e+004, 6.11081016e+004,
          2.83149551e+004, 3.03721504e+004, 4.19453594e+004,
          8.02572188e+004, 2.97509727e+004, 2.41163965e+004,
          3.37725313e+004, 5.77260195e+004, 2.35730254e+004,
          2.07992734e+004, 2.43089004e+004, 3.68638984e+004,
          2.92874434e+004, 2.08240996e+004, 2.19093418e+004,
          5.72049766e+004, 1.54087734e+004, 1.69364004e+004,
          1.95200625e+004, 3.21858184e+004, 1.89454063e+004,
          1.73991289e+004, 2.53204961e+004, 6555721., 2.06545263e+006,
          2.18814175e+006, 5.86944150e+006, 6.46051850e+006,
          2.72432275e+006, 2.18378150e+006, 4069628., 6216543.,
          1.91591063e+006, 1.96772913e+006, 5.06064350e+006,
          5.97333150e+006, 2287394., 2.09858050e+006, 4352632. ]
      - [ 0., 0., 0., 0., 0., 0., 0., 0., 0., 0., 0., 0., 0., 0., 0., 0.,
          0., 0., 0., 0., 0., 0., 0., 0., 0., 0., 0., 0., 0., 0., 0., 0.,
          0., 0., 0., 0., 0., 0., 0., 0., 0., 0., 0., 0., 0., 0., 0., 0.,
          1.44327938e+006, 8.64717750e+005, 8.21007125e+005,
          1.03870569e+006, 1088747., 7.47348750e+005, 7.82544438e+005,
          1.41106863e+006, 1.51145463e+006, 9.64789938e+005,
          1.04947438e+006, 1.40866713e+006, 1.54448250e+006,
          1.05417350e+006, 1.11434550e+006, 1.19036563e+006 ]
      - [ 3.74371094e+002, 9.26963257e+002, 3.35771606e+002,
          1.08683060e+002, 102., 0., 0., 0., 0., 0., 0., 0., 24., 0.,
          5.67884445e+001, 6.15965805e+001, 8.11643438e+004,
          1.93120156e+004, 1.58904600e+004, 3.67330391e+004,
          4.42500586e+004, 1.38584502e+004, 1.74178750e+004,
          1.25420461e+005, 9.67717266e+004, 1.50159795e+004,
          1.96950313e+004, 2.95385195e+004, 5.23221797e+004,
          1.81381875e+004, 2.47097598e+004, 1.33245500e+005,
          2.57888613e+004, 1.45275107e+004, 8.05684326e+003,
          2.55300977e+003, 6.47719824e+003, 3.94958838e+003,
          9.51870215e+003, 1.24222158e+004, 2.76782832e+004,
          8.53365723e+003, 1.99694590e+004, 1.44973389e+003,
          2.71418115e+003, 3.33562134e+003, 1.30256582e+004,
          4.95031445e+003, 9296067., 1.80206350e+006, 1.48772350e+006,
          3.48797575e+006, 4.06630150e+006, 1.21670088e+006,
          1.60568013e+006, 4851068., 10028749., 1.50783963e+006,
          1.32046775e+006, 2.64368050e+006, 5010570., 1525584.,
          1.74569388e+006, 5.54208250e+006 ]
      - [ 0., 0., 0., 0., 0., 0., 1.01289902e+001, 5.09901953e+000,
          5.48907204e+001, 1.41421356e+001, 0., 0., 0., 0., 0., 0., 0.,
          0., 0., 0., 0., 0., 6.73942261e+002, 1.51826697e+003,
          2.88917334e+003, 6.59584351e+002, 0., 0., 0., 0., 0., 0.,
          1.08126729e+004, 1.08039561e+004, 5.90570801e+003,
          7.86518701e+003, 9.91766895e+003, 7.74557764e+003,
          1.45041650e+004, 1.20414873e+004, 1.29268340e+004,
          1.30820527e+004, 2.26616113e+004, 424218., 4.12074313e+005,
          2.50598711e+004, 1.16455996e+004, 1.55661064e+004,
          2.58938250e+006, 1.61461088e+006, 1.30854075e+006,
          1.84101413e+006, 1793940., 1.37967288e+006, 1.36590813e+006,
          2790128., 3.12075650e+006, 1594377., 1374827., 1.80183350e+006,
          1.86628038e+006, 1.16229475e+006, 1.20939538e+006,
          2.06288175e+006 ]
      - [ 6., 5.65685415e+000, 0., 3.16227770e+000, 18., 0., 0.,
          3.16227770e+000, 4., 1.97989902e+001, 8.94427204e+000,
          6.99852829e+001, 5.59876060e+001, 2.33700924e+001,
          4.32006073e+001, 6.32455540e+000, 1.15567625e+005,
          9.21867188e+003, 1.57300986e+004, 9.39233125e+004,
          9.75704375e+004, 2.27889902e+004, 2.37209219e+004,
          6.85139609e+004, 6.47386250e+004, 2.48200957e+004,
          3.61851250e+004, 1.38623625e+005, 8.62422188e+004,
          1.16628906e+004, 1.43108818e+004, 2.23763547e+005, 48.,
          4.24264050e+000, 0., 0., 6., 0., 4.24264050e+000, 0.,
          9.19473343e+001, 5.58428154e+001, 0., 1.89736671e+001,
          9.44605026e+001, 0., 4.73575325e+001, 4.74341660e+001,
          1.45846763e+006, 7.70860313e+005, 7.50662063e+005, 1552035.,
          1.26807913e+006, 535290., 6.51802688e+005, 1152022.,
          1.17470750e+006, 9.03364875e+005, 9.79467313e+005,
          1.71872050e+006, 1.33608175e+006, 9.12233313e+005,
          9.39640938e+005, 1.25458738e+006 ]
      - [ 0., 1.71105976e+001, 1.20830460e+001, 1.84900818e+001,
          2.65039425e+001, 4.40863152e+001, 2.18462906e+001,
          7.07106781e+000, 8., 1.34589371e+002, 1.87282715e+002,
          5.50864807e+002, 7.04529236e+002, 7.37959442e+001,
          3.88768463e+001, 1.21700878e+001, 1.38446484e+004,
          1.20612568e+004, 9.05369629e+003, 2.08724609e+004,
          1.97988008e+004, 1.46952949e+004, 1.84015938e+004,
          5.35414438e+005, 5.90664750e+005, 2.55305234e+004,
          1.32906797e+004, 2.32800918e+004, 2.36153496e+004,
          1.13756318e+004, 9.30723926e+003, 1.08208682e+004,
          5.23258240e+002, 3.82517242e+002, 2.63209106e+002,
          6.01074646e+002, 7.35226013e+002, 2.34815842e+002,
          2.90536957e+002, 2.74575836e+002, 7.14909424e+002,
          1.06263525e+003, 1.22803735e+003, 5.80718164e+004,
          7.15331953e+004, 1.93460620e+003, 1.12155957e+003,
          4.68299805e+002, 3454741., 1402144., 1.23470613e+006,
          1.84184713e+006, 1.61841063e+006, 1.23435175e+006,
          2.02141575e+006, 2.90750025e+006, 2537656., 1.29651438e+006,
          1.25759650e+006, 2.07407963e+006, 2131547., 1.24481813e+006,
          1.55656850e+006, 3.37109525e+006 ]
      - [ 1.80622910e+002, 5.40455872e+002, 2.50432358e+002,
          2.96170837e+002, 2.66799744e+002, 2.09187271e+002,
          1.62181091e+002, 1.99650452e+002, 1.80700043e+002, 0.,
          1.17531311e+002, 1.41828094e+002, 8.10998917e+001,
          2.69004852e+002, 4.69705620e+001, 8.92319870e+001,
          1.12881963e+004, 1.12254229e+004, 7.92207129e+003,
          7.74566211e+003, 1.41524326e+004, 4.37916846e+003,
          5.55672998e+003, 2.78342578e+003, 4.83161475e+003,
          5.32150586e+003, 4.93987695e+003, 3.06180195e+004,
          1.62913389e+004, 6.44545508e+003, 9.36702246e+003,
          8.19521094e+003, 1.60067852e+004, 1.43913037e+004,
          1.74993340e+004, 2.93744453e+004, 3.63303242e+004,
          2.02996113e+004, 1.67369590e+004, 6.10882520e+003,
          1.39953789e+004, 5.96348975e+003, 7.20073779e+003,
          2.21341445e+004, 2.64611348e+004, 6.65872705e+003,
          6.19016846e+003, 5.19793457e+003, 6.31986438e+005,
          5.91897375e+005, 4.95836625e+005, 1.12132838e+006,
          8.49706063e+005, 6.24375063e+005, 6.22751188e+005,
          7.04919875e+005, 7.82758750e+005, 5.41005063e+005,
          3.76150281e+005, 1.59364963e+006, 9.32860750e+005,
          6.98191063e+005, 5.63399375e+005, 871139. ]
      - [ 3.93486847e+002, 1.69705620e+001, 0., 2.84604988e+001, 48., 0.,
          1.97876434e+002, 1.76858557e+003, 5.15369775e+003,
          1.54823135e+002, 330., 6.62721634e+001, 6.40809479e+001, 0.,
          1.69705620e+001, 9.48683357e+000, 1.95737559e+004,
          2.42151445e+004, 2.57296328e+004, 1.09610539e+005,
          1.52641875e+005, 2.04106348e+004, 1.82637969e+004,
          2.29697871e+004, 2.76331387e+004, 3.03792012e+004,
          2.92441719e+004, 1.05976336e+005, 1.55231125e+005,
          3.31277695e+004, 2.54607090e+004, 3.38432500e+004,
          8.09602969e+004, 2.31834199e+004, 2.15513223e+004,
          4.39904570e+004, 7.24011250e+004, 2.24757363e+004,
          2.05714551e+004, 6.81981172e+004, 9.94989609e+004,
          1.88937559e+004, 2.66875391e+004, 5.81436641e+004,
          8.62336875e+004, 1.79184258e+004, 2.19367949e+004,
          7.38577188e+004, 2.69457625e+006, 1.35909738e+006,
          1.65328150e+006, 7.33936550e+006, 7157439., 1.64195450e+006,
          1.37498863e+006, 2.54946275e+006, 2.88141875e+006,
          1.58693313e+006, 1.91363825e+006, 7337339., 6842653.,
          1.80669038e+006, 1.46221450e+006, 2.74366875e+006 ]
      - [ 5.19637451e+003, 4.71009583e+002, 1.98924133e+003,
          4.39288135e+003, 2.92238403e+003, 4.13165918e+003,
          4.15413818e+003, 4.60182324e+003, 5.40029248e+003,
          1.21369360e+003, 2.10881885e+003, 2.94976563e+003,
          3.23590698e+003, 8.99799927e+002, 3.16918286e+003,
          8.48178418e+003, 1.17861711e+005, 1.07368539e+005,
          1.03120164e+005, 1.00054313e+005, 1.80411859e+005,
          1.09042469e+005, 1.01788320e+005, 1.02294961e+005,
          1.13188031e+005, 1.05853180e+005, 1.26181563e+005,
          9.97065234e+004, 1.76888844e+005, 9.05758672e+004,
          1.01277672e+005, 1.06723547e+005, 2.10015828e+005,
          1.23885906e+005, 1.19503094e+005, 7.68120938e+004,
          1.09397922e+005, 8.68552422e+004, 1.05015297e+005,
          1.48291625e+005, 2.48789391e+005, 1.65782500e+005,
          1.44360281e+005, 1.35490016e+005, 1.30102359e+005,
          1.36785156e+005, 1.61341422e+005, 1.47420484e+005, 8451832.,
          8209088., 7518169., 7.41868950e+006, 6.81510650e+006,
          6.27728350e+006, 6.80846150e+006, 7.72032950e+006, 8587623.,
          8266171., 7.50205650e+006, 7.19311250e+006, 6861266., 6445916.,
          7170658., 7.77794650e+006 ]
      - [ 0., 0., 0., 0., 0., 0., 0., 0., 0., 0., 0., 0., 0., 0., 0., 0.,
          0., 0., 0., 0., 0., 0., 0., 0., 0., 0., 0., 0., 0., 0., 0., 0.,
          0., 0., 0., 0., 0., 0., 0., 0., 0., 0., 0., 0., 0., 0., 0., 0.,
          1.32087963e+006, 8.82952500e+005, 8.09591688e+005,
          1.69639875e+006, 1808666., 7.38668813e+005, 8.99782875e+005,
          1.71196588e+006, 1987251., 951303., 1.02936088e+006,
          1.41526813e+006, 1530840., 1.05806563e+006, 1.01518656e+006,
          1.47426538e+006 ]
      - [ 1.66080948e+002, 1.18274582e+002, 7.83271790e+001,
          3.13680145e+002, 1.50313095e+002, 9.84948044e+001,
          1.27752167e+002, 4.61398239e+001, 1.24460503e+002,
          5.22886581e+001, 4.32666168e+001, 2.12132034e+001,
          2.35935242e+002, 1.18742294e+002, 2.33881683e+002,
          5.31789284e+001, 8.35144824e+003, 9.31692090e+003,
          1.22397295e+004, 1.88319023e+004, 2.29569824e+004,
          8.09825586e+003, 7.99204980e+003, 5.41897461e+003,
          6.70880957e+003, 6.92354980e+003, 5.06612598e+003,
          2.05062461e+004, 2.46567402e+004, 8.41793555e+003,
          6.76401514e+003, 5.16626807e+003, 3.11362012e+004,
          1.62963467e+004, 2.54279766e+004, 5.17991914e+004,
          3.94485625e+004, 1.82471719e+004, 1.61472412e+004,
          1.59089922e+004, 3.02094883e+004, 1.26023135e+004,
          1.70314590e+004, 4.93518594e+004, 3.96499063e+004,
          1.01669209e+004, 1.15026855e+004, 9.95173145e+003, 2123668.,
